<?xml version="1.0"?>
<MethodSetup Method="BDT::BDT">
  <GeneralInfo>
    <Info name="TMVA Release" value="4.2.1 [262657]"/>
    <Info name="ROOT Release" value="6.14/04 [396804]"/>
    <Info name="Creator" value="agrummer"/>
    <Info name="Date" value="Tue Jun 16 18:42:30 2020"/>
    <Info name="Host" value="Linux lcgapp-slc6-x86-64-39.cern.ch 2.6.32-696.30.1.el6.x86_64 #1 SMP Tue May 22 06:09:36 CEST 2018 x86_64 x86_64 x86_64 GNU/Linux"/>
    <Info name="Dir" value="/home/agrummer/bmumu2020/BDT"/>
    <Info name="Training events" value="873251"/>
    <Info name="TrainingTime" value="9.85593169e+02"/>
    <Info name="AnalysisType" value="Classification"/>
  </GeneralInfo>
  <Options>
    <Option name="V" modified="Yes">False</Option>
    <Option name="VerbosityLevel" modified="No">Default</Option>
    <Option name="VarTransform" modified="No">None</Option>
    <Option name="H" modified="Yes">False</Option>
    <Option name="CreateMVAPdfs" modified="No">False</Option>
    <Option name="IgnoreNegWeightsInTraining" modified="No">False</Option>
    <Option name="NTrees" modified="Yes">500</Option>
    <Option name="MaxDepth" modified="Yes">4</Option>
    <Option name="MinNodeSize" modified="Yes">0.2</Option>
    <Option name="nCuts" modified="Yes">100</Option>
    <Option name="BoostType" modified="Yes">AdaBoost</Option>
    <Option name="AdaBoostR2Loss" modified="No">quadratic</Option>
    <Option name="UseBaggedBoost" modified="Yes">True</Option>
    <Option name="Shrinkage" modified="No">1.000000e+00</Option>
    <Option name="AdaBoostBeta" modified="Yes">5.000000e-01</Option>
    <Option name="UseRandomisedTrees" modified="No">False</Option>
    <Option name="UseNvars" modified="No">4</Option>
    <Option name="UsePoissonNvars" modified="No">True</Option>
    <Option name="BaggedSampleFraction" modified="Yes">6.000000e-01</Option>
    <Option name="UseYesNoLeaf" modified="No">True</Option>
    <Option name="NegWeightTreatment" modified="No">inverseboostnegweights</Option>
    <Option name="Css" modified="No">1.000000e+00</Option>
    <Option name="Cts_sb" modified="No">1.000000e+00</Option>
    <Option name="Ctb_ss" modified="No">1.000000e+00</Option>
    <Option name="Cbb" modified="No">1.000000e+00</Option>
    <Option name="NodePurityLimit" modified="No">5.000000e-01</Option>
    <Option name="SeparationType" modified="Yes">giniindex</Option>
    <Option name="RegressionLossFunctionBDTG" modified="No">huber</Option>
    <Option name="HuberQuantile" modified="No">7.000000e-01</Option>
    <Option name="DoBoostMonitor" modified="Yes">True</Option>
    <Option name="UseFisherCuts" modified="No">False</Option>
    <Option name="MinLinCorrForFisher" modified="No">8.000000e-01</Option>
    <Option name="UseExclusiveVars" modified="No">False</Option>
    <Option name="DoPreselection" modified="No">False</Option>
    <Option name="SigToBkgFraction" modified="No">1.000000e+00</Option>
    <Option name="PruneMethod" modified="No">nopruning</Option>
    <Option name="PruneStrength" modified="No">0.000000e+00</Option>
    <Option name="PruningValFraction" modified="No">5.000000e-01</Option>
    <Option name="SkipNormalization" modified="No">False</Option>
    <Option name="nEventsMin" modified="No">0</Option>
    <Option name="UseBaggedGrad" modified="No">False</Option>
    <Option name="GradBaggingFraction" modified="No">6.000000e-01</Option>
    <Option name="UseNTrainEvents" modified="No">0</Option>
    <Option name="NNodesMax" modified="No">0</Option>
  </Options>
  <Variables NVar="15">
    <Variable VarIndex="0" Expression="B_iso_7_Chi2_5_noAbs_LooSiHi1Pt05_T0000000127" Label="B_iso_7_Chi2_5_noAbs_LooSiHi1Pt05_T0000000127" Title="B Iso BDI (PVP)  As in Run 1" Unit="" Internal="B_iso_7_Chi2_5_noAbs_LooSiHi1Pt05_T0000000127" Type="F" Min="4.16791160e-03" Max="1.00000000e+00"/>
    <Variable VarIndex="1" Expression="closeTrkDOCA_3" Label="closeTrkDOCA_3" Title="DOCA ACK (OOO)" Unit="mm" Internal="closeTrkDOCA_3" Type="F" Min="3.25096153e-05" Max="3.00000000e+00"/>
    <Variable VarIndex="2" Expression="closeTrkNtrksChi2" Label="closeTrkNtrksChi2" Title="nCloseTracks ACK (OOO)" Unit="" Internal="closeTrkNtrksChi2" Type="I" Min="0.00000000e+00" Max="1.13000000e+02"/>
    <Variable VarIndex="3" Expression="B_pT" Label="B_pT" Title="p_{T}^{B}" Unit="MeV" Internal="B_pT" Type="F" Min="8.00510547e+03" Max="3.66667156e+05"/>
    <Variable VarIndex="4" Expression="Lxy" Label="Lxy" Title="L_{xy}" Unit="mm" Internal="Lxy" Type="F" Min="5.84380236e-04" Max="1.51648438e+02"/>
    <Variable VarIndex="5" Expression="TMath::Abs(d0Min_sig)" Label="TMath::Abs(d0Min_sig)" Title="|d_{0}|^{min} sig." Unit="" Internal="TMath_Abs_d0Min_sig_" Type="F" Min="1.30550973e-06" Max="3.12853210e+02"/>
    <Variable VarIndex="6" Expression="TMath::Abs(d0Max_sig)" Label="TMath::Abs(d0Max_sig)" Title="|d_{0}|^{max} sig." Unit="" Internal="TMath_Abs_d0Max_sig_" Type="F" Min="3.07830167e-03" Max="3.50125122e+02"/>
    <Variable VarIndex="7" Expression="PlngMin2D" Label="PlngMin2D" Title="P^{min}_{L}" Unit="MeV" Internal="PlngMin2D" Type="F" Min="2.49203906e+03" Max="1.17223156e+05"/>
    <Variable VarIndex="8" Expression="chi2_PVSV_log2D" Label="chi2_PVSV_log2D" Title="Log(#chi^{2}_{xy})" Unit="" Internal="chi2_PVSV_log2D" Type="F" Min="-8.85084534e+00" Max="1.45476351e+01"/>
    <Variable VarIndex="9" Expression="TMath::Abs(a_2D)" Label="TMath::Abs(a_2D)" Title="|#alpha_{2D}|" Unit="rad" Internal="TMath_Abs_a_2D_" Type="F" Min="2.59416169e-07" Max="9.99993682e-01"/>
    <Variable VarIndex="10" Expression="DR" Label="DR" Title="#DeltaR" Unit="" Internal="DR" Type="F" Min="9.07591530e-05" Max="1.49997270e+00"/>
    <Variable VarIndex="11" Expression="TMath::Abs(B_IDtrks_deltaPhi)" Label="TMath::Abs(B_IDtrks_deltaPhi)" Title="|#Delta#phi_{#mu#mu}|" Unit="" Internal="TMath_Abs_B_IDtrks_deltaPhi_" Type="F" Min="8.91417585e-07" Max="1.29682279e+00"/>
    <Variable VarIndex="12" Expression="TMath::Abs(B_IDtrks_DCA)" Label="TMath::Abs(B_IDtrks_DCA)" Title="DOCA_{#mu#mu}" Unit="mm" Internal="TMath_Abs_B_IDtrks_DCA_" Type="F" Min="2.03844891e-07" Max="2.10345554e+00"/>
    <Variable VarIndex="13" Expression="Bvtx3DIP" Label="Bvtx3DIP" Title="|IP_{B}^{3D}|" Unit="" Internal="Bvtx3DIP" Type="F" Min="4.15687864e-05" Max="1.48587799e+01"/>
    <Variable VarIndex="14" Expression="B_minChi2MuonsIPtoAnyPV" Label="B_minChi2MuonsIPtoAnyPV" Title="Log(#chi^{2}_{#mu,xPV})" Unit="" Internal="B_minChi2MuonsIPtoAnyPV" Type="F" Min="-1.24813967e+01" Max="1.15124769e+01"/>
  </Variables>
  <Spectators NSpec="0"/>
  <Classes NClass="2">
    <Class Name="Signal" Index="0"/>
    <Class Name="Background" Index="1"/>
  </Classes>
  <Transformations NTransformations="0"/>
  <MVAPdfs/>
  <Weights NTrees="500" AnalysisType="0">
    <BinaryTree type="DecisionTree" boostWeight="1.2089221618370525e+00" itree="0">
      <Node pos="s" depth="0" NCoef="0" IVar="10" Cut="1.3374282419681549e-01" cType="1" res="-9.9000000000000000e+01" rms="0.0000000000000000e+00" purity="4.9821382761001587e-01" nType="0">
        <Node pos="l" depth="1" NCoef="0" IVar="0" Cut="6.3448429107666016e-01" cType="0" res="-9.9000000000000000e+01" rms="0.0000000000000000e+00" purity="9.0803450345993042e-01" nType="0">
          <Node pos="l" depth="2" NCoef="0" IVar="8" Cut="2.1220445632934570e+00" cType="0" res="-9.9000000000000000e+01" rms="0.0000000000000000e+00" purity="9.4917088747024536e-01" nType="0">
            <Node pos="l" depth="3" NCoef="0" IVar="-1" Cut="6.0787234455347061e-02" cType="1" res="-9.9000000000000000e+01" rms="0.0000000000000000e+00" purity="9.7277021408081055e-01" nType="1"/>
            <Node pos="r" depth="3" NCoef="0" IVar="8" Cut="1.5065778493881226e+00" cType="0" res="-9.9000000000000000e+01" rms="0.0000000000000000e+00" purity="4.5313838124275208e-01" nType="0">
              <Node pos="l" depth="4" NCoef="0" IVar="-1" Cut="0.0000000000000000e+00" cType="1" res="-9.9000000000000000e+01" rms="0.0000000000000000e+00" purity="6.5194356441497803e-01" nType="1"/>
              <Node pos="r" depth="4" NCoef="0" IVar="-1" Cut="0.0000000000000000e+00" cType="1" res="-9.9000000000000000e+01" rms="0.0000000000000000e+00" purity="3.3127340674400330e-01" nType="-1"/>
            </Node>
          </Node>
          <Node pos="r" depth="2" NCoef="0" IVar="14" Cut="4.1687455177307129e+00" cType="0" res="-9.9000000000000000e+01" rms="0.0000000000000000e+00" purity="3.7631785869598389e-01" nType="0">
            <Node pos="l" depth="3" NCoef="0" IVar="10" Cut="6.1243042349815369e-02" cType="1" res="-9.9000000000000000e+01" rms="0.0000000000000000e+00" purity="7.9797661304473877e-01" nType="0">
              <Node pos="l" depth="4" NCoef="0" IVar="-1" Cut="0.0000000000000000e+00" cType="1" res="-9.9000000000000000e+01" rms="0.0000000000000000e+00" purity="9.2818731069564819e-01" nType="1"/>
              <Node pos="r" depth="4" NCoef="0" IVar="-1" Cut="0.0000000000000000e+00" cType="1" res="-9.9000000000000000e+01" rms="0.0000000000000000e+00" purity="3.2410198450088501e-01" nType="-1"/>
            </Node>
            <Node pos="r" depth="3" NCoef="0" IVar="-1" Cut="2.6440432295203209e-02" cType="1" res="-9.9000000000000000e+01" rms="0.0000000000000000e+00" purity="1.8334859609603882e-01" nType="-1"/>
          </Node>
        </Node>
        <Node pos="r" depth="1" NCoef="0" IVar="0" Cut="7.9326546192169189e-01" cType="0" res="-9.9000000000000000e+01" rms="0.0000000000000000e+00" purity="1.7076931893825531e-01" nType="0">
          <Node pos="l" depth="2" NCoef="0" IVar="9" Cut="1.1880590766668320e-01" cType="1" res="-9.9000000000000000e+01" rms="0.0000000000000000e+00" purity="4.1177487373352051e-01" nType="0">
            <Node pos="l" depth="3" NCoef="0" IVar="8" Cut="1.6226887702941895e+00" cType="0" res="-9.9000000000000000e+01" rms="0.0000000000000000e+00" purity="6.5160530805587769e-01" nType="0">
              <Node pos="l" depth="4" NCoef="0" IVar="-1" Cut="0.0000000000000000e+00" cType="1" res="-9.9000000000000000e+01" rms="0.0000000000000000e+00" purity="8.4439682960510254e-01" nType="1"/>
              <Node pos="r" depth="4" NCoef="0" IVar="-1" Cut="0.0000000000000000e+00" cType="1" res="-9.9000000000000000e+01" rms="0.0000000000000000e+00" purity="2.9730167984962463e-01" nType="-1"/>
            </Node>
            <Node pos="r" depth="3" NCoef="0" IVar="-1" Cut="2.5839468836784363e-01" cType="1" res="-9.9000000000000000e+01" rms="0.0000000000000000e+00" purity="2.3356547951698303e-01" nType="-1"/>
          </Node>
          <Node pos="r" depth="2" NCoef="0" IVar="-1" Cut="6.9306939840316772e-02" cType="1" res="-9.9000000000000000e+01" rms="0.0000000000000000e+00" purity="4.9336168915033340e-02" nType="-1"/>
        </Node>
      </Node>
    </BinaryTree>
    <BinaryTree type="DecisionTree" boostWeight="8.9673422430174077e-01" itree="1">
      <Node pos="s" depth="0" NCoef="0" IVar="9" Cut="5.9405598789453506e-02" cType="1" res="-9.9000000000000000e+01" rms="0.0000000000000000e+00" purity="5.2689230442047119e-01" nType="0">
        <Node pos="l" depth="1" NCoef="0" IVar="14" Cut="2.2654120922088623e+00" cType="0" res="-9.9000000000000000e+01" rms="0.0000000000000000e+00" purity="8.3597731590270996e-01" nType="0">
          <Node pos="l" depth="2" NCoef="0" IVar="0" Cut="5.5886524915695190e-01" cType="0" res="-9.9000000000000000e+01" rms="0.0000000000000000e+00" purity="9.3891918659210205e-01" nType="0">
            <Node pos="l" depth="3" NCoef="0" IVar="-1" Cut="7.4174374341964722e-02" cType="1" res="-9.9000000000000000e+01" rms="0.0000000000000000e+00" purity="9.5671939849853516e-01" nType="1"/>
            <Node pos="r" depth="3" NCoef="0" IVar="1" Cut="2.0836858451366425e-01" cType="0" res="-9.9000000000000000e+01" rms="0.0000000000000000e+00" purity="4.2811331152915955e-01" nType="0">
              <Node pos="l" depth="4" NCoef="0" IVar="-1" Cut="0.0000000000000000e+00" cType="1" res="-9.9000000000000000e+01" rms="0.0000000000000000e+00" purity="7.1934628486633301e-01" nType="1"/>
              <Node pos="r" depth="4" NCoef="0" IVar="-1" Cut="0.0000000000000000e+00" cType="1" res="-9.9000000000000000e+01" rms="0.0000000000000000e+00" purity="2.6275020837783813e-01" nType="-1"/>
            </Node>
          </Node>
          <Node pos="r" depth="2" NCoef="0" IVar="0" Cut="6.9272840023040771e-01" cType="0" res="-9.9000000000000000e+01" rms="0.0000000000000000e+00" purity="4.7855952382087708e-01" nType="0">
            <Node pos="l" depth="3" NCoef="0" IVar="8" Cut="7.1208703517913818e-01" cType="0" res="-9.9000000000000000e+01" rms="0.0000000000000000e+00" purity="6.0026943683624268e-01" nType="0">
              <Node pos="l" depth="4" NCoef="0" IVar="-1" Cut="0.0000000000000000e+00" cType="1" res="-9.9000000000000000e+01" rms="0.0000000000000000e+00" purity="6.6558438539505005e-01" nType="1"/>
              <Node pos="r" depth="4" NCoef="0" IVar="-1" Cut="0.0000000000000000e+00" cType="1" res="-9.9000000000000000e+01" rms="0.0000000000000000e+00" purity="3.1424325704574585e-01" nType="-1"/>
            </Node>
            <Node pos="r" depth="3" NCoef="0" IVar="-1" Cut="5.7464534044265747e-01" cType="0" res="-9.9000000000000000e+01" rms="0.0000000000000000e+00" purity="1.8147301673889160e-01" nType="-1"/>
          </Node>
        </Node>
        <Node pos="r" depth="1" NCoef="0" IVar="0" Cut="7.7357643842697144e-01" cType="0" res="-9.9000000000000000e+01" rms="0.0000000000000000e+00" purity="2.3122522234916687e-01" nType="0">
          <Node pos="l" depth="2" NCoef="0" IVar="13" Cut="1.0634574294090271e-01" cType="1" res="-9.9000000000000000e+01" rms="0.0000000000000000e+00" purity="4.7500553727149963e-01" nType="0">
            <Node pos="l" depth="3" NCoef="0" IVar="4" Cut="7.7063828706741333e-02" cType="0" res="-9.9000000000000000e+01" rms="0.0000000000000000e+00" purity="5.3168088197708130e-01" nType="0">
              <Node pos="l" depth="4" NCoef="0" IVar="-1" Cut="0.0000000000000000e+00" cType="1" res="-9.9000000000000000e+01" rms="0.0000000000000000e+00" purity="6.2380367517471313e-01" nType="1"/>
              <Node pos="r" depth="4" NCoef="0" IVar="-1" Cut="0.0000000000000000e+00" cType="1" res="-9.9000000000000000e+01" rms="0.0000000000000000e+00" purity="3.8778263330459595e-01" nType="-1"/>
            </Node>
            <Node pos="r" depth="3" NCoef="0" IVar="-1" Cut="1.9912733137607574e-01" cType="1" res="-9.9000000000000000e+01" rms="0.0000000000000000e+00" purity="1.5070857107639313e-01" nType="-1"/>
          </Node>
          <Node pos="r" depth="2" NCoef="0" IVar="-1" Cut="6.7474102973937988e-01" cType="0" res="-9.9000000000000000e+01" rms="0.0000000000000000e+00" purity="6.8857446312904358e-02" nType="-1"/>
        </Node>
      </Node>
    </BinaryTree>
    <BinaryTree type="DecisionTree" boostWeight="6.4499565931049296e-01" itree="2">
      <Node pos="s" depth="0" NCoef="0" IVar="10" Cut="8.9245416224002838e-02" cType="1" res="-9.9000000000000000e+01" rms="0.0000000000000000e+00" purity="5.1632142066955566e-01" nType="0">
        <Node pos="l" depth="1" NCoef="0" IVar="14" Cut="2.5996530055999756e+00" cType="0" res="-9.9000000000000000e+01" rms="0.0000000000000000e+00" purity="8.8986897468566895e-01" nType="0">
          <Node pos="l" depth="2" NCoef="0" IVar="-1" Cut="7.2262430191040039e-01" cType="0" res="-9.9000000000000000e+01" rms="0.0000000000000000e+00" purity="9.5102173089981079e-01" nType="1"/>
          <Node pos="r" depth="2" NCoef="0" IVar="0" Cut="8.0724602937698364e-01" cType="0" res="-9.9000000000000000e+01" rms="0.0000000000000000e+00" purity="5.7459914684295654e-01" nType="0">
            <Node pos="l" depth="3" NCoef="0" IVar="-1" Cut="1.5228178501129150e+00" cType="0" res="-9.9000000000000000e+01" rms="0.0000000000000000e+00" purity="7.1333605051040649e-01" nType="1"/>
            <Node pos="r" depth="3" NCoef="0" IVar="-1" Cut="5.4198715835809708e-02" cType="1" res="-9.9000000000000000e+01" rms="0.0000000000000000e+00" purity="3.9209002256393433e-01" nType="-1"/>
          </Node>
        </Node>
        <Node pos="r" depth="1" NCoef="0" IVar="0" Cut="7.0592558383941650e-01" cType="0" res="-9.9000000000000000e+01" rms="0.0000000000000000e+00" purity="3.2883483171463013e-01" nType="0">
          <Node pos="l" depth="2" NCoef="0" IVar="9" Cut="2.0788604021072388e-01" cType="1" res="-9.9000000000000000e+01" rms="0.0000000000000000e+00" purity="4.8174995183944702e-01" nType="0">
            <Node pos="l" depth="3" NCoef="0" IVar="5" Cut="2.2055373191833496e+00" cType="0" res="-9.9000000000000000e+01" rms="0.0000000000000000e+00" purity="5.6300556659698486e-01" nType="0">
              <Node pos="l" depth="4" NCoef="0" IVar="-1" Cut="0.0000000000000000e+00" cType="1" res="-9.9000000000000000e+01" rms="0.0000000000000000e+00" purity="7.2874695062637329e-01" nType="1"/>
              <Node pos="r" depth="4" NCoef="0" IVar="-1" Cut="0.0000000000000000e+00" cType="1" res="-9.9000000000000000e+01" rms="0.0000000000000000e+00" purity="4.9487268924713135e-01" nType="-1"/>
            </Node>
            <Node pos="r" depth="3" NCoef="0" IVar="-1" Cut="2.3201103210449219e+00" cType="1" res="-9.9000000000000000e+01" rms="0.0000000000000000e+00" purity="3.2333710789680481e-01" nType="-1"/>
          </Node>
          <Node pos="r" depth="2" NCoef="0" IVar="-1" Cut="1.3860890269279480e-01" cType="1" res="-9.9000000000000000e+01" rms="0.0000000000000000e+00" purity="1.0521389544010162e-01" nType="-1"/>
        </Node>
      </Node>
    </BinaryTree>
    <BinaryTree type="DecisionTree" boostWeight="5.8616711485739326e-01" itree="3">
      <Node pos="s" depth="0" NCoef="0" IVar="10" Cut="7.4382074177265167e-02" cType="1" res="-9.9000000000000000e+01" rms="0.0000000000000000e+00" purity="5.4360747337341309e-01" nType="0">
        <Node pos="l" depth="1" NCoef="0" IVar="14" Cut="2.8919098377227783e+00" cType="0" res="-9.9000000000000000e+01" rms="0.0000000000000000e+00" purity="8.9072012901306152e-01" nType="0">
          <Node pos="l" depth="2" NCoef="0" IVar="0" Cut="7.0365476608276367e-01" cType="0" res="-9.9000000000000000e+01" rms="0.0000000000000000e+00" purity="9.5064067840576172e-01" nType="0">
            <Node pos="l" depth="3" NCoef="0" IVar="-1" Cut="3.8892015814781189e-02" cType="1" res="-9.9000000000000000e+01" rms="0.0000000000000000e+00" purity="9.7790163755416870e-01" nType="1"/>
            <Node pos="r" depth="3" NCoef="0" IVar="9" Cut="2.0511884242296219e-02" cType="1" res="-9.9000000000000000e+01" rms="0.0000000000000000e+00" purity="7.2987431287765503e-01" nType="0">
              <Node pos="l" depth="4" NCoef="0" IVar="-1" Cut="0.0000000000000000e+00" cType="1" res="-9.9000000000000000e+01" rms="0.0000000000000000e+00" purity="8.4589457511901855e-01" nType="1"/>
              <Node pos="r" depth="4" NCoef="0" IVar="-1" Cut="0.0000000000000000e+00" cType="1" res="-9.9000000000000000e+01" rms="0.0000000000000000e+00" purity="4.5329618453979492e-01" nType="-1"/>
            </Node>
          </Node>
          <Node pos="r" depth="2" NCoef="0" IVar="8" Cut="2.6392164230346680e+00" cType="0" res="-9.9000000000000000e+01" rms="0.0000000000000000e+00" purity="6.2529689073562622e-01" nType="0">
            <Node pos="l" depth="3" NCoef="0" IVar="12" Cut="6.2494419515132904e-02" cType="1" res="-9.9000000000000000e+01" rms="0.0000000000000000e+00" purity="7.3953950405120850e-01" nType="0">
              <Node pos="l" depth="4" NCoef="0" IVar="-1" Cut="0.0000000000000000e+00" cType="1" res="-9.9000000000000000e+01" rms="0.0000000000000000e+00" purity="8.1016904115676880e-01" nType="1"/>
              <Node pos="r" depth="4" NCoef="0" IVar="-1" Cut="0.0000000000000000e+00" cType="1" res="-9.9000000000000000e+01" rms="0.0000000000000000e+00" purity="3.1458845734596252e-01" nType="-1"/>
            </Node>
            <Node pos="r" depth="3" NCoef="0" IVar="-1" Cut="3.0360923828125000e+04" cType="1" res="-9.9000000000000000e+01" rms="0.0000000000000000e+00" purity="4.3687224388122559e-01" nType="-1"/>
          </Node>
        </Node>
        <Node pos="r" depth="1" NCoef="0" IVar="0" Cut="6.7462909221649170e-01" cType="0" res="-9.9000000000000000e+01" rms="0.0000000000000000e+00" purity="4.0391680598258972e-01" nType="0">
          <Node pos="l" depth="2" NCoef="0" IVar="9" Cut="1.8811927735805511e-01" cType="1" res="-9.9000000000000000e+01" rms="0.0000000000000000e+00" purity="5.3523731231689453e-01" nType="0">
            <Node pos="l" depth="3" NCoef="0" IVar="12" Cut="5.6208971887826920e-02" cType="1" res="-9.9000000000000000e+01" rms="0.0000000000000000e+00" purity="6.1453884840011597e-01" nType="0">
              <Node pos="l" depth="4" NCoef="0" IVar="-1" Cut="0.0000000000000000e+00" cType="1" res="-9.9000000000000000e+01" rms="0.0000000000000000e+00" purity="6.6775041818618774e-01" nType="1"/>
              <Node pos="r" depth="4" NCoef="0" IVar="-1" Cut="0.0000000000000000e+00" cType="1" res="-9.9000000000000000e+01" rms="0.0000000000000000e+00" purity="4.8030224442481995e-01" nType="-1"/>
            </Node>
            <Node pos="r" depth="3" NCoef="0" IVar="-1" Cut="2.6000559329986572e+00" cType="1" res="-9.9000000000000000e+01" rms="0.0000000000000000e+00" purity="3.7421634793281555e-01" nType="-1"/>
          </Node>
          <Node pos="r" depth="2" NCoef="0" IVar="-1" Cut="1.2870828807353973e-01" cType="1" res="-9.9000000000000000e+01" rms="0.0000000000000000e+00" purity="1.2582080066204071e-01" nType="-1"/>
        </Node>
      </Node>
    </BinaryTree>
    <BinaryTree type="DecisionTree" boostWeight="5.0759619417533119e-01" itree="4">
      <Node pos="s" depth="0" NCoef="0" IVar="10" Cut="7.4340529739856720e-02" cType="1" res="-9.9000000000000000e+01" rms="0.0000000000000000e+00" purity="5.6373149156570435e-01" nType="0">
        <Node pos="l" depth="1" NCoef="0" IVar="14" Cut="3.0787098407745361e+00" cType="0" res="-9.9000000000000000e+01" rms="0.0000000000000000e+00" purity="8.7862807512283325e-01" nType="0">
          <Node pos="l" depth="2" NCoef="0" IVar="0" Cut="6.9198858737945557e-01" cType="0" res="-9.9000000000000000e+01" rms="0.0000000000000000e+00" purity="9.4286179542541504e-01" nType="0">
            <Node pos="l" depth="3" NCoef="0" IVar="-1" Cut="2.7884960174560547e-02" cType="1" res="-9.9000000000000000e+01" rms="0.0000000000000000e+00" purity="9.6940714120864868e-01" nType="1"/>
            <Node pos="r" depth="3" NCoef="0" IVar="12" Cut="6.6317528486251831e-02" cType="1" res="-9.9000000000000000e+01" rms="0.0000000000000000e+00" purity="7.1608716249465942e-01" nType="0">
              <Node pos="l" depth="4" NCoef="0" IVar="-1" Cut="0.0000000000000000e+00" cType="1" res="-9.9000000000000000e+01" rms="0.0000000000000000e+00" purity="7.9878181219100952e-01" nType="1"/>
              <Node pos="r" depth="4" NCoef="0" IVar="-1" Cut="0.0000000000000000e+00" cType="1" res="-9.9000000000000000e+01" rms="0.0000000000000000e+00" purity="4.2704859375953674e-01" nType="-1"/>
            </Node>
          </Node>
          <Node pos="r" depth="2" NCoef="0" IVar="14" Cut="1.5509688854217529e+00" cType="0" res="-9.9000000000000000e+01" rms="0.0000000000000000e+00" purity="6.4305484294891357e-01" nType="0">
            <Node pos="l" depth="3" NCoef="0" IVar="0" Cut="7.5280117988586426e-01" cType="0" res="-9.9000000000000000e+01" rms="0.0000000000000000e+00" purity="7.4204212427139282e-01" nType="0">
              <Node pos="l" depth="4" NCoef="0" IVar="-1" Cut="0.0000000000000000e+00" cType="1" res="-9.9000000000000000e+01" rms="0.0000000000000000e+00" purity="8.5973358154296875e-01" nType="1"/>
              <Node pos="r" depth="4" NCoef="0" IVar="-1" Cut="0.0000000000000000e+00" cType="1" res="-9.9000000000000000e+01" rms="0.0000000000000000e+00" purity="4.9075654149055481e-01" nType="-1"/>
            </Node>
            <Node pos="r" depth="3" NCoef="0" IVar="12" Cut="4.1656643152236938e-02" cType="1" res="-9.9000000000000000e+01" rms="0.0000000000000000e+00" purity="5.0811254978179932e-01" nType="0">
              <Node pos="l" depth="4" NCoef="0" IVar="-1" Cut="0.0000000000000000e+00" cType="1" res="-9.9000000000000000e+01" rms="0.0000000000000000e+00" purity="5.7566112279891968e-01" nType="1"/>
              <Node pos="r" depth="4" NCoef="0" IVar="-1" Cut="0.0000000000000000e+00" cType="1" res="-9.9000000000000000e+01" rms="0.0000000000000000e+00" purity="3.3874914050102234e-01" nType="-1"/>
            </Node>
          </Node>
        </Node>
        <Node pos="r" depth="1" NCoef="0" IVar="0" Cut="6.6671562194824219e-01" cType="0" res="-9.9000000000000000e+01" rms="0.0000000000000000e+00" purity="4.5215043425559998e-01" nType="0">
          <Node pos="l" depth="2" NCoef="0" IVar="0" Cut="8.6800628900527954e-01" cType="0" res="-9.9000000000000000e+01" rms="0.0000000000000000e+00" purity="5.5560803413391113e-01" nType="0">
            <Node pos="l" depth="3" NCoef="0" IVar="3" Cut="2.8520632812500000e+04" cType="1" res="-9.9000000000000000e+01" rms="0.0000000000000000e+00" purity="6.4885765314102173e-01" nType="0">
              <Node pos="l" depth="4" NCoef="0" IVar="-1" Cut="0.0000000000000000e+00" cType="1" res="-9.9000000000000000e+01" rms="0.0000000000000000e+00" purity="6.7877495288848877e-01" nType="1"/>
              <Node pos="r" depth="4" NCoef="0" IVar="-1" Cut="0.0000000000000000e+00" cType="1" res="-9.9000000000000000e+01" rms="0.0000000000000000e+00" purity="3.0125489830970764e-01" nType="-1"/>
            </Node>
            <Node pos="r" depth="3" NCoef="0" IVar="13" Cut="1.0129320621490479e-01" cType="1" res="-9.9000000000000000e+01" rms="0.0000000000000000e+00" purity="4.7275501489639282e-01" nType="0">
              <Node pos="l" depth="4" NCoef="0" IVar="-1" Cut="0.0000000000000000e+00" cType="1" res="-9.9000000000000000e+01" rms="0.0000000000000000e+00" purity="5.3472572565078735e-01" nType="1"/>
              <Node pos="r" depth="4" NCoef="0" IVar="-1" Cut="0.0000000000000000e+00" cType="1" res="-9.9000000000000000e+01" rms="0.0000000000000000e+00" purity="2.6924595236778259e-01" nType="-1"/>
            </Node>
          </Node>
          <Node pos="r" depth="2" NCoef="0" IVar="-1" Cut="1.2870828807353973e-01" cType="1" res="-9.9000000000000000e+01" rms="0.0000000000000000e+00" purity="1.9337500631809235e-01" nType="-1"/>
        </Node>
      </Node>
    </BinaryTree>
    <BinaryTree type="DecisionTree" boostWeight="4.5057381698440430e-01" itree="5">
      <Node pos="s" depth="0" NCoef="0" IVar="10" Cut="7.4433825910091400e-02" cType="1" res="-9.9000000000000000e+01" rms="0.0000000000000000e+00" purity="5.2352702617645264e-01" nType="0">
        <Node pos="l" depth="1" NCoef="0" IVar="1" Cut="1.7867037653923035e-01" cType="0" res="-9.9000000000000000e+01" rms="0.0000000000000000e+00" purity="8.4754902124404907e-01" nType="0">
          <Node pos="l" depth="2" NCoef="0" IVar="-1" Cut="3.0180683135986328e+00" cType="0" res="-9.9000000000000000e+01" rms="0.0000000000000000e+00" purity="9.3132525682449341e-01" nType="1"/>
          <Node pos="r" depth="2" NCoef="0" IVar="0" Cut="8.3952641487121582e-01" cType="0" res="-9.9000000000000000e+01" rms="0.0000000000000000e+00" purity="6.0677087306976318e-01" nType="0">
            <Node pos="l" depth="3" NCoef="0" IVar="-1" Cut="1.8743082284927368e+00" cType="0" res="-9.9000000000000000e+01" rms="0.0000000000000000e+00" purity="7.6525229215621948e-01" nType="1"/>
            <Node pos="r" depth="3" NCoef="0" IVar="10" Cut="3.0715534463524818e-02" cType="1" res="-9.9000000000000000e+01" rms="0.0000000000000000e+00" purity="4.9799650907516479e-01" nType="0">
              <Node pos="l" depth="4" NCoef="0" IVar="-1" Cut="0.0000000000000000e+00" cType="1" res="-9.9000000000000000e+01" rms="0.0000000000000000e+00" purity="6.9648879766464233e-01" nType="1"/>
              <Node pos="r" depth="4" NCoef="0" IVar="-1" Cut="0.0000000000000000e+00" cType="1" res="-9.9000000000000000e+01" rms="0.0000000000000000e+00" purity="4.2605638504028320e-01" nType="-1"/>
            </Node>
          </Node>
        </Node>
        <Node pos="r" depth="1" NCoef="0" IVar="0" Cut="7.5350689888000488e-01" cType="0" res="-9.9000000000000000e+01" rms="0.0000000000000000e+00" purity="4.1291818022727966e-01" nType="0">
          <Node pos="l" depth="2" NCoef="0" IVar="3" Cut="1.8963214843750000e+04" cType="1" res="-9.9000000000000000e+01" rms="0.0000000000000000e+00" purity="5.2543413639068604e-01" nType="0">
            <Node pos="l" depth="3" NCoef="0" IVar="-1" Cut="9.2922574281692505e-01" cType="0" res="-9.9000000000000000e+01" rms="0.0000000000000000e+00" purity="5.6980448961257935e-01" nType="1"/>
            <Node pos="r" depth="3" NCoef="0" IVar="-1" Cut="5.9398610144853592e-02" cType="1" res="-9.9000000000000000e+01" rms="0.0000000000000000e+00" purity="3.7679022550582886e-01" nType="-1"/>
          </Node>
          <Node pos="r" depth="2" NCoef="0" IVar="9" Cut="1.8811199069023132e-01" cType="1" res="-9.9000000000000000e+01" rms="0.0000000000000000e+00" purity="2.5404292345046997e-01" nType="0">
            <Node pos="l" depth="3" NCoef="0" IVar="11" Cut="5.8404034376144409e-01" cType="0" res="-9.9000000000000000e+01" rms="0.0000000000000000e+00" purity="3.8330441713333130e-01" nType="0">
              <Node pos="l" depth="4" NCoef="0" IVar="-1" Cut="0.0000000000000000e+00" cType="1" res="-9.9000000000000000e+01" rms="0.0000000000000000e+00" purity="5.4280495643615723e-01" nType="1"/>
              <Node pos="r" depth="4" NCoef="0" IVar="-1" Cut="0.0000000000000000e+00" cType="1" res="-9.9000000000000000e+01" rms="0.0000000000000000e+00" purity="2.5008791685104370e-01" nType="-1"/>
            </Node>
            <Node pos="r" depth="3" NCoef="0" IVar="-1" Cut="5.9028220176696777e-01" cType="0" res="-9.9000000000000000e+01" rms="0.0000000000000000e+00" purity="9.3767270445823669e-02" nType="-1"/>
          </Node>
        </Node>
      </Node>
    </BinaryTree>
    <BinaryTree type="DecisionTree" boostWeight="4.1264204602163856e-01" itree="6">
      <Node pos="s" depth="0" NCoef="0" IVar="10" Cut="5.9491503983736038e-02" cType="1" res="-9.9000000000000000e+01" rms="0.0000000000000000e+00" purity="4.9977299571037292e-01" nType="0">
        <Node pos="l" depth="1" NCoef="0" IVar="14" Cut="3.0370464324951172e+00" cType="0" res="-9.9000000000000000e+01" rms="0.0000000000000000e+00" purity="8.6002856492996216e-01" nType="0">
          <Node pos="l" depth="2" NCoef="0" IVar="-1" Cut="7.6466703414916992e-01" cType="0" res="-9.9000000000000000e+01" rms="0.0000000000000000e+00" purity="9.2598181962966919e-01" nType="1"/>
          <Node pos="r" depth="2" NCoef="0" IVar="14" Cut="1.2971352338790894e+00" cType="0" res="-9.9000000000000000e+01" rms="0.0000000000000000e+00" purity="5.9301769733428955e-01" nType="0">
            <Node pos="l" depth="3" NCoef="0" IVar="-1" Cut="8.7182283401489258e-01" cType="0" res="-9.9000000000000000e+01" rms="0.0000000000000000e+00" purity="7.0148080587387085e-01" nType="1"/>
            <Node pos="r" depth="3" NCoef="0" IVar="3" Cut="2.4392570312500000e+04" cType="1" res="-9.9000000000000000e+01" rms="0.0000000000000000e+00" purity="4.1849383711814880e-01" nType="0">
              <Node pos="l" depth="4" NCoef="0" IVar="-1" Cut="0.0000000000000000e+00" cType="1" res="-9.9000000000000000e+01" rms="0.0000000000000000e+00" purity="5.2432346343994141e-01" nType="1"/>
              <Node pos="r" depth="4" NCoef="0" IVar="-1" Cut="0.0000000000000000e+00" cType="1" res="-9.9000000000000000e+01" rms="0.0000000000000000e+00" purity="2.0414271950721741e-01" nType="-1"/>
            </Node>
          </Node>
        </Node>
        <Node pos="r" depth="1" NCoef="0" IVar="0" Cut="6.0621988773345947e-01" cType="0" res="-9.9000000000000000e+01" rms="0.0000000000000000e+00" purity="4.0482226014137268e-01" nType="0">
          <Node pos="l" depth="2" NCoef="0" IVar="0" Cut="8.9083397388458252e-01" cType="0" res="-9.9000000000000000e+01" rms="0.0000000000000000e+00" purity="4.5647519826889038e-01" nType="0">
            <Node pos="l" depth="3" NCoef="0" IVar="-1" Cut="3.2578604221343994e+00" cType="0" res="-9.9000000000000000e+01" rms="0.0000000000000000e+00" purity="5.7202374935150146e-01" nType="1"/>
            <Node pos="r" depth="3" NCoef="0" IVar="9" Cut="2.9707657173275948e-02" cType="1" res="-9.9000000000000000e+01" rms="0.0000000000000000e+00" purity="3.8877031207084656e-01" nType="0">
              <Node pos="l" depth="4" NCoef="0" IVar="-1" Cut="0.0000000000000000e+00" cType="1" res="-9.9000000000000000e+01" rms="0.0000000000000000e+00" purity="5.5250066518783569e-01" nType="1"/>
              <Node pos="r" depth="4" NCoef="0" IVar="-1" Cut="0.0000000000000000e+00" cType="1" res="-9.9000000000000000e+01" rms="0.0000000000000000e+00" purity="3.5405790805816650e-01" nType="-1"/>
            </Node>
          </Node>
          <Node pos="r" depth="2" NCoef="0" IVar="-1" Cut="1.3861037790775299e-01" cType="1" res="-9.9000000000000000e+01" rms="0.0000000000000000e+00" purity="1.7607705295085907e-01" nType="-1"/>
        </Node>
      </Node>
    </BinaryTree>
    <BinaryTree type="DecisionTree" boostWeight="2.9690144790951301e-01" itree="7">
      <Node pos="s" depth="0" NCoef="0" IVar="10" Cut="4.4641446322202682e-02" cType="1" res="-9.9000000000000000e+01" rms="0.0000000000000000e+00" purity="5.1341688632965088e-01" nType="0">
        <Node pos="l" depth="1" NCoef="0" IVar="14" Cut="2.6744246482849121e+00" cType="0" res="-9.9000000000000000e+01" rms="0.0000000000000000e+00" purity="8.7778913974761963e-01" nType="0">
          <Node pos="l" depth="2" NCoef="0" IVar="-1" Cut="7.6329147815704346e-01" cType="0" res="-9.9000000000000000e+01" rms="0.0000000000000000e+00" purity="9.2838501930236816e-01" nType="1"/>
          <Node pos="r" depth="2" NCoef="0" IVar="14" Cut="3.3309239149093628e-01" cType="0" res="-9.9000000000000000e+01" rms="0.0000000000000000e+00" purity="5.5152708292007446e-01" nType="0">
            <Node pos="l" depth="3" NCoef="0" IVar="12" Cut="5.1394037902355194e-02" cType="1" res="-9.9000000000000000e+01" rms="0.0000000000000000e+00" purity="6.2426519393920898e-01" nType="0">
              <Node pos="l" depth="4" NCoef="0" IVar="-1" Cut="0.0000000000000000e+00" cType="1" res="-9.9000000000000000e+01" rms="0.0000000000000000e+00" purity="6.9207596778869629e-01" nType="1"/>
              <Node pos="r" depth="4" NCoef="0" IVar="-1" Cut="0.0000000000000000e+00" cType="1" res="-9.9000000000000000e+01" rms="0.0000000000000000e+00" purity="3.7383955717086792e-01" nType="-1"/>
            </Node>
            <Node pos="r" depth="3" NCoef="0" IVar="-1" Cut="0.0000000000000000e+00" cType="1" res="-9.9000000000000000e+01" rms="0.0000000000000000e+00" purity="1.5826688706874847e-01" nType="-1"/>
          </Node>
        </Node>
        <Node pos="r" depth="1" NCoef="0" IVar="0" Cut="5.1757800579071045e-01" cType="0" res="-9.9000000000000000e+01" rms="0.0000000000000000e+00" purity="4.4550046324729919e-01" nType="0">
          <Node pos="l" depth="2" NCoef="0" IVar="9" Cut="2.6732748746871948e-01" cType="1" res="-9.9000000000000000e+01" rms="0.0000000000000000e+00" purity="4.7799026966094971e-01" nType="0">
            <Node pos="l" depth="3" NCoef="0" IVar="5" Cut="5.6396374702453613e+00" cType="0" res="-9.9000000000000000e+01" rms="0.0000000000000000e+00" purity="5.1981067657470703e-01" nType="0">
              <Node pos="l" depth="4" NCoef="0" IVar="-1" Cut="0.0000000000000000e+00" cType="1" res="-9.9000000000000000e+01" rms="0.0000000000000000e+00" purity="7.1741795539855957e-01" nType="1"/>
              <Node pos="r" depth="4" NCoef="0" IVar="-1" Cut="0.0000000000000000e+00" cType="1" res="-9.9000000000000000e+01" rms="0.0000000000000000e+00" purity="4.9050968885421753e-01" nType="-1"/>
            </Node>
            <Node pos="r" depth="3" NCoef="0" IVar="-1" Cut="2.2717154026031494e+00" cType="1" res="-9.9000000000000000e+01" rms="0.0000000000000000e+00" purity="3.3298888802528381e-01" nType="-1"/>
          </Node>
          <Node pos="r" depth="2" NCoef="0" IVar="9" Cut="1.2871767580509186e-01" cType="1" res="-9.9000000000000000e+01" rms="0.0000000000000000e+00" purity="1.3033206760883331e-01" nType="0">
            <Node pos="l" depth="3" NCoef="0" IVar="12" Cut="8.6710443720221519e-03" cType="1" res="-9.9000000000000000e+01" rms="0.0000000000000000e+00" purity="2.8892320394515991e-01" nType="0">
              <Node pos="l" depth="4" NCoef="0" IVar="-1" Cut="0.0000000000000000e+00" cType="1" res="-9.9000000000000000e+01" rms="0.0000000000000000e+00" purity="6.9422322511672974e-01" nType="1"/>
              <Node pos="r" depth="4" NCoef="0" IVar="-1" Cut="0.0000000000000000e+00" cType="1" res="-9.9000000000000000e+01" rms="0.0000000000000000e+00" purity="1.8363563716411591e-01" nType="-1"/>
            </Node>
            <Node pos="r" depth="3" NCoef="0" IVar="-1" Cut="1.9667956233024597e-01" cType="1" res="-9.9000000000000000e+01" rms="0.0000000000000000e+00" purity="3.0520327389240265e-02" nType="-1"/>
          </Node>
        </Node>
      </Node>
    </BinaryTree>
    <BinaryTree type="DecisionTree" boostWeight="3.3606656975611460e-01" itree="8">
      <Node pos="s" depth="0" NCoef="0" IVar="10" Cut="7.4382282793521881e-02" cType="1" res="-9.9000000000000000e+01" rms="0.0000000000000000e+00" purity="5.2275007963180542e-01" nType="0">
        <Node pos="l" depth="1" NCoef="0" IVar="14" Cut="3.4523098468780518e+00" cType="0" res="-9.9000000000000000e+01" rms="0.0000000000000000e+00" purity="7.9432499408721924e-01" nType="0">
          <Node pos="l" depth="2" NCoef="0" IVar="-1" Cut="7.7119153738021851e-01" cType="0" res="-9.9000000000000000e+01" rms="0.0000000000000000e+00" purity="8.9406925439834595e-01" nType="1"/>
          <Node pos="r" depth="2" NCoef="0" IVar="14" Cut="2.9307785630226135e-01" cType="0" res="-9.9000000000000000e+01" rms="0.0000000000000000e+00" purity="5.9821522235870361e-01" nType="0">
            <Node pos="l" depth="3" NCoef="0" IVar="-1" Cut="8.8200801610946655e-01" cType="0" res="-9.9000000000000000e+01" rms="0.0000000000000000e+00" purity="6.3432770967483521e-01" nType="1"/>
            <Node pos="r" depth="3" NCoef="0" IVar="-1" Cut="3.7526473402976990e-02" cType="0" res="-9.9000000000000000e+01" rms="0.0000000000000000e+00" purity="3.3889469504356384e-01" nType="-1"/>
          </Node>
        </Node>
        <Node pos="r" depth="1" NCoef="0" IVar="0" Cut="5.1687353849411011e-01" cType="0" res="-9.9000000000000000e+01" rms="0.0000000000000000e+00" purity="4.4404444098472595e-01" nType="0">
          <Node pos="l" depth="2" NCoef="0" IVar="9" Cut="2.7722966670989990e-01" cType="1" res="-9.9000000000000000e+01" rms="0.0000000000000000e+00" purity="4.7817271947860718e-01" nType="0">
            <Node pos="l" depth="3" NCoef="0" IVar="3" Cut="1.5112183593750000e+04" cType="1" res="-9.9000000000000000e+01" rms="0.0000000000000000e+00" purity="5.1869642734527588e-01" nType="0">
              <Node pos="l" depth="4" NCoef="0" IVar="-1" Cut="0.0000000000000000e+00" cType="1" res="-9.9000000000000000e+01" rms="0.0000000000000000e+00" purity="5.7918852567672729e-01" nType="1"/>
              <Node pos="r" depth="4" NCoef="0" IVar="-1" Cut="0.0000000000000000e+00" cType="1" res="-9.9000000000000000e+01" rms="0.0000000000000000e+00" purity="4.3904617428779602e-01" nType="-1"/>
            </Node>
            <Node pos="r" depth="3" NCoef="0" IVar="8" Cut="2.0774016380310059e+00" cType="1" res="-9.9000000000000000e+01" rms="0.0000000000000000e+00" purity="3.4098857641220093e-01" nType="0">
              <Node pos="l" depth="4" NCoef="0" IVar="-1" Cut="0.0000000000000000e+00" cType="1" res="-9.9000000000000000e+01" rms="0.0000000000000000e+00" purity="5.0271904468536377e-01" nType="1"/>
              <Node pos="r" depth="4" NCoef="0" IVar="-1" Cut="0.0000000000000000e+00" cType="1" res="-9.9000000000000000e+01" rms="0.0000000000000000e+00" purity="1.1625025421380997e-01" nType="-1"/>
            </Node>
          </Node>
          <Node pos="r" depth="2" NCoef="0" IVar="-1" Cut="7.9206615686416626e-02" cType="1" res="-9.9000000000000000e+01" rms="0.0000000000000000e+00" purity="1.0301282256841660e-01" nType="-1"/>
        </Node>
      </Node>
    </BinaryTree>
    <BinaryTree type="DecisionTree" boostWeight="2.8246980743067701e-01" itree="9">
      <Node pos="s" depth="0" NCoef="0" IVar="10" Cut="4.4696137309074402e-02" cType="1" res="-9.9000000000000000e+01" rms="0.0000000000000000e+00" purity="5.0907146930694580e-01" nType="0">
        <Node pos="l" depth="1" NCoef="0" IVar="14" Cut="3.0777630805969238e+00" cType="0" res="-9.9000000000000000e+01" rms="0.0000000000000000e+00" purity="8.3379703760147095e-01" nType="0">
          <Node pos="l" depth="2" NCoef="0" IVar="-1" Cut="6.6007459163665771e-01" cType="0" res="-9.9000000000000000e+01" rms="0.0000000000000000e+00" purity="9.0428060293197632e-01" nType="1"/>
          <Node pos="r" depth="2" NCoef="0" IVar="14" Cut="1.5355232954025269e+00" cType="0" res="-9.9000000000000000e+01" rms="0.0000000000000000e+00" purity="5.2504342794418335e-01" nType="0">
            <Node pos="l" depth="3" NCoef="0" IVar="0" Cut="7.4364566802978516e-01" cType="0" res="-9.9000000000000000e+01" rms="0.0000000000000000e+00" purity="6.2720823287963867e-01" nType="0">
              <Node pos="l" depth="4" NCoef="0" IVar="-1" Cut="0.0000000000000000e+00" cType="1" res="-9.9000000000000000e+01" rms="0.0000000000000000e+00" purity="7.3158711194992065e-01" nType="1"/>
              <Node pos="r" depth="4" NCoef="0" IVar="-1" Cut="0.0000000000000000e+00" cType="1" res="-9.9000000000000000e+01" rms="0.0000000000000000e+00" purity="4.2484527826309204e-01" nType="-1"/>
            </Node>
            <Node pos="r" depth="3" NCoef="0" IVar="7" Cut="5.9250195312500000e+03" cType="0" res="-9.9000000000000000e+01" rms="0.0000000000000000e+00" purity="3.9464026689529419e-01" nType="0">
              <Node pos="l" depth="4" NCoef="0" IVar="-1" Cut="0.0000000000000000e+00" cType="1" res="-9.9000000000000000e+01" rms="0.0000000000000000e+00" purity="5.0152283906936646e-01" nType="1"/>
              <Node pos="r" depth="4" NCoef="0" IVar="-1" Cut="0.0000000000000000e+00" cType="1" res="-9.9000000000000000e+01" rms="0.0000000000000000e+00" purity="2.3540483415126801e-01" nType="-1"/>
            </Node>
          </Node>
        </Node>
        <Node pos="r" depth="1" NCoef="0" IVar="9" Cut="2.5742471218109131e-01" cType="1" res="-9.9000000000000000e+01" rms="0.0000000000000000e+00" purity="4.5217800140380859e-01" nType="0">
          <Node pos="l" depth="2" NCoef="0" IVar="0" Cut="4.5266276597976685e-01" cType="0" res="-9.9000000000000000e+01" rms="0.0000000000000000e+00" purity="5.0248062610626221e-01" nType="0">
            <Node pos="l" depth="3" NCoef="0" IVar="9" Cut="7.1366652846336365e-02" cType="1" res="-9.9000000000000000e+01" rms="0.0000000000000000e+00" purity="5.1792562007904053e-01" nType="0">
              <Node pos="l" depth="4" NCoef="0" IVar="-1" Cut="0.0000000000000000e+00" cType="1" res="-9.9000000000000000e+01" rms="0.0000000000000000e+00" purity="5.6727629899978638e-01" nType="1"/>
              <Node pos="r" depth="4" NCoef="0" IVar="-1" Cut="0.0000000000000000e+00" cType="1" res="-9.9000000000000000e+01" rms="0.0000000000000000e+00" purity="4.6446055173873901e-01" nType="-1"/>
            </Node>
            <Node pos="r" depth="3" NCoef="0" IVar="9" Cut="1.2752969749271870e-02" cType="1" res="-9.9000000000000000e+01" rms="0.0000000000000000e+00" purity="1.2070289254188538e-01" nType="0">
              <Node pos="l" depth="4" NCoef="0" IVar="-1" Cut="0.0000000000000000e+00" cType="1" res="-9.9000000000000000e+01" rms="0.0000000000000000e+00" purity="5.0578612089157104e-01" nType="1"/>
              <Node pos="r" depth="4" NCoef="0" IVar="-1" Cut="0.0000000000000000e+00" cType="1" res="-9.9000000000000000e+01" rms="0.0000000000000000e+00" purity="7.2437949478626251e-02" nType="-1"/>
            </Node>
          </Node>
          <Node pos="r" depth="2" NCoef="0" IVar="-1" Cut="2.5749406814575195e+00" cType="1" res="-9.9000000000000000e+01" rms="0.0000000000000000e+00" purity="2.8923785686492920e-01" nType="-1"/>
        </Node>
      </Node>
    </BinaryTree>
    <BinaryTree type="DecisionTree" boostWeight="2.7283458897002327e-01" itree="10">
      <Node pos="s" depth="0" NCoef="0" IVar="10" Cut="4.4703286141157150e-02" cType="1" res="-9.9000000000000000e+01" rms="0.0000000000000000e+00" purity="5.2555567026138306e-01" nType="0">
        <Node pos="l" depth="1" NCoef="0" IVar="1" Cut="2.9746320843696594e-01" cType="0" res="-9.9000000000000000e+01" rms="0.0000000000000000e+00" purity="8.2557517290115356e-01" nType="0">
          <Node pos="l" depth="2" NCoef="0" IVar="-1" Cut="3.7401907444000244e+00" cType="0" res="-9.9000000000000000e+01" rms="0.0000000000000000e+00" purity="9.3903058767318726e-01" nType="1"/>
          <Node pos="r" depth="2" NCoef="0" IVar="8" Cut="2.1772277355194092e+00" cType="0" res="-9.9000000000000000e+01" rms="0.0000000000000000e+00" purity="6.1558854579925537e-01" nType="0">
            <Node pos="l" depth="3" NCoef="0" IVar="0" Cut="7.6195669174194336e-01" cType="0" res="-9.9000000000000000e+01" rms="0.0000000000000000e+00" purity="6.7150509357452393e-01" nType="0">
              <Node pos="l" depth="4" NCoef="0" IVar="-1" Cut="0.0000000000000000e+00" cType="1" res="-9.9000000000000000e+01" rms="0.0000000000000000e+00" purity="8.2081532478332520e-01" nType="1"/>
              <Node pos="r" depth="4" NCoef="0" IVar="-1" Cut="0.0000000000000000e+00" cType="1" res="-9.9000000000000000e+01" rms="0.0000000000000000e+00" purity="4.9015220999717712e-01" nType="-1"/>
            </Node>
            <Node pos="r" depth="3" NCoef="0" IVar="-1" Cut="1.1017792224884033e+00" cType="0" res="-9.9000000000000000e+01" rms="0.0000000000000000e+00" purity="2.7407100796699524e-01" nType="-1"/>
          </Node>
        </Node>
        <Node pos="r" depth="1" NCoef="0" IVar="0" Cut="5.2746385335922241e-01" cType="0" res="-9.9000000000000000e+01" rms="0.0000000000000000e+00" purity="4.7682917118072510e-01" nType="0">
          <Node pos="l" depth="2" NCoef="0" IVar="13" Cut="1.4753478765487671e-01" cType="1" res="-9.9000000000000000e+01" rms="0.0000000000000000e+00" purity="5.0341087579727173e-01" nType="0">
            <Node pos="l" depth="3" NCoef="0" IVar="13" Cut="7.4705526232719421e-02" cType="1" res="-9.9000000000000000e+01" rms="0.0000000000000000e+00" purity="5.2587419748306274e-01" nType="0">
              <Node pos="l" depth="4" NCoef="0" IVar="-1" Cut="0.0000000000000000e+00" cType="1" res="-9.9000000000000000e+01" rms="0.0000000000000000e+00" purity="5.5492979288101196e-01" nType="1"/>
              <Node pos="r" depth="4" NCoef="0" IVar="-1" Cut="0.0000000000000000e+00" cType="1" res="-9.9000000000000000e+01" rms="0.0000000000000000e+00" purity="4.0807899832725525e-01" nType="-1"/>
            </Node>
            <Node pos="r" depth="3" NCoef="0" IVar="-1" Cut="1.3859887421131134e-01" cType="1" res="-9.9000000000000000e+01" rms="0.0000000000000000e+00" purity="3.1352293491363525e-01" nType="-1"/>
          </Node>
          <Node pos="r" depth="2" NCoef="0" IVar="10" Cut="2.0321284234523773e-01" cType="1" res="-9.9000000000000000e+01" rms="0.0000000000000000e+00" purity="2.0349685847759247e-01" nType="0">
            <Node pos="l" depth="3" NCoef="0" IVar="3" Cut="1.2264200195312500e+04" cType="1" res="-9.9000000000000000e+01" rms="0.0000000000000000e+00" purity="4.2741343379020691e-01" nType="0">
              <Node pos="l" depth="4" NCoef="0" IVar="-1" Cut="0.0000000000000000e+00" cType="1" res="-9.9000000000000000e+01" rms="0.0000000000000000e+00" purity="6.6099464893341064e-01" nType="1"/>
              <Node pos="r" depth="4" NCoef="0" IVar="-1" Cut="0.0000000000000000e+00" cType="1" res="-9.9000000000000000e+01" rms="0.0000000000000000e+00" purity="2.9655492305755615e-01" nType="-1"/>
            </Node>
            <Node pos="r" depth="3" NCoef="0" IVar="-1" Cut="3.9146199822425842e-01" cType="1" res="-9.9000000000000000e+01" rms="0.0000000000000000e+00" purity="1.1805449426174164e-01" nType="-1"/>
          </Node>
        </Node>
      </Node>
    </BinaryTree>
    <BinaryTree type="DecisionTree" boostWeight="2.3697999127152852e-01" itree="11">
      <Node pos="s" depth="0" NCoef="0" IVar="10" Cut="4.4641446322202682e-02" cType="1" res="-9.9000000000000000e+01" rms="0.0000000000000000e+00" purity="5.0118917226791382e-01" nType="0">
        <Node pos="l" depth="1" NCoef="0" IVar="14" Cut="3.7013428211212158e+00" cType="0" res="-9.9000000000000000e+01" rms="0.0000000000000000e+00" purity="8.1479215621948242e-01" nType="0">
          <Node pos="l" depth="2" NCoef="0" IVar="-1" Cut="6.5075522661209106e-01" cType="0" res="-9.9000000000000000e+01" rms="0.0000000000000000e+00" purity="9.0947473049163818e-01" nType="1"/>
          <Node pos="r" depth="2" NCoef="0" IVar="14" Cut="1.4761270284652710e+00" cType="0" res="-9.9000000000000000e+01" rms="0.0000000000000000e+00" purity="5.7404589653015137e-01" nType="0">
            <Node pos="l" depth="3" NCoef="0" IVar="-1" Cut="8.4311133623123169e-01" cType="0" res="-9.9000000000000000e+01" rms="0.0000000000000000e+00" purity="6.5430998802185059e-01" nType="1"/>
            <Node pos="r" depth="3" NCoef="0" IVar="-1" Cut="7.4004465341567993e-01" cType="0" res="-9.9000000000000000e+01" rms="0.0000000000000000e+00" purity="3.7134084105491638e-01" nType="-1"/>
          </Node>
        </Node>
        <Node pos="r" depth="1" NCoef="0" IVar="9" Cut="4.2574003338813782e-01" cType="1" res="-9.9000000000000000e+01" rms="0.0000000000000000e+00" purity="4.5125108957290649e-01" nType="0">
          <Node pos="l" depth="2" NCoef="0" IVar="0" Cut="4.4288888573646545e-01" cType="0" res="-9.9000000000000000e+01" rms="0.0000000000000000e+00" purity="4.7946602106094360e-01" nType="0">
            <Node pos="l" depth="3" NCoef="0" IVar="12" Cut="6.1745483428239822e-02" cType="1" res="-9.9000000000000000e+01" rms="0.0000000000000000e+00" purity="4.9324271082878113e-01" nType="0">
              <Node pos="l" depth="4" NCoef="0" IVar="-1" Cut="0.0000000000000000e+00" cType="1" res="-9.9000000000000000e+01" rms="0.0000000000000000e+00" purity="5.2576762437820435e-01" nType="1"/>
              <Node pos="r" depth="4" NCoef="0" IVar="-1" Cut="0.0000000000000000e+00" cType="1" res="-9.9000000000000000e+01" rms="0.0000000000000000e+00" purity="4.0763726830482483e-01" nType="-1"/>
            </Node>
            <Node pos="r" depth="3" NCoef="0" IVar="10" Cut="8.7865620851516724e-02" cType="1" res="-9.9000000000000000e+01" rms="0.0000000000000000e+00" purity="1.1140955984592438e-01" nType="0">
              <Node pos="l" depth="4" NCoef="0" IVar="-1" Cut="0.0000000000000000e+00" cType="1" res="-9.9000000000000000e+01" rms="0.0000000000000000e+00" purity="5.3526121377944946e-01" nType="1"/>
              <Node pos="r" depth="4" NCoef="0" IVar="-1" Cut="0.0000000000000000e+00" cType="1" res="-9.9000000000000000e+01" rms="0.0000000000000000e+00" purity="4.5312110334634781e-02" nType="-1"/>
            </Node>
          </Node>
          <Node pos="r" depth="2" NCoef="0" IVar="-1" Cut="2.2646121978759766e+00" cType="1" res="-9.9000000000000000e+01" rms="0.0000000000000000e+00" purity="1.9896391034126282e-01" nType="-1"/>
        </Node>
      </Node>
    </BinaryTree>
    <BinaryTree type="DecisionTree" boostWeight="2.4121956208300599e-01" itree="12">
      <Node pos="s" depth="0" NCoef="0" IVar="14" Cut="4.3855838775634766e+00" cType="0" res="-9.9000000000000000e+01" rms="0.0000000000000000e+00" purity="4.9290162324905396e-01" nType="0">
        <Node pos="l" depth="1" NCoef="0" IVar="9" Cut="3.9592877030372620e-02" cType="1" res="-9.9000000000000000e+01" rms="0.0000000000000000e+00" purity="7.9186779260635376e-01" nType="0">
          <Node pos="l" depth="2" NCoef="0" IVar="-1" Cut="8.0225503444671631e-01" cType="0" res="-9.9000000000000000e+01" rms="0.0000000000000000e+00" purity="8.6626994609832764e-01" nType="1"/>
          <Node pos="r" depth="2" NCoef="0" IVar="11" Cut="8.1067037582397461e-01" cType="0" res="-9.9000000000000000e+01" rms="0.0000000000000000e+00" purity="3.1149718165397644e-01" nType="0">
            <Node pos="l" depth="3" NCoef="0" IVar="-1" Cut="0.0000000000000000e+00" cType="1" res="-9.9000000000000000e+01" rms="0.0000000000000000e+00" purity="6.5103739500045776e-01" nType="1"/>
            <Node pos="r" depth="3" NCoef="0" IVar="-1" Cut="5.3775274753570557e-01" cType="0" res="-9.9000000000000000e+01" rms="0.0000000000000000e+00" purity="1.7708912491798401e-01" nType="-1"/>
          </Node>
        </Node>
        <Node pos="r" depth="1" NCoef="0" IVar="0" Cut="5.6617218255996704e-01" cType="0" res="-9.9000000000000000e+01" rms="0.0000000000000000e+00" purity="4.4734442234039307e-01" nType="0">
          <Node pos="l" depth="2" NCoef="0" IVar="13" Cut="1.4001527428627014e-01" cType="1" res="-9.9000000000000000e+01" rms="0.0000000000000000e+00" purity="4.7370338439941406e-01" nType="0">
            <Node pos="l" depth="3" NCoef="0" IVar="14" Cut="3.0495336055755615e+00" cType="0" res="-9.9000000000000000e+01" rms="0.0000000000000000e+00" purity="4.9163931608200073e-01" nType="0">
              <Node pos="l" depth="4" NCoef="0" IVar="-1" Cut="0.0000000000000000e+00" cType="1" res="-9.9000000000000000e+01" rms="0.0000000000000000e+00" purity="6.3978976011276245e-01" nType="1"/>
              <Node pos="r" depth="4" NCoef="0" IVar="-1" Cut="0.0000000000000000e+00" cType="1" res="-9.9000000000000000e+01" rms="0.0000000000000000e+00" purity="4.7295427322387695e-01" nType="-1"/>
            </Node>
            <Node pos="r" depth="3" NCoef="0" IVar="8" Cut="3.2087037563323975e+00" cType="1" res="-9.9000000000000000e+01" rms="0.0000000000000000e+00" purity="2.7416729927062988e-01" nType="0">
              <Node pos="l" depth="4" NCoef="0" IVar="-1" Cut="0.0000000000000000e+00" cType="1" res="-9.9000000000000000e+01" rms="0.0000000000000000e+00" purity="5.6208837032318115e-01" nType="1"/>
              <Node pos="r" depth="4" NCoef="0" IVar="-1" Cut="0.0000000000000000e+00" cType="1" res="-9.9000000000000000e+01" rms="0.0000000000000000e+00" purity="1.6283343732357025e-01" nType="-1"/>
            </Node>
          </Node>
          <Node pos="r" depth="2" NCoef="0" IVar="9" Cut="1.2870948016643524e-01" cType="1" res="-9.9000000000000000e+01" rms="0.0000000000000000e+00" purity="2.3149274289608002e-01" nType="0">
            <Node pos="l" depth="3" NCoef="0" IVar="0" Cut="4.5928758382797241e-01" cType="0" res="-9.9000000000000000e+01" rms="0.0000000000000000e+00" purity="4.1367834806442261e-01" nType="0">
              <Node pos="l" depth="4" NCoef="0" IVar="-1" Cut="0.0000000000000000e+00" cType="1" res="-9.9000000000000000e+01" rms="0.0000000000000000e+00" purity="5.2317535877227783e-01" nType="1"/>
              <Node pos="r" depth="4" NCoef="0" IVar="-1" Cut="0.0000000000000000e+00" cType="1" res="-9.9000000000000000e+01" rms="0.0000000000000000e+00" purity="1.7860037088394165e-01" nType="-1"/>
            </Node>
            <Node pos="r" depth="3" NCoef="0" IVar="-1" Cut="-5.1079291105270386e-01" cType="1" res="-9.9000000000000000e+01" rms="0.0000000000000000e+00" purity="6.9538690149784088e-02" nType="-1"/>
          </Node>
        </Node>
      </Node>
    </BinaryTree>
    <BinaryTree type="DecisionTree" boostWeight="2.4245926703857362e-01" itree="13">
      <Node pos="s" depth="0" NCoef="0" IVar="10" Cut="4.4641446322202682e-02" cType="1" res="-9.9000000000000000e+01" rms="0.0000000000000000e+00" purity="5.0966674089431763e-01" nType="0">
        <Node pos="l" depth="1" NCoef="0" IVar="1" Cut="3.5706949234008789e-01" cType="0" res="-9.9000000000000000e+01" rms="0.0000000000000000e+00" purity="7.8615570068359375e-01" nType="0">
          <Node pos="l" depth="2" NCoef="0" IVar="-1" Cut="6.7065156996250153e-02" cType="1" res="-9.9000000000000000e+01" rms="0.0000000000000000e+00" purity="9.1835927963256836e-01" nType="1"/>
          <Node pos="r" depth="2" NCoef="0" IVar="0" Cut="7.6466703414916992e-01" cType="0" res="-9.9000000000000000e+01" rms="0.0000000000000000e+00" purity="6.1329567432403564e-01" nType="0">
            <Node pos="l" depth="3" NCoef="0" IVar="8" Cut="3.3164489269256592e+00" cType="0" res="-9.9000000000000000e+01" rms="0.0000000000000000e+00" purity="7.4342101812362671e-01" nType="0">
              <Node pos="l" depth="4" NCoef="0" IVar="-1" Cut="0.0000000000000000e+00" cType="1" res="-9.9000000000000000e+01" rms="0.0000000000000000e+00" purity="8.6034905910491943e-01" nType="1"/>
              <Node pos="r" depth="4" NCoef="0" IVar="-1" Cut="0.0000000000000000e+00" cType="1" res="-9.9000000000000000e+01" rms="0.0000000000000000e+00" purity="4.9594113230705261e-01" nType="-1"/>
            </Node>
            <Node pos="r" depth="3" NCoef="0" IVar="3" Cut="2.3607318359375000e+04" cType="1" res="-9.9000000000000000e+01" rms="0.0000000000000000e+00" purity="4.5229998230934143e-01" nType="0">
              <Node pos="l" depth="4" NCoef="0" IVar="-1" Cut="0.0000000000000000e+00" cType="1" res="-9.9000000000000000e+01" rms="0.0000000000000000e+00" purity="5.1787883043289185e-01" nType="1"/>
              <Node pos="r" depth="4" NCoef="0" IVar="-1" Cut="0.0000000000000000e+00" cType="1" res="-9.9000000000000000e+01" rms="0.0000000000000000e+00" purity="2.2108806669712067e-01" nType="-1"/>
            </Node>
          </Node>
        </Node>
        <Node pos="r" depth="1" NCoef="0" IVar="0" Cut="5.7603186368942261e-01" cType="0" res="-9.9000000000000000e+01" rms="0.0000000000000000e+00" purity="4.6847015619277954e-01" nType="0">
          <Node pos="l" depth="2" NCoef="0" IVar="0" Cut="8.4048748016357422e-01" cType="0" res="-9.9000000000000000e+01" rms="0.0000000000000000e+00" purity="5.0039744377136230e-01" nType="0">
            <Node pos="l" depth="3" NCoef="0" IVar="-1" Cut="2.2415704727172852e+00" cType="0" res="-9.9000000000000000e+01" rms="0.0000000000000000e+00" purity="5.6008243560791016e-01" nType="1"/>
            <Node pos="r" depth="3" NCoef="0" IVar="12" Cut="3.4066747874021530e-02" cType="1" res="-9.9000000000000000e+01" rms="0.0000000000000000e+00" purity="4.3621459603309631e-01" nType="0">
              <Node pos="l" depth="4" NCoef="0" IVar="-1" Cut="0.0000000000000000e+00" cType="1" res="-9.9000000000000000e+01" rms="0.0000000000000000e+00" purity="5.0910377502441406e-01" nType="1"/>
              <Node pos="r" depth="4" NCoef="0" IVar="-1" Cut="0.0000000000000000e+00" cType="1" res="-9.9000000000000000e+01" rms="0.0000000000000000e+00" purity="3.7168255448341370e-01" nType="-1"/>
            </Node>
          </Node>
          <Node pos="r" depth="2" NCoef="0" IVar="-1" Cut="8.9102700352668762e-02" cType="1" res="-9.9000000000000000e+01" rms="0.0000000000000000e+00" purity="2.2060979902744293e-01" nType="-1"/>
        </Node>
      </Node>
    </BinaryTree>
    <BinaryTree type="DecisionTree" boostWeight="1.9733723011517265e-01" itree="14">
      <Node pos="s" depth="0" NCoef="0" IVar="14" Cut="4.3158740997314453e+00" cType="0" res="-9.9000000000000000e+01" rms="0.0000000000000000e+00" purity="4.9471405148506165e-01" nType="0">
        <Node pos="l" depth="1" NCoef="0" IVar="9" Cut="2.9694037511944771e-02" cType="1" res="-9.9000000000000000e+01" rms="0.0000000000000000e+00" purity="7.6251077651977539e-01" nType="0">
          <Node pos="l" depth="2" NCoef="0" IVar="0" Cut="6.6525822877883911e-01" cType="0" res="-9.9000000000000000e+01" rms="0.0000000000000000e+00" purity="8.4600931406021118e-01" nType="0">
            <Node pos="l" depth="3" NCoef="0" IVar="-1" Cut="7.6112404465675354e-02" cType="1" res="-9.9000000000000000e+01" rms="0.0000000000000000e+00" purity="8.9932835102081299e-01" nType="1"/>
            <Node pos="r" depth="3" NCoef="0" IVar="-1" Cut="0.0000000000000000e+00" cType="1" res="-9.9000000000000000e+01" rms="0.0000000000000000e+00" purity="4.6848100423812866e-01" nType="-1"/>
          </Node>
          <Node pos="r" depth="2" NCoef="0" IVar="3" Cut="1.3301932617187500e+04" cType="1" res="-9.9000000000000000e+01" rms="0.0000000000000000e+00" purity="4.5124557614326477e-01" nType="0">
            <Node pos="l" depth="3" NCoef="0" IVar="9" Cut="8.7299965322017670e-02" cType="1" res="-9.9000000000000000e+01" rms="0.0000000000000000e+00" purity="6.7218750715255737e-01" nType="0">
              <Node pos="l" depth="4" NCoef="0" IVar="-1" Cut="0.0000000000000000e+00" cType="1" res="-9.9000000000000000e+01" rms="0.0000000000000000e+00" purity="7.9276472330093384e-01" nType="1"/>
              <Node pos="r" depth="4" NCoef="0" IVar="-1" Cut="0.0000000000000000e+00" cType="1" res="-9.9000000000000000e+01" rms="0.0000000000000000e+00" purity="1.0371378064155579e-01" nType="-1"/>
            </Node>
            <Node pos="r" depth="3" NCoef="0" IVar="-1" Cut="8.2115983963012695e-01" cType="0" res="-9.9000000000000000e+01" rms="0.0000000000000000e+00" purity="2.0522320270538330e-01" nType="-1"/>
          </Node>
        </Node>
        <Node pos="r" depth="1" NCoef="0" IVar="13" Cut="1.4001904428005219e-01" cType="1" res="-9.9000000000000000e+01" rms="0.0000000000000000e+00" purity="4.5479089021682739e-01" nType="0">
          <Node pos="l" depth="2" NCoef="0" IVar="0" Cut="4.6185091137886047e-01" cType="0" res="-9.9000000000000000e+01" rms="0.0000000000000000e+00" purity="4.7848865389823914e-01" nType="0">
            <Node pos="l" depth="3" NCoef="0" IVar="1" Cut="3.8621136546134949e-01" cType="0" res="-9.9000000000000000e+01" rms="0.0000000000000000e+00" purity="4.8994466662406921e-01" nType="0">
              <Node pos="l" depth="4" NCoef="0" IVar="-1" Cut="0.0000000000000000e+00" cType="1" res="-9.9000000000000000e+01" rms="0.0000000000000000e+00" purity="6.8011009693145752e-01" nType="1"/>
              <Node pos="r" depth="4" NCoef="0" IVar="-1" Cut="0.0000000000000000e+00" cType="1" res="-9.9000000000000000e+01" rms="0.0000000000000000e+00" purity="4.8012119531631470e-01" nType="-1"/>
            </Node>
            <Node pos="r" depth="3" NCoef="0" IVar="-1" Cut="2.2405456006526947e-01" cType="1" res="-9.9000000000000000e+01" rms="0.0000000000000000e+00" purity="1.8196743726730347e-01" nType="-1"/>
          </Node>
          <Node pos="r" depth="2" NCoef="0" IVar="-1" Cut="1.3862152397632599e-01" cType="1" res="-9.9000000000000000e+01" rms="0.0000000000000000e+00" purity="2.0349965989589691e-01" nType="-1"/>
        </Node>
      </Node>
    </BinaryTree>
    <BinaryTree type="DecisionTree" boostWeight="1.6222712386343882e-01" itree="15">
      <Node pos="s" depth="0" NCoef="0" IVar="10" Cut="2.9791131615638733e-02" cType="1" res="-9.9000000000000000e+01" rms="0.0000000000000000e+00" purity="5.1952624320983887e-01" nType="0">
        <Node pos="l" depth="1" NCoef="0" IVar="0" Cut="7.6322197914123535e-01" cType="0" res="-9.9000000000000000e+01" rms="0.0000000000000000e+00" purity="8.2844167947769165e-01" nType="0">
          <Node pos="l" depth="2" NCoef="0" IVar="-1" Cut="2.7801883220672607e+00" cType="0" res="-9.9000000000000000e+01" rms="0.0000000000000000e+00" purity="9.0270817279815674e-01" nType="1"/>
          <Node pos="r" depth="2" NCoef="0" IVar="14" Cut="5.0600123405456543e+00" cType="0" res="-9.9000000000000000e+01" rms="0.0000000000000000e+00" purity="5.9652906656265259e-01" nType="0">
            <Node pos="l" depth="3" NCoef="0" IVar="-1" Cut="0.0000000000000000e+00" cType="1" res="-9.9000000000000000e+01" rms="0.0000000000000000e+00" purity="8.6336368322372437e-01" nType="1"/>
            <Node pos="r" depth="3" NCoef="0" IVar="-1" Cut="0.0000000000000000e+00" cType="1" res="-9.9000000000000000e+01" rms="0.0000000000000000e+00" purity="4.3767440319061279e-01" nType="-1"/>
          </Node>
        </Node>
        <Node pos="r" depth="1" NCoef="0" IVar="13" Cut="1.3194429874420166e-01" cType="1" res="-9.9000000000000000e+01" rms="0.0000000000000000e+00" purity="4.9079760909080505e-01" nType="0">
          <Node pos="l" depth="2" NCoef="0" IVar="0" Cut="4.4870784878730774e-01" cType="0" res="-9.9000000000000000e+01" rms="0.0000000000000000e+00" purity="5.1507824659347534e-01" nType="0">
            <Node pos="l" depth="3" NCoef="0" IVar="-1" Cut="1.0000000000000000e+00" cType="1" res="-9.9000000000000000e+01" rms="0.0000000000000000e+00" purity="5.2524459362030029e-01" nType="1"/>
            <Node pos="r" depth="3" NCoef="0" IVar="-1" Cut="6.9306053221225739e-02" cType="1" res="-9.9000000000000000e+01" rms="0.0000000000000000e+00" purity="2.0421910285949707e-01" nType="-1"/>
          </Node>
          <Node pos="r" depth="2" NCoef="0" IVar="9" Cut="8.9111059904098511e-02" cType="1" res="-9.9000000000000000e+01" rms="0.0000000000000000e+00" purity="3.0280905961990356e-01" nType="0">
            <Node pos="l" depth="3" NCoef="0" IVar="14" Cut="1.4597152471542358e+00" cType="0" res="-9.9000000000000000e+01" rms="0.0000000000000000e+00" purity="4.7075557708740234e-01" nType="0">
              <Node pos="l" depth="4" NCoef="0" IVar="-1" Cut="0.0000000000000000e+00" cType="1" res="-9.9000000000000000e+01" rms="0.0000000000000000e+00" purity="5.3084558248519897e-01" nType="1"/>
              <Node pos="r" depth="4" NCoef="0" IVar="-1" Cut="0.0000000000000000e+00" cType="1" res="-9.9000000000000000e+01" rms="0.0000000000000000e+00" purity="1.3220174610614777e-01" nType="-1"/>
            </Node>
            <Node pos="r" depth="3" NCoef="0" IVar="-1" Cut="2.8066492080688477e+00" cType="1" res="-9.9000000000000000e+01" rms="0.0000000000000000e+00" purity="1.2522742152214050e-01" nType="-1"/>
          </Node>
        </Node>
      </Node>
    </BinaryTree>
    <BinaryTree type="DecisionTree" boostWeight="2.0812193148099908e-01" itree="16">
      <Node pos="s" depth="0" NCoef="0" IVar="10" Cut="2.9791392385959625e-02" cType="1" res="-9.9000000000000000e+01" rms="0.0000000000000000e+00" purity="5.0328153371810913e-01" nType="0">
        <Node pos="l" depth="1" NCoef="0" IVar="0" Cut="7.3449009656906128e-01" cType="0" res="-9.9000000000000000e+01" rms="0.0000000000000000e+00" purity="8.2211041450500488e-01" nType="0">
          <Node pos="l" depth="2" NCoef="0" IVar="-1" Cut="2.7738220691680908e+00" cType="0" res="-9.9000000000000000e+01" rms="0.0000000000000000e+00" purity="8.9616501331329346e-01" nType="1"/>
          <Node pos="r" depth="2" NCoef="0" IVar="2" Cut="2.0000000000000000e+00" cType="1" res="-9.9000000000000000e+01" rms="0.0000000000000000e+00" purity="5.4202562570571899e-01" nType="0">
            <Node pos="l" depth="3" NCoef="0" IVar="-1" Cut="0.0000000000000000e+00" cType="1" res="-9.9000000000000000e+01" rms="0.0000000000000000e+00" purity="6.6538035869598389e-01" nType="1"/>
            <Node pos="r" depth="3" NCoef="0" IVar="-1" Cut="0.0000000000000000e+00" cType="1" res="-9.9000000000000000e+01" rms="0.0000000000000000e+00" purity="3.5659343004226685e-01" nType="-1"/>
          </Node>
        </Node>
        <Node pos="r" depth="1" NCoef="0" IVar="0" Cut="5.6805557012557983e-01" cType="0" res="-9.9000000000000000e+01" rms="0.0000000000000000e+00" purity="4.7481903433799744e-01" nType="0">
          <Node pos="l" depth="2" NCoef="0" IVar="3" Cut="2.5760652343750000e+04" cType="1" res="-9.9000000000000000e+01" rms="0.0000000000000000e+00" purity="4.9836948513984680e-01" nType="0">
            <Node pos="l" depth="3" NCoef="0" IVar="13" Cut="1.3183371722698212e-01" cType="1" res="-9.9000000000000000e+01" rms="0.0000000000000000e+00" purity="5.1503556966781616e-01" nType="0">
              <Node pos="l" depth="4" NCoef="0" IVar="-1" Cut="0.0000000000000000e+00" cType="1" res="-9.9000000000000000e+01" rms="0.0000000000000000e+00" purity="5.3474932909011841e-01" nType="1"/>
              <Node pos="r" depth="4" NCoef="0" IVar="-1" Cut="0.0000000000000000e+00" cType="1" res="-9.9000000000000000e+01" rms="0.0000000000000000e+00" purity="3.4765014052391052e-01" nType="-1"/>
            </Node>
            <Node pos="r" depth="3" NCoef="0" IVar="9" Cut="9.8970727995038033e-03" cType="1" res="-9.9000000000000000e+01" rms="0.0000000000000000e+00" purity="3.2998749613761902e-01" nType="0">
              <Node pos="l" depth="4" NCoef="0" IVar="-1" Cut="0.0000000000000000e+00" cType="1" res="-9.9000000000000000e+01" rms="0.0000000000000000e+00" purity="6.0184341669082642e-01" nType="1"/>
              <Node pos="r" depth="4" NCoef="0" IVar="-1" Cut="0.0000000000000000e+00" cType="1" res="-9.9000000000000000e+01" rms="0.0000000000000000e+00" purity="2.8424140810966492e-01" nType="-1"/>
            </Node>
          </Node>
          <Node pos="r" depth="2" NCoef="0" IVar="9" Cut="1.3861078023910522e-01" cType="1" res="-9.9000000000000000e+01" rms="0.0000000000000000e+00" purity="2.6559165120124817e-01" nType="0">
            <Node pos="l" depth="3" NCoef="0" IVar="3" Cut="1.2110487304687500e+04" cType="1" res="-9.9000000000000000e+01" rms="0.0000000000000000e+00" purity="4.0291640162467957e-01" nType="0">
              <Node pos="l" depth="4" NCoef="0" IVar="-1" Cut="0.0000000000000000e+00" cType="1" res="-9.9000000000000000e+01" rms="0.0000000000000000e+00" purity="5.6594002246856689e-01" nType="1"/>
              <Node pos="r" depth="4" NCoef="0" IVar="-1" Cut="0.0000000000000000e+00" cType="1" res="-9.9000000000000000e+01" rms="0.0000000000000000e+00" purity="3.1584164500236511e-01" nType="-1"/>
            </Node>
            <Node pos="r" depth="3" NCoef="0" IVar="-1" Cut="2.8937196731567383e-01" cType="1" res="-9.9000000000000000e+01" rms="0.0000000000000000e+00" purity="1.1372336000204086e-01" nType="-1"/>
          </Node>
        </Node>
      </Node>
    </BinaryTree>
    <BinaryTree type="DecisionTree" boostWeight="1.8186461722261058e-01" itree="17">
      <Node pos="s" depth="0" NCoef="0" IVar="10" Cut="2.9790667816996574e-02" cType="1" res="-9.9000000000000000e+01" rms="0.0000000000000000e+00" purity="4.8189759254455566e-01" nType="0">
        <Node pos="l" depth="1" NCoef="0" IVar="0" Cut="7.6257288455963135e-01" cType="0" res="-9.9000000000000000e+01" rms="0.0000000000000000e+00" purity="8.0340176820755005e-01" nType="0">
          <Node pos="l" depth="2" NCoef="0" IVar="-1" Cut="2.6343898773193359e+00" cType="0" res="-9.9000000000000000e+01" rms="0.0000000000000000e+00" purity="8.7941449880599976e-01" nType="1"/>
          <Node pos="r" depth="2" NCoef="0" IVar="12" Cut="4.7379907220602036e-02" cType="1" res="-9.9000000000000000e+01" rms="0.0000000000000000e+00" purity="5.9269881248474121e-01" nType="0">
            <Node pos="l" depth="3" NCoef="0" IVar="-1" Cut="4.7750506401062012e+00" cType="0" res="-9.9000000000000000e+01" rms="0.0000000000000000e+00" purity="7.1699529886245728e-01" nType="1"/>
            <Node pos="r" depth="3" NCoef="0" IVar="-1" Cut="0.0000000000000000e+00" cType="1" res="-9.9000000000000000e+01" rms="0.0000000000000000e+00" purity="4.0341567993164062e-01" nType="-1"/>
          </Node>
        </Node>
        <Node pos="r" depth="1" NCoef="0" IVar="0" Cut="5.0773268938064575e-01" cType="0" res="-9.9000000000000000e+01" rms="0.0000000000000000e+00" purity="4.5256927609443665e-01" nType="0">
          <Node pos="l" depth="2" NCoef="0" IVar="5" Cut="6.1951150894165039e+00" cType="0" res="-9.9000000000000000e+01" rms="0.0000000000000000e+00" purity="4.6882709860801697e-01" nType="0">
            <Node pos="l" depth="3" NCoef="0" IVar="-1" Cut="8.7815225124359131e-01" cType="0" res="-9.9000000000000000e+01" rms="0.0000000000000000e+00" purity="6.0717397928237915e-01" nType="1"/>
            <Node pos="r" depth="3" NCoef="0" IVar="-1" Cut="8.0343198776245117e+00" cType="1" res="-9.9000000000000000e+01" rms="0.0000000000000000e+00" purity="4.5412480831146240e-01" nType="-1"/>
          </Node>
          <Node pos="r" depth="2" NCoef="0" IVar="9" Cut="7.9206615686416626e-02" cType="1" res="-9.9000000000000000e+01" rms="0.0000000000000000e+00" purity="1.8355859816074371e-01" nType="0">
            <Node pos="l" depth="3" NCoef="0" IVar="12" Cut="1.5336269512772560e-02" cType="1" res="-9.9000000000000000e+01" rms="0.0000000000000000e+00" purity="4.0021690726280212e-01" nType="0">
              <Node pos="l" depth="4" NCoef="0" IVar="-1" Cut="0.0000000000000000e+00" cType="1" res="-9.9000000000000000e+01" rms="0.0000000000000000e+00" purity="6.4435023069381714e-01" nType="1"/>
              <Node pos="r" depth="4" NCoef="0" IVar="-1" Cut="0.0000000000000000e+00" cType="1" res="-9.9000000000000000e+01" rms="0.0000000000000000e+00" purity="3.0566686391830444e-01" nType="-1"/>
            </Node>
            <Node pos="r" depth="3" NCoef="0" IVar="-1" Cut="3.4708812832832336e-02" cType="1" res="-9.9000000000000000e+01" rms="0.0000000000000000e+00" purity="4.7610647976398468e-02" nType="-1"/>
          </Node>
        </Node>
      </Node>
    </BinaryTree>
    <BinaryTree type="DecisionTree" boostWeight="1.5637516386383837e-01" itree="18">
      <Node pos="s" depth="0" NCoef="0" IVar="10" Cut="2.9791392385959625e-02" cType="1" res="-9.9000000000000000e+01" rms="0.0000000000000000e+00" purity="4.9823096394538879e-01" nType="0">
        <Node pos="l" depth="1" NCoef="0" IVar="14" Cut="2.9521567821502686e+00" cType="0" res="-9.9000000000000000e+01" rms="0.0000000000000000e+00" purity="7.9778879880905151e-01" nType="0">
          <Node pos="l" depth="2" NCoef="0" IVar="-1" Cut="7.5053948163986206e-01" cType="0" res="-9.9000000000000000e+01" rms="0.0000000000000000e+00" purity="8.6258763074874878e-01" nType="1"/>
          <Node pos="r" depth="2" NCoef="0" IVar="14" Cut="1.3160670995712280e+00" cType="0" res="-9.9000000000000000e+01" rms="0.0000000000000000e+00" purity="4.9175229668617249e-01" nType="0">
            <Node pos="l" depth="3" NCoef="0" IVar="-1" Cut="0.0000000000000000e+00" cType="1" res="-9.9000000000000000e+01" rms="0.0000000000000000e+00" purity="5.6431126594543457e-01" nType="1"/>
            <Node pos="r" depth="3" NCoef="0" IVar="-1" Cut="0.0000000000000000e+00" cType="1" res="-9.9000000000000000e+01" rms="0.0000000000000000e+00" purity="3.6816713213920593e-01" nType="-1"/>
          </Node>
        </Node>
        <Node pos="r" depth="1" NCoef="0" IVar="0" Cut="4.6185091137886047e-01" cType="0" res="-9.9000000000000000e+01" rms="0.0000000000000000e+00" purity="4.7305783629417419e-01" nType="0">
          <Node pos="l" depth="2" NCoef="0" IVar="3" Cut="2.6630214843750000e+04" cType="1" res="-9.9000000000000000e+01" rms="0.0000000000000000e+00" purity="4.8531237244606018e-01" nType="0">
            <Node pos="l" depth="3" NCoef="0" IVar="9" Cut="2.7721217274665833e-01" cType="1" res="-9.9000000000000000e+01" rms="0.0000000000000000e+00" purity="4.9717068672180176e-01" nType="0">
              <Node pos="l" depth="4" NCoef="0" IVar="-1" Cut="0.0000000000000000e+00" cType="1" res="-9.9000000000000000e+01" rms="0.0000000000000000e+00" purity="5.2132230997085571e-01" nType="1"/>
              <Node pos="r" depth="4" NCoef="0" IVar="-1" Cut="0.0000000000000000e+00" cType="1" res="-9.9000000000000000e+01" rms="0.0000000000000000e+00" purity="4.0005311369895935e-01" nType="-1"/>
            </Node>
            <Node pos="r" depth="3" NCoef="0" IVar="-1" Cut="7.8689897060394287e-01" cType="0" res="-9.9000000000000000e+01" rms="0.0000000000000000e+00" purity="3.2608824968338013e-01" nType="-1"/>
          </Node>
          <Node pos="r" depth="2" NCoef="0" IVar="-1" Cut="2.6270565390586853e-01" cType="1" res="-9.9000000000000000e+01" rms="0.0000000000000000e+00" purity="1.3424007594585419e-01" nType="-1"/>
        </Node>
      </Node>
    </BinaryTree>
    <BinaryTree type="DecisionTree" boostWeight="1.8408913284168238e-01" itree="19">
      <Node pos="s" depth="0" NCoef="0" IVar="14" Cut="5.0982732772827148e+00" cType="0" res="-9.9000000000000000e+01" rms="0.0000000000000000e+00" purity="4.9265584349632263e-01" nType="0">
        <Node pos="l" depth="1" NCoef="0" IVar="9" Cut="1.9786359742283821e-02" cType="1" res="-9.9000000000000000e+01" rms="0.0000000000000000e+00" purity="8.0515730381011963e-01" nType="0">
          <Node pos="l" depth="2" NCoef="0" IVar="-1" Cut="7.3067104816436768e-01" cType="0" res="-9.9000000000000000e+01" rms="0.0000000000000000e+00" purity="8.9290398359298706e-01" nType="1"/>
          <Node pos="r" depth="2" NCoef="0" IVar="3" Cut="1.5015122070312500e+04" cType="1" res="-9.9000000000000000e+01" rms="0.0000000000000000e+00" purity="4.8441186547279358e-01" nType="0">
            <Node pos="l" depth="3" NCoef="0" IVar="9" Cut="4.8884287476539612e-02" cType="1" res="-9.9000000000000000e+01" rms="0.0000000000000000e+00" purity="6.7638421058654785e-01" nType="0">
              <Node pos="l" depth="4" NCoef="0" IVar="-1" Cut="0.0000000000000000e+00" cType="1" res="-9.9000000000000000e+01" rms="0.0000000000000000e+00" purity="8.1288236379623413e-01" nType="1"/>
              <Node pos="r" depth="4" NCoef="0" IVar="-1" Cut="0.0000000000000000e+00" cType="1" res="-9.9000000000000000e+01" rms="0.0000000000000000e+00" purity="2.8005781769752502e-01" nType="-1"/>
            </Node>
            <Node pos="r" depth="3" NCoef="0" IVar="-1" Cut="2.0965857421875000e+04" cType="1" res="-9.9000000000000000e+01" rms="0.0000000000000000e+00" purity="2.2519384324550629e-01" nType="-1"/>
          </Node>
        </Node>
        <Node pos="r" depth="1" NCoef="0" IVar="0" Cut="5.7665008306503296e-01" cType="0" res="-9.9000000000000000e+01" rms="0.0000000000000000e+00" purity="4.6953594684600830e-01" nType="0">
          <Node pos="l" depth="2" NCoef="0" IVar="13" Cut="1.4008022844791412e-01" cType="1" res="-9.9000000000000000e+01" rms="0.0000000000000000e+00" purity="4.8977836966514587e-01" nType="0">
            <Node pos="l" depth="3" NCoef="0" IVar="13" Cut="6.2470857053995132e-02" cType="1" res="-9.9000000000000000e+01" rms="0.0000000000000000e+00" purity="5.0340092182159424e-01" nType="0">
              <Node pos="l" depth="4" NCoef="0" IVar="-1" Cut="0.0000000000000000e+00" cType="1" res="-9.9000000000000000e+01" rms="0.0000000000000000e+00" purity="5.2870303392410278e-01" nType="1"/>
              <Node pos="r" depth="4" NCoef="0" IVar="-1" Cut="0.0000000000000000e+00" cType="1" res="-9.9000000000000000e+01" rms="0.0000000000000000e+00" purity="4.2012104392051697e-01" nType="-1"/>
            </Node>
            <Node pos="r" depth="3" NCoef="0" IVar="-1" Cut="5.2222657203674316e+00" cType="1" res="-9.9000000000000000e+01" rms="0.0000000000000000e+00" purity="3.2697170972824097e-01" nType="-1"/>
          </Node>
          <Node pos="r" depth="2" NCoef="0" IVar="9" Cut="1.8811376392841339e-01" cType="1" res="-9.9000000000000000e+01" rms="0.0000000000000000e+00" purity="2.9217955470085144e-01" nType="0">
            <Node pos="l" depth="3" NCoef="0" IVar="12" Cut="3.1728893518447876e-02" cType="1" res="-9.9000000000000000e+01" rms="0.0000000000000000e+00" purity="4.0351119637489319e-01" nType="0">
              <Node pos="l" depth="4" NCoef="0" IVar="-1" Cut="0.0000000000000000e+00" cType="1" res="-9.9000000000000000e+01" rms="0.0000000000000000e+00" purity="5.5376201868057251e-01" nType="1"/>
              <Node pos="r" depth="4" NCoef="0" IVar="-1" Cut="0.0000000000000000e+00" cType="1" res="-9.9000000000000000e+01" rms="0.0000000000000000e+00" purity="2.7372276782989502e-01" nType="-1"/>
            </Node>
            <Node pos="r" depth="3" NCoef="0" IVar="2" Cut="4.7000000000000000e+01" cType="0" res="-9.9000000000000000e+01" rms="0.0000000000000000e+00" purity="8.3184666931629181e-02" nType="0">
              <Node pos="l" depth="4" NCoef="0" IVar="-1" Cut="0.0000000000000000e+00" cType="1" res="-9.9000000000000000e+01" rms="0.0000000000000000e+00" purity="5.3758627176284790e-01" nType="1"/>
              <Node pos="r" depth="4" NCoef="0" IVar="-1" Cut="0.0000000000000000e+00" cType="1" res="-9.9000000000000000e+01" rms="0.0000000000000000e+00" purity="5.2632145583629608e-02" nType="-1"/>
            </Node>
          </Node>
        </Node>
      </Node>
    </BinaryTree>
    <BinaryTree type="DecisionTree" boostWeight="1.9577747631246156e-01" itree="20">
      <Node pos="s" depth="0" NCoef="0" IVar="10" Cut="2.9791217297315598e-02" cType="1" res="-9.9000000000000000e+01" rms="0.0000000000000000e+00" purity="4.7486609220504761e-01" nType="0">
        <Node pos="l" depth="1" NCoef="0" IVar="1" Cut="2.9939144849777222e-01" cType="0" res="-9.9000000000000000e+01" rms="0.0000000000000000e+00" purity="7.7646368741989136e-01" nType="0">
          <Node pos="l" depth="2" NCoef="0" IVar="-1" Cut="1.6178591176867485e-02" cType="1" res="-9.9000000000000000e+01" rms="0.0000000000000000e+00" purity="8.9189612865447998e-01" nType="1"/>
          <Node pos="r" depth="2" NCoef="0" IVar="0" Cut="7.6322197914123535e-01" cType="0" res="-9.9000000000000000e+01" rms="0.0000000000000000e+00" purity="5.7428950071334839e-01" nType="0">
            <Node pos="l" depth="3" NCoef="0" IVar="-1" Cut="3.3997557163238525e+00" cType="0" res="-9.9000000000000000e+01" rms="0.0000000000000000e+00" purity="7.0642077922821045e-01" nType="1"/>
            <Node pos="r" depth="3" NCoef="0" IVar="-1" Cut="0.0000000000000000e+00" cType="1" res="-9.9000000000000000e+01" rms="0.0000000000000000e+00" purity="4.3117210268974304e-01" nType="-1"/>
          </Node>
        </Node>
        <Node pos="r" depth="1" NCoef="0" IVar="0" Cut="6.0561102628707886e-01" cType="0" res="-9.9000000000000000e+01" rms="0.0000000000000000e+00" purity="4.5069938898086548e-01" nType="0">
          <Node pos="l" depth="2" NCoef="0" IVar="14" Cut="3.8828274607658386e-01" cType="0" res="-9.9000000000000000e+01" rms="0.0000000000000000e+00" purity="4.7022160887718201e-01" nType="0">
            <Node pos="l" depth="3" NCoef="0" IVar="0" Cut="9.2971295118331909e-01" cType="0" res="-9.9000000000000000e+01" rms="0.0000000000000000e+00" purity="5.0004100799560547e-01" nType="0">
              <Node pos="l" depth="4" NCoef="0" IVar="-1" Cut="0.0000000000000000e+00" cType="1" res="-9.9000000000000000e+01" rms="0.0000000000000000e+00" purity="6.1367404460906982e-01" nType="1"/>
              <Node pos="r" depth="4" NCoef="0" IVar="-1" Cut="0.0000000000000000e+00" cType="1" res="-9.9000000000000000e+01" rms="0.0000000000000000e+00" purity="4.6603634953498840e-01" nType="-1"/>
            </Node>
            <Node pos="r" depth="3" NCoef="0" IVar="-1" Cut="3.1689610481262207e+00" cType="1" res="-9.9000000000000000e+01" rms="0.0000000000000000e+00" purity="4.1346710920333862e-01" nType="-1"/>
          </Node>
          <Node pos="r" depth="2" NCoef="0" IVar="9" Cut="2.0791457593441010e-01" cType="1" res="-9.9000000000000000e+01" rms="0.0000000000000000e+00" purity="3.1661182641983032e-01" nType="0">
            <Node pos="l" depth="3" NCoef="0" IVar="-1" Cut="7.6766341924667358e-02" cType="1" res="-9.9000000000000000e+01" rms="0.0000000000000000e+00" purity="4.1094788908958435e-01" nType="-1"/>
            <Node pos="r" depth="3" NCoef="0" IVar="8" Cut="-4.2814534902572632e-01" cType="1" res="-9.9000000000000000e+01" rms="0.0000000000000000e+00" purity="1.1148583143949509e-01" nType="0">
              <Node pos="l" depth="4" NCoef="0" IVar="-1" Cut="0.0000000000000000e+00" cType="1" res="-9.9000000000000000e+01" rms="0.0000000000000000e+00" purity="6.6600131988525391e-01" nType="1"/>
              <Node pos="r" depth="4" NCoef="0" IVar="-1" Cut="0.0000000000000000e+00" cType="1" res="-9.9000000000000000e+01" rms="0.0000000000000000e+00" purity="6.3476122915744781e-02" nType="-1"/>
            </Node>
          </Node>
        </Node>
      </Node>
    </BinaryTree>
    <BinaryTree type="DecisionTree" boostWeight="1.0044627292770067e-01" itree="21">
      <Node pos="s" depth="0" NCoef="0" IVar="14" Cut="5.0642447471618652e+00" cType="0" res="-9.9000000000000000e+01" rms="0.0000000000000000e+00" purity="5.1414370536804199e-01" nType="0">
        <Node pos="l" depth="1" NCoef="0" IVar="9" Cut="1.9786359742283821e-02" cType="1" res="-9.9000000000000000e+01" rms="0.0000000000000000e+00" purity="7.7951896190643311e-01" nType="0">
          <Node pos="l" depth="2" NCoef="0" IVar="-1" Cut="7.4302041530609131e-01" cType="0" res="-9.9000000000000000e+01" rms="0.0000000000000000e+00" purity="8.6747854948043823e-01" nType="1"/>
          <Node pos="r" depth="2" NCoef="0" IVar="11" Cut="6.2884855270385742e-01" cType="0" res="-9.9000000000000000e+01" rms="0.0000000000000000e+00" purity="4.9785906076431274e-01" nType="0">
            <Node pos="l" depth="3" NCoef="0" IVar="9" Cut="4.8879854381084442e-02" cType="1" res="-9.9000000000000000e+01" rms="0.0000000000000000e+00" purity="7.1274203062057495e-01" nType="0">
              <Node pos="l" depth="4" NCoef="0" IVar="-1" Cut="0.0000000000000000e+00" cType="1" res="-9.9000000000000000e+01" rms="0.0000000000000000e+00" purity="8.2593816518783569e-01" nType="1"/>
              <Node pos="r" depth="4" NCoef="0" IVar="-1" Cut="0.0000000000000000e+00" cType="1" res="-9.9000000000000000e+01" rms="0.0000000000000000e+00" purity="4.8310711979866028e-01" nType="-1"/>
            </Node>
            <Node pos="r" depth="3" NCoef="0" IVar="-1" Cut="7.4291414022445679e-01" cType="0" res="-9.9000000000000000e+01" rms="0.0000000000000000e+00" purity="2.6826608180999756e-01" nType="-1"/>
          </Node>
        </Node>
        <Node pos="r" depth="1" NCoef="0" IVar="0" Cut="4.4785547256469727e-01" cType="0" res="-9.9000000000000000e+01" rms="0.0000000000000000e+00" purity="4.9505755305290222e-01" nType="0">
          <Node pos="l" depth="2" NCoef="0" IVar="2" Cut="3.0000000000000000e+01" cType="0" res="-9.9000000000000000e+01" rms="0.0000000000000000e+00" purity="5.0412565469741821e-01" nType="0">
            <Node pos="l" depth="3" NCoef="0" IVar="7" Cut="7.2206157226562500e+03" cType="0" res="-9.9000000000000000e+01" rms="0.0000000000000000e+00" purity="6.3529413938522339e-01" nType="0">
              <Node pos="l" depth="4" NCoef="0" IVar="-1" Cut="0.0000000000000000e+00" cType="1" res="-9.9000000000000000e+01" rms="0.0000000000000000e+00" purity="8.3652961254119873e-01" nType="1"/>
              <Node pos="r" depth="4" NCoef="0" IVar="-1" Cut="0.0000000000000000e+00" cType="1" res="-9.9000000000000000e+01" rms="0.0000000000000000e+00" purity="4.9327495694160461e-01" nType="-1"/>
            </Node>
            <Node pos="r" depth="3" NCoef="0" IVar="13" Cut="2.0112319290637970e-01" cType="1" res="-9.9000000000000000e+01" rms="0.0000000000000000e+00" purity="4.9182197451591492e-01" nType="0">
              <Node pos="l" depth="4" NCoef="0" IVar="-1" Cut="0.0000000000000000e+00" cType="1" res="-9.9000000000000000e+01" rms="0.0000000000000000e+00" purity="5.0021320581436157e-01" nType="1"/>
              <Node pos="r" depth="4" NCoef="0" IVar="-1" Cut="0.0000000000000000e+00" cType="1" res="-9.9000000000000000e+01" rms="0.0000000000000000e+00" purity="3.2022014260292053e-01" nType="-1"/>
            </Node>
          </Node>
          <Node pos="r" depth="2" NCoef="0" IVar="10" Cut="1.5016095340251923e-01" cType="1" res="-9.9000000000000000e+01" rms="0.0000000000000000e+00" purity="1.6801001131534576e-01" nType="0">
            <Node pos="l" depth="3" NCoef="0" IVar="7" Cut="6.4886166992187500e+03" cType="0" res="-9.9000000000000000e+01" rms="0.0000000000000000e+00" purity="4.6189421415328979e-01" nType="0">
              <Node pos="l" depth="4" NCoef="0" IVar="-1" Cut="0.0000000000000000e+00" cType="1" res="-9.9000000000000000e+01" rms="0.0000000000000000e+00" purity="6.4572435617446899e-01" nType="1"/>
              <Node pos="r" depth="4" NCoef="0" IVar="-1" Cut="0.0000000000000000e+00" cType="1" res="-9.9000000000000000e+01" rms="0.0000000000000000e+00" purity="2.6983988285064697e-01" nType="-1"/>
            </Node>
            <Node pos="r" depth="3" NCoef="0" IVar="-1" Cut="9.9006839096546173e-02" cType="1" res="-9.9000000000000000e+01" rms="0.0000000000000000e+00" purity="6.0341503471136093e-02" nType="-1"/>
          </Node>
        </Node>
      </Node>
    </BinaryTree>
    <BinaryTree type="DecisionTree" boostWeight="1.3695723052159847e-01" itree="22">
      <Node pos="s" depth="0" NCoef="0" IVar="14" Cut="5.1308174133300781e+00" cType="0" res="-9.9000000000000000e+01" rms="0.0000000000000000e+00" purity="4.8976036906242371e-01" nType="0">
        <Node pos="l" depth="1" NCoef="0" IVar="13" Cut="1.0240409523248672e-01" cType="1" res="-9.9000000000000000e+01" rms="0.0000000000000000e+00" purity="7.7694064378738403e-01" nType="0">
          <Node pos="l" depth="2" NCoef="0" IVar="-1" Cut="1.9012961536645889e-02" cType="1" res="-9.9000000000000000e+01" rms="0.0000000000000000e+00" purity="8.9077359437942505e-01" nType="1"/>
          <Node pos="r" depth="2" NCoef="0" IVar="9" Cut="1.9799010828137398e-02" cType="1" res="-9.9000000000000000e+01" rms="0.0000000000000000e+00" purity="5.1853477954864502e-01" nType="0">
            <Node pos="l" depth="3" NCoef="0" IVar="-1" Cut="0.0000000000000000e+00" cType="1" res="-9.9000000000000000e+01" rms="0.0000000000000000e+00" purity="6.6826951503753662e-01" nType="1"/>
            <Node pos="r" depth="3" NCoef="0" IVar="11" Cut="6.3635599613189697e-01" cType="0" res="-9.9000000000000000e+01" rms="0.0000000000000000e+00" purity="2.6943159103393555e-01" nType="0">
              <Node pos="l" depth="4" NCoef="0" IVar="-1" Cut="0.0000000000000000e+00" cType="1" res="-9.9000000000000000e+01" rms="0.0000000000000000e+00" purity="5.0334310531616211e-01" nType="1"/>
              <Node pos="r" depth="4" NCoef="0" IVar="-1" Cut="0.0000000000000000e+00" cType="1" res="-9.9000000000000000e+01" rms="0.0000000000000000e+00" purity="1.1220556497573853e-01" nType="-1"/>
            </Node>
          </Node>
        </Node>
        <Node pos="r" depth="1" NCoef="0" IVar="0" Cut="5.1761937141418457e-01" cType="0" res="-9.9000000000000000e+01" rms="0.0000000000000000e+00" purity="4.6964490413665771e-01" nType="0">
          <Node pos="l" depth="2" NCoef="0" IVar="12" Cut="1.0413171350955963e-01" cType="1" res="-9.9000000000000000e+01" rms="0.0000000000000000e+00" purity="4.8101314902305603e-01" nType="0">
            <Node pos="l" depth="3" NCoef="0" IVar="10" Cut="4.4703926891088486e-02" cType="1" res="-9.9000000000000000e+01" rms="0.0000000000000000e+00" purity="4.9261388182640076e-01" nType="0">
              <Node pos="l" depth="4" NCoef="0" IVar="-1" Cut="0.0000000000000000e+00" cType="1" res="-9.9000000000000000e+01" rms="0.0000000000000000e+00" purity="6.2532365322113037e-01" nType="1"/>
              <Node pos="r" depth="4" NCoef="0" IVar="-1" Cut="0.0000000000000000e+00" cType="1" res="-9.9000000000000000e+01" rms="0.0000000000000000e+00" purity="4.8228558897972107e-01" nType="-1"/>
            </Node>
            <Node pos="r" depth="3" NCoef="0" IVar="-1" Cut="7.8985607624053955e-01" cType="0" res="-9.9000000000000000e+01" rms="0.0000000000000000e+00" purity="3.4575167298316956e-01" nType="-1"/>
          </Node>
          <Node pos="r" depth="2" NCoef="0" IVar="10" Cut="3.7237894535064697e-01" cType="1" res="-9.9000000000000000e+01" rms="0.0000000000000000e+00" purity="2.9106250405311584e-01" nType="0">
            <Node pos="l" depth="3" NCoef="0" IVar="12" Cut="3.9768651127815247e-02" cType="1" res="-9.9000000000000000e+01" rms="0.0000000000000000e+00" purity="4.3454357981681824e-01" nType="0">
              <Node pos="l" depth="4" NCoef="0" IVar="-1" Cut="0.0000000000000000e+00" cType="1" res="-9.9000000000000000e+01" rms="0.0000000000000000e+00" purity="5.8166569471359253e-01" nType="1"/>
              <Node pos="r" depth="4" NCoef="0" IVar="-1" Cut="0.0000000000000000e+00" cType="1" res="-9.9000000000000000e+01" rms="0.0000000000000000e+00" purity="2.2188667953014374e-01" nType="-1"/>
            </Node>
            <Node pos="r" depth="3" NCoef="0" IVar="-1" Cut="3.0000000000000000e+01" cType="0" res="-9.9000000000000000e+01" rms="0.0000000000000000e+00" purity="4.1978470981121063e-02" nType="-1"/>
          </Node>
        </Node>
      </Node>
    </BinaryTree>
    <BinaryTree type="DecisionTree" boostWeight="1.2210038669212039e-01" itree="23">
      <Node pos="s" depth="0" NCoef="0" IVar="14" Cut="5.1557946205139160e+00" cType="0" res="-9.9000000000000000e+01" rms="0.0000000000000000e+00" purity="4.9096941947937012e-01" nType="0">
        <Node pos="l" depth="1" NCoef="0" IVar="9" Cut="1.9764248281717300e-02" cType="1" res="-9.9000000000000000e+01" rms="0.0000000000000000e+00" purity="7.6721328496932983e-01" nType="0">
          <Node pos="l" depth="2" NCoef="0" IVar="-1" Cut="8.8403262197971344e-02" cType="1" res="-9.9000000000000000e+01" rms="0.0000000000000000e+00" purity="8.6836838722229004e-01" nType="1"/>
          <Node pos="r" depth="2" NCoef="0" IVar="11" Cut="5.3530323505401611e-01" cType="0" res="-9.9000000000000000e+01" rms="0.0000000000000000e+00" purity="4.1133382916450500e-01" nType="0">
            <Node pos="l" depth="3" NCoef="0" IVar="0" Cut="6.7541742324829102e-01" cType="0" res="-9.9000000000000000e+01" rms="0.0000000000000000e+00" purity="5.3327244520187378e-01" nType="0">
              <Node pos="l" depth="4" NCoef="0" IVar="-1" Cut="0.0000000000000000e+00" cType="1" res="-9.9000000000000000e+01" rms="0.0000000000000000e+00" purity="6.1283820867538452e-01" nType="1"/>
              <Node pos="r" depth="4" NCoef="0" IVar="-1" Cut="0.0000000000000000e+00" cType="1" res="-9.9000000000000000e+01" rms="0.0000000000000000e+00" purity="2.6651716232299805e-01" nType="-1"/>
            </Node>
            <Node pos="r" depth="3" NCoef="0" IVar="-1" Cut="6.0659054666757584e-02" cType="1" res="-9.9000000000000000e+01" rms="0.0000000000000000e+00" purity="1.6793997585773468e-01" nType="-1"/>
          </Node>
        </Node>
        <Node pos="r" depth="1" NCoef="0" IVar="0" Cut="4.7743463516235352e-01" cType="0" res="-9.9000000000000000e+01" rms="0.0000000000000000e+00" purity="4.7248750925064087e-01" nType="0">
          <Node pos="l" depth="2" NCoef="0" IVar="13" Cut="1.3981282711029053e-01" cType="1" res="-9.9000000000000000e+01" rms="0.0000000000000000e+00" purity="4.8410180211067200e-01" nType="0">
            <Node pos="l" depth="3" NCoef="0" IVar="1" Cut="4.4558036327362061e-01" cType="0" res="-9.9000000000000000e+01" rms="0.0000000000000000e+00" purity="4.9533647298812866e-01" nType="0">
              <Node pos="l" depth="4" NCoef="0" IVar="-1" Cut="0.0000000000000000e+00" cType="1" res="-9.9000000000000000e+01" rms="0.0000000000000000e+00" purity="6.7780238389968872e-01" nType="1"/>
              <Node pos="r" depth="4" NCoef="0" IVar="-1" Cut="0.0000000000000000e+00" cType="1" res="-9.9000000000000000e+01" rms="0.0000000000000000e+00" purity="4.8617941141128540e-01" nType="-1"/>
            </Node>
            <Node pos="r" depth="3" NCoef="0" IVar="-1" Cut="2.6734024286270142e-01" cType="1" res="-9.9000000000000000e+01" rms="0.0000000000000000e+00" purity="3.5306248068809509e-01" nType="-1"/>
          </Node>
          <Node pos="r" depth="2" NCoef="0" IVar="-1" Cut="2.0921845734119415e-01" cType="1" res="-9.9000000000000000e+01" rms="0.0000000000000000e+00" purity="1.6489873826503754e-01" nType="-1"/>
        </Node>
      </Node>
    </BinaryTree>
    <BinaryTree type="DecisionTree" boostWeight="1.7176655125446014e-01" itree="24">
      <Node pos="s" depth="0" NCoef="0" IVar="14" Cut="5.3358364105224609e+00" cType="0" res="-9.9000000000000000e+01" rms="0.0000000000000000e+00" purity="5.1231753826141357e-01" nType="0">
        <Node pos="l" depth="1" NCoef="0" IVar="9" Cut="2.9644679278135300e-02" cType="1" res="-9.9000000000000000e+01" rms="0.0000000000000000e+00" purity="8.1384676694869995e-01" nType="0">
          <Node pos="l" depth="2" NCoef="0" IVar="-1" Cut="7.8417879343032837e-01" cType="0" res="-9.9000000000000000e+01" rms="0.0000000000000000e+00" purity="8.6546844244003296e-01" nType="1"/>
          <Node pos="r" depth="2" NCoef="0" IVar="11" Cut="6.4442908763885498e-01" cType="0" res="-9.9000000000000000e+01" rms="0.0000000000000000e+00" purity="3.7583434581756592e-01" nType="0">
            <Node pos="l" depth="3" NCoef="0" IVar="-1" Cut="0.0000000000000000e+00" cType="1" res="-9.9000000000000000e+01" rms="0.0000000000000000e+00" purity="6.0907483100891113e-01" nType="1"/>
            <Node pos="r" depth="3" NCoef="0" IVar="-1" Cut="0.0000000000000000e+00" cType="1" res="-9.9000000000000000e+01" rms="0.0000000000000000e+00" purity="1.3301402330398560e-01" nType="-1"/>
          </Node>
        </Node>
        <Node pos="r" depth="1" NCoef="0" IVar="0" Cut="8.3376085758209229e-01" cType="0" res="-9.9000000000000000e+01" rms="0.0000000000000000e+00" purity="4.9570891261100769e-01" nType="0">
          <Node pos="l" depth="2" NCoef="0" IVar="14" Cut="2.3047554492950439e+00" cType="0" res="-9.9000000000000000e+01" rms="0.0000000000000000e+00" purity="5.5276197195053101e-01" nType="0">
            <Node pos="l" depth="3" NCoef="0" IVar="-1" Cut="9.2099994421005249e-01" cType="0" res="-9.9000000000000000e+01" rms="0.0000000000000000e+00" purity="7.0214205980300903e-01" nType="1"/>
            <Node pos="r" depth="3" NCoef="0" IVar="10" Cut="8.7652146816253662e-01" cType="0" res="-9.9000000000000000e+01" rms="0.0000000000000000e+00" purity="5.1134884357452393e-01" nType="0">
              <Node pos="l" depth="4" NCoef="0" IVar="-1" Cut="0.0000000000000000e+00" cType="1" res="-9.9000000000000000e+01" rms="0.0000000000000000e+00" purity="6.8480241298675537e-01" nType="1"/>
              <Node pos="r" depth="4" NCoef="0" IVar="-1" Cut="0.0000000000000000e+00" cType="1" res="-9.9000000000000000e+01" rms="0.0000000000000000e+00" purity="4.7632622718811035e-01" nType="-1"/>
            </Node>
          </Node>
          <Node pos="r" depth="2" NCoef="0" IVar="-1" Cut="8.6174840927124023e+00" cType="1" res="-9.9000000000000000e+01" rms="0.0000000000000000e+00" purity="4.4209161400794983e-01" nType="-1"/>
        </Node>
      </Node>
    </BinaryTree>
    <BinaryTree type="DecisionTree" boostWeight="1.2449733560661939e-01" itree="25">
      <Node pos="s" depth="0" NCoef="0" IVar="14" Cut="5.2153286933898926e+00" cType="0" res="-9.9000000000000000e+01" rms="0.0000000000000000e+00" purity="5.1962548494338989e-01" nType="0">
        <Node pos="l" depth="1" NCoef="0" IVar="9" Cut="1.9796164706349373e-02" cType="1" res="-9.9000000000000000e+01" rms="0.0000000000000000e+00" purity="7.6046085357666016e-01" nType="0">
          <Node pos="l" depth="2" NCoef="0" IVar="-1" Cut="7.6015239953994751e-01" cType="0" res="-9.9000000000000000e+01" rms="0.0000000000000000e+00" purity="8.3431434631347656e-01" nType="1"/>
          <Node pos="r" depth="2" NCoef="0" IVar="11" Cut="6.9525617361068726e-01" cType="0" res="-9.9000000000000000e+01" rms="0.0000000000000000e+00" purity="4.5369777083396912e-01" nType="0">
            <Node pos="l" depth="3" NCoef="0" IVar="-1" Cut="0.0000000000000000e+00" cType="1" res="-9.9000000000000000e+01" rms="0.0000000000000000e+00" purity="6.7586278915405273e-01" nType="1"/>
            <Node pos="r" depth="3" NCoef="0" IVar="-1" Cut="1.8604414062500000e+04" cType="1" res="-9.9000000000000000e+01" rms="0.0000000000000000e+00" purity="2.8068661689758301e-01" nType="-1"/>
          </Node>
        </Node>
        <Node pos="r" depth="1" NCoef="0" IVar="0" Cut="4.5850595831871033e-01" cType="0" res="-9.9000000000000000e+01" rms="0.0000000000000000e+00" purity="5.0437581539154053e-01" nType="0">
          <Node pos="l" depth="2" NCoef="0" IVar="9" Cut="3.6632311344146729e-01" cType="1" res="-9.9000000000000000e+01" rms="0.0000000000000000e+00" purity="5.1334345340728760e-01" nType="0">
