<?xml version="1.0"?>
<MethodSetup Method="BDT::BDT">
  <GeneralInfo>
    <Info name="TMVA Release" value="4.2.1 [262657]"/>
    <Info name="ROOT Release" value="6.10/04 [395780]"/>
    <Info name="Creator" value="agrummer"/>
    <Info name="Date" value="Tue Jun 12 21:28:00 2018"/>
    <Info name="Host" value="Linux lcgapp-slc6-x86-64-3.cern.ch 2.6.32-642.4.2.el6.x86_64 #1 SMP Wed Aug 24 09:19:54 CEST 2016 x86_64 x86_64 x86_64 GNU/Linux"/>
    <Info name="Dir" value="/eos/user/a/agrummer/www/bmumu/myMVA"/>
    <Info name="Training events" value="862800"/>
    <Info name="TrainingTime" value="7.64578720e+02"/>
    <Info name="AnalysisType" value="Classification"/>
  </GeneralInfo>
  <Options>
    <Option name="V" modified="Yes">False</Option>
    <Option name="VerbosityLevel" modified="No">Default</Option>
    <Option name="VarTransform" modified="No">None</Option>
    <Option name="H" modified="Yes">False</Option>
    <Option name="CreateMVAPdfs" modified="No">False</Option>
    <Option name="IgnoreNegWeightsInTraining" modified="No">False</Option>
    <Option name="NTrees" modified="Yes">500</Option>
    <Option name="MaxDepth" modified="Yes">4</Option>
    <Option name="MinNodeSize" modified="Yes">0.2</Option>
    <Option name="nCuts" modified="Yes">100</Option>
    <Option name="BoostType" modified="Yes">AdaBoost</Option>
    <Option name="AdaBoostR2Loss" modified="No">quadratic</Option>
    <Option name="UseBaggedBoost" modified="Yes">True</Option>
    <Option name="Shrinkage" modified="No">1.000000e+00</Option>
    <Option name="AdaBoostBeta" modified="Yes">5.000000e-01</Option>
    <Option name="UseRandomisedTrees" modified="No">False</Option>
    <Option name="UseNvars" modified="No">4</Option>
    <Option name="UsePoissonNvars" modified="No">True</Option>
    <Option name="BaggedSampleFraction" modified="Yes">6.000000e-01</Option>
    <Option name="UseYesNoLeaf" modified="No">True</Option>
    <Option name="NegWeightTreatment" modified="No">inverseboostnegweights</Option>
    <Option name="Css" modified="No">1.000000e+00</Option>
    <Option name="Cts_sb" modified="No">1.000000e+00</Option>
    <Option name="Ctb_ss" modified="No">1.000000e+00</Option>
    <Option name="Cbb" modified="No">1.000000e+00</Option>
    <Option name="NodePurityLimit" modified="No">5.000000e-01</Option>
    <Option name="SeparationType" modified="Yes">giniindex</Option>
    <Option name="RegressionLossFunctionBDTG" modified="No">huber</Option>
    <Option name="HuberQuantile" modified="No">7.000000e-01</Option>
    <Option name="DoBoostMonitor" modified="Yes">True</Option>
    <Option name="UseFisherCuts" modified="No">False</Option>
    <Option name="MinLinCorrForFisher" modified="No">8.000000e-01</Option>
    <Option name="UseExclusiveVars" modified="No">False</Option>
    <Option name="DoPreselection" modified="No">False</Option>
    <Option name="SigToBkgFraction" modified="No">1.000000e+00</Option>
    <Option name="PruneMethod" modified="No">nopruning</Option>
    <Option name="PruneStrength" modified="No">0.000000e+00</Option>
    <Option name="PruningValFraction" modified="No">5.000000e-01</Option>
    <Option name="SkipNormalization" modified="No">False</Option>
    <Option name="nEventsMin" modified="No">0</Option>
    <Option name="UseBaggedGrad" modified="No">False</Option>
    <Option name="GradBaggingFraction" modified="No">6.000000e-01</Option>
    <Option name="UseNTrainEvents" modified="No">0</Option>
    <Option name="NNodesMax" modified="No">0</Option>
  </Options>
  <Variables NVar="15">
    <Variable VarIndex="0" Expression="B_pT" Label="B_pT" Title="p_{T}^{B}" Unit="MeV" Internal="B_pT" Type="F" Min="8.00510547e+03" Max="3.66667156e+05"/>
    <Variable VarIndex="1" Expression="Lxy" Label="Lxy" Title="L_{xy}" Unit="mm" Internal="Lxy" Type="F" Min="5.84380236e-04" Max="1.51648438e+02"/>
    <Variable VarIndex="2" Expression="closeTrkDOCA" Label="closeTrkDOCA" Title="DOCA_{xtrk, loose, pt&gt;0.5}" Unit="mm" Internal="closeTrkDOCA" Type="F" Min="-9.99999978e-03" Max="1.24051125e+02"/>
    <Variable VarIndex="3" Expression="closeTrkNtrksChi2" Label="closeTrkNtrksChi2" Title="N^{clos}_{trk}" Unit="" Internal="closeTrkNtrksChi2" Type="I" Min="0.00000000e+00" Max="1.13000000e+02"/>
    <Variable VarIndex="4" Expression="TMath::Abs(d0Min_sig)" Label="TMath::Abs(d0Min_sig)" Title="|d_{0}|^{min} sig." Unit="" Internal="TMath_Abs_d0Min_sig_" Type="F" Min="1.30550973e-06" Max="3.12853210e+02"/>
    <Variable VarIndex="5" Expression="TMath::Abs(d0Max_sig)" Label="TMath::Abs(d0Max_sig)" Title="|d_{0}|^{max} sig." Unit="" Internal="TMath_Abs_d0Max_sig_" Type="F" Min="3.07830167e-03" Max="3.50125122e+02"/>
    <Variable VarIndex="6" Expression="PlngMin2D" Label="PlngMin2D" Title="P^{min}_{L}" Unit="MeV" Internal="PlngMin2D" Type="F" Min="2.49203906e+03" Max="1.17223164e+05"/>
    <Variable VarIndex="7" Expression="chi2_PVSV_log2D" Label="chi2_PVSV_log2D" Title="Log(#chi^{2}_{xy})" Unit="" Internal="chi2_PVSV_log2D" Type="F" Min="-8.85084534e+00" Max="1.45476351e+01"/>
    <Variable VarIndex="8" Expression="TMath::Abs(a_2D)" Label="TMath::Abs(a_2D)" Title="|#alpha_{2D}|" Unit="rad" Internal="TMath_Abs_a_2D_" Type="F" Min="2.59416169e-07" Max="9.99993682e-01"/>
    <Variable VarIndex="9" Expression="DR" Label="DR" Title="#DeltaR" Unit="" Internal="DR" Type="F" Min="9.07591530e-05" Max="1.49997270e+00"/>
    <Variable VarIndex="10" Expression="B_iso_7_Chi2_5_LoosePt05" Label="B_iso_7_Chi2_5_LoosePt05" Title="B Isolation (I^{B}_{0.7})" Unit="" Internal="B_iso_7_Chi2_5_LoosePt05" Type="F" Min="1.28904842e-02" Max="1.00000000e+00"/>
    <Variable VarIndex="11" Expression="TMath::Abs(B_IDtrks_deltaPhi)" Label="TMath::Abs(B_IDtrks_deltaPhi)" Title="|#Delta#phi_{#mu#mu}|" Unit="" Internal="TMath_Abs_B_IDtrks_deltaPhi_" Type="F" Min="8.91417585e-07" Max="1.29682279e+00"/>
    <Variable VarIndex="12" Expression="TMath::Abs(B_IDtrks_DCA)" Label="TMath::Abs(B_IDtrks_DCA)" Title="DOCA_{#mu#mu}" Unit="mm" Internal="TMath_Abs_B_IDtrks_DCA_" Type="F" Min="2.03844891e-07" Max="2.10345554e+00"/>
    <Variable VarIndex="13" Expression="Bvtx3DIP" Label="Bvtx3DIP" Title="|IP_{B}^{3D}|" Unit="" Internal="Bvtx3DIP" Type="F" Min="4.15687864e-05" Max="1.48587799e+01"/>
    <Variable VarIndex="14" Expression="B_minChi2MuonsIPtoAnyPV" Label="B_minChi2MuonsIPtoAnyPV" Title="Log(#chi^{2}_{#mu,xPV})" Unit="" Internal="B_minChi2MuonsIPtoAnyPV" Type="F" Min="-1.24813967e+01" Max="1.15124769e+01"/>
  </Variables>
  <Spectators NSpec="0"/>
  <Classes NClass="2">
    <Class Name="Signal" Index="0"/>
    <Class Name="Background" Index="1"/>
  </Classes>
  <Transformations NTransformations="0"/>
  <MVAPdfs/>
  <Weights NTrees="500" AnalysisType="0">
    <BinaryTree type="DecisionTree" boostWeight="1.1998388579676087e+00" itree="0">
      <Node pos="s" depth="0" NCoef="0" IVar="9" Cut="1.3374359905719757e-01" cType="1" res="-9.9000000000000000e+01" rms="0.0000000000000000e+00" purity="5.0244927406311035e-01" nType="0">
        <Node pos="l" depth="1" NCoef="0" IVar="10" Cut="6.5359884500503540e-01" cType="0" res="-9.9000000000000000e+01" rms="0.0000000000000000e+00" purity="9.1003292798995972e-01" nType="0">
          <Node pos="l" depth="2" NCoef="0" IVar="7" Cut="2.0511798858642578e+00" cType="0" res="-9.9000000000000000e+01" rms="0.0000000000000000e+00" purity="9.4558370113372803e-01" nType="0">
            <Node pos="l" depth="3" NCoef="0" IVar="-1" Cut="5.8248545974493027e-02" cType="1" res="-9.9000000000000000e+01" rms="0.0000000000000000e+00" purity="9.6866351366043091e-01" nType="1"/>
            <Node pos="r" depth="3" NCoef="0" IVar="7" Cut="1.1092528104782104e+00" cType="0" res="-9.9000000000000000e+01" rms="0.0000000000000000e+00" purity="4.4087290763854980e-01" nType="0">
              <Node pos="l" depth="4" NCoef="0" IVar="-1" Cut="0.0000000000000000e+00" cType="1" res="-9.9000000000000000e+01" rms="0.0000000000000000e+00" purity="5.8144754171371460e-01" nType="1"/>
              <Node pos="r" depth="4" NCoef="0" IVar="-1" Cut="0.0000000000000000e+00" cType="1" res="-9.9000000000000000e+01" rms="0.0000000000000000e+00" purity="2.7123108506202698e-01" nType="-1"/>
            </Node>
          </Node>
          <Node pos="r" depth="2" NCoef="0" IVar="14" Cut="3.3083543777465820e+00" cType="0" res="-9.9000000000000000e+01" rms="0.0000000000000000e+00" purity="3.6652746796607971e-01" nType="0">
            <Node pos="l" depth="3" NCoef="0" IVar="9" Cut="5.3043734282255173e-02" cType="1" res="-9.9000000000000000e+01" rms="0.0000000000000000e+00" purity="7.1040624380111694e-01" nType="0">
              <Node pos="l" depth="4" NCoef="0" IVar="-1" Cut="0.0000000000000000e+00" cType="1" res="-9.9000000000000000e+01" rms="0.0000000000000000e+00" purity="9.1459298133850098e-01" nType="1"/>
              <Node pos="r" depth="4" NCoef="0" IVar="-1" Cut="0.0000000000000000e+00" cType="1" res="-9.9000000000000000e+01" rms="0.0000000000000000e+00" purity="3.1621190905570984e-01" nType="-1"/>
            </Node>
            <Node pos="r" depth="3" NCoef="0" IVar="-1" Cut="2.6399075984954834e+00" cType="0" res="-9.9000000000000000e+01" rms="0.0000000000000000e+00" purity="1.1554571241140366e-01" nType="-1"/>
          </Node>
        </Node>
        <Node pos="r" depth="1" NCoef="0" IVar="10" Cut="8.1430613994598389e-01" cType="0" res="-9.9000000000000000e+01" rms="0.0000000000000000e+00" purity="1.6770932078361511e-01" nType="0">
          <Node pos="l" depth="2" NCoef="0" IVar="8" Cut="1.1880796402692795e-01" cType="1" res="-9.9000000000000000e+01" rms="0.0000000000000000e+00" purity="3.7117037177085876e-01" nType="0">
            <Node pos="l" depth="3" NCoef="0" IVar="7" Cut="1.6135687828063965e+00" cType="0" res="-9.9000000000000000e+01" rms="0.0000000000000000e+00" purity="6.2678045034408569e-01" nType="0">
              <Node pos="l" depth="4" NCoef="0" IVar="-1" Cut="0.0000000000000000e+00" cType="1" res="-9.9000000000000000e+01" rms="0.0000000000000000e+00" purity="7.9971837997436523e-01" nType="1"/>
              <Node pos="r" depth="4" NCoef="0" IVar="-1" Cut="0.0000000000000000e+00" cType="1" res="-9.9000000000000000e+01" rms="0.0000000000000000e+00" purity="3.0825611948966980e-01" nType="-1"/>
            </Node>
            <Node pos="r" depth="3" NCoef="0" IVar="-1" Cut="2.4967059493064880e-01" cType="1" res="-9.9000000000000000e+01" rms="0.0000000000000000e+00" purity="1.9754369556903839e-01" nType="-1"/>
          </Node>
          <Node pos="r" depth="2" NCoef="0" IVar="-1" Cut="7.9208955168724060e-02" cType="1" res="-9.9000000000000000e+01" rms="0.0000000000000000e+00" purity="4.8682816326618195e-02" nType="-1"/>
        </Node>
      </Node>
    </BinaryTree>
    <BinaryTree type="DecisionTree" boostWeight="8.4597003668027093e-01" itree="1">
      <Node pos="s" depth="0" NCoef="0" IVar="8" Cut="4.9504861235618591e-02" cType="1" res="-9.9000000000000000e+01" rms="0.0000000000000000e+00" purity="5.1232898235321045e-01" nType="0">
        <Node pos="l" depth="1" NCoef="0" IVar="14" Cut="2.3474297523498535e+00" cType="0" res="-9.9000000000000000e+01" rms="0.0000000000000000e+00" purity="8.4353858232498169e-01" nType="0">
          <Node pos="l" depth="2" NCoef="0" IVar="10" Cut="6.0797119140625000e-01" cType="0" res="-9.9000000000000000e+01" rms="0.0000000000000000e+00" purity="9.4438773393630981e-01" nType="0">
            <Node pos="l" depth="3" NCoef="0" IVar="-1" Cut="1.0392962396144867e-01" cType="1" res="-9.9000000000000000e+01" rms="0.0000000000000000e+00" purity="9.5959490537643433e-01" nType="1"/>
            <Node pos="r" depth="3" NCoef="0" IVar="2" Cut="1.5129123628139496e-01" cType="0" res="-9.9000000000000000e+01" rms="0.0000000000000000e+00" purity="5.0227534770965576e-01" nType="0">
              <Node pos="l" depth="4" NCoef="0" IVar="-1" Cut="0.0000000000000000e+00" cType="1" res="-9.9000000000000000e+01" rms="0.0000000000000000e+00" purity="7.2965508699417114e-01" nType="1"/>
              <Node pos="r" depth="4" NCoef="0" IVar="-1" Cut="0.0000000000000000e+00" cType="1" res="-9.9000000000000000e+01" rms="0.0000000000000000e+00" purity="2.9619595408439636e-01" nType="-1"/>
            </Node>
          </Node>
          <Node pos="r" depth="2" NCoef="0" IVar="10" Cut="7.5658297538757324e-01" cType="0" res="-9.9000000000000000e+01" rms="0.0000000000000000e+00" purity="4.8341616988182068e-01" nType="0">
            <Node pos="l" depth="3" NCoef="0" IVar="7" Cut="2.2379949092864990e+00" cType="0" res="-9.9000000000000000e+01" rms="0.0000000000000000e+00" purity="6.0747748613357544e-01" nType="0">
              <Node pos="l" depth="4" NCoef="0" IVar="-1" Cut="0.0000000000000000e+00" cType="1" res="-9.9000000000000000e+01" rms="0.0000000000000000e+00" purity="7.3885786533355713e-01" nType="1"/>
              <Node pos="r" depth="4" NCoef="0" IVar="-1" Cut="0.0000000000000000e+00" cType="1" res="-9.9000000000000000e+01" rms="0.0000000000000000e+00" purity="4.9109202623367310e-01" nType="-1"/>
            </Node>
            <Node pos="r" depth="3" NCoef="0" IVar="-1" Cut="5.1325100660324097e-01" cType="0" res="-9.9000000000000000e+01" rms="0.0000000000000000e+00" purity="2.0894248783588409e-01" nType="-1"/>
          </Node>
        </Node>
        <Node pos="r" depth="1" NCoef="0" IVar="10" Cut="7.9099041223526001e-01" cType="0" res="-9.9000000000000000e+01" rms="0.0000000000000000e+00" purity="2.3008204996585846e-01" nType="0">
          <Node pos="l" depth="2" NCoef="0" IVar="8" Cut="2.7536451816558838e-01" cType="1" res="-9.9000000000000000e+01" rms="0.0000000000000000e+00" purity="4.2292603850364685e-01" nType="0">
            <Node pos="l" depth="3" NCoef="0" IVar="13" Cut="1.0526019334793091e-01" cType="1" res="-9.9000000000000000e+01" rms="0.0000000000000000e+00" purity="5.1995164155960083e-01" nType="0">
              <Node pos="l" depth="4" NCoef="0" IVar="-1" Cut="0.0000000000000000e+00" cType="1" res="-9.9000000000000000e+01" rms="0.0000000000000000e+00" purity="5.7039809226989746e-01" nType="1"/>
              <Node pos="r" depth="4" NCoef="0" IVar="-1" Cut="0.0000000000000000e+00" cType="1" res="-9.9000000000000000e+01" rms="0.0000000000000000e+00" purity="2.3897731304168701e-01" nType="-1"/>
            </Node>
            <Node pos="r" depth="3" NCoef="0" IVar="-1" Cut="6.7876160144805908e-02" cType="1" res="-9.9000000000000000e+01" rms="0.0000000000000000e+00" purity="2.1959003806114197e-01" nType="-1"/>
          </Node>
          <Node pos="r" depth="2" NCoef="0" IVar="-1" Cut="1.5302582085132599e-01" cType="1" res="-9.9000000000000000e+01" rms="0.0000000000000000e+00" purity="7.7968142926692963e-02" nType="-1"/>
        </Node>
      </Node>
    </BinaryTree>
    <BinaryTree type="DecisionTree" boostWeight="6.9269802240065992e-01" itree="2">
      <Node pos="s" depth="0" NCoef="0" IVar="8" Cut="4.9504268914461136e-02" cType="1" res="-9.9000000000000000e+01" rms="0.0000000000000000e+00" purity="5.1465153694152832e-01" nType="0">
        <Node pos="l" depth="1" NCoef="0" IVar="14" Cut="3.1063470840454102e+00" cType="0" res="-9.9000000000000000e+01" rms="0.0000000000000000e+00" purity="8.1842750310897827e-01" nType="0">
          <Node pos="l" depth="2" NCoef="0" IVar="9" Cut="1.0384020209312439e-01" cType="1" res="-9.9000000000000000e+01" rms="0.0000000000000000e+00" purity="9.3774425983428955e-01" nType="0">
            <Node pos="l" depth="3" NCoef="0" IVar="-1" Cut="7.5359088182449341e-01" cType="0" res="-9.9000000000000000e+01" rms="0.0000000000000000e+00" purity="9.6568542718887329e-01" nType="1"/>
            <Node pos="r" depth="3" NCoef="0" IVar="10" Cut="7.1270537376403809e-01" cType="0" res="-9.9000000000000000e+01" rms="0.0000000000000000e+00" purity="7.0339316129684448e-01" nType="0">
              <Node pos="l" depth="4" NCoef="0" IVar="-1" Cut="0.0000000000000000e+00" cType="1" res="-9.9000000000000000e+01" rms="0.0000000000000000e+00" purity="7.8507602214813232e-01" nType="1"/>
              <Node pos="r" depth="4" NCoef="0" IVar="-1" Cut="0.0000000000000000e+00" cType="1" res="-9.9000000000000000e+01" rms="0.0000000000000000e+00" purity="3.8373756408691406e-01" nType="-1"/>
            </Node>
          </Node>
          <Node pos="r" depth="2" NCoef="0" IVar="10" Cut="7.4593365192413330e-01" cType="0" res="-9.9000000000000000e+01" rms="0.0000000000000000e+00" purity="5.9344846010208130e-01" nType="0">
            <Node pos="l" depth="3" NCoef="0" IVar="9" Cut="3.2719954848289490e-01" cType="1" res="-9.9000000000000000e+01" rms="0.0000000000000000e+00" purity="6.8739116191864014e-01" nType="0">
              <Node pos="l" depth="4" NCoef="0" IVar="-1" Cut="0.0000000000000000e+00" cType="1" res="-9.9000000000000000e+01" rms="0.0000000000000000e+00" purity="7.3624408245086670e-01" nType="1"/>
              <Node pos="r" depth="4" NCoef="0" IVar="-1" Cut="0.0000000000000000e+00" cType="1" res="-9.9000000000000000e+01" rms="0.0000000000000000e+00" purity="4.7567012906074524e-01" nType="-1"/>
            </Node>
            <Node pos="r" depth="3" NCoef="0" IVar="-1" Cut="2.5594757869839668e-02" cType="1" res="-9.9000000000000000e+01" rms="0.0000000000000000e+00" purity="3.1003940105438232e-01" nType="-1"/>
          </Node>
        </Node>
        <Node pos="r" depth="1" NCoef="0" IVar="10" Cut="7.0120525360107422e-01" cType="0" res="-9.9000000000000000e+01" rms="0.0000000000000000e+00" purity="2.7009421586990356e-01" nType="0">
          <Node pos="l" depth="2" NCoef="0" IVar="13" Cut="8.1486746668815613e-02" cType="1" res="-9.9000000000000000e+01" rms="0.0000000000000000e+00" purity="3.7812277674674988e-01" nType="0">
            <Node pos="l" depth="3" NCoef="0" IVar="14" Cut="1.7847807407379150e+00" cType="0" res="-9.9000000000000000e+01" rms="0.0000000000000000e+00" purity="4.4755402207374573e-01" nType="0">
              <Node pos="l" depth="4" NCoef="0" IVar="-1" Cut="0.0000000000000000e+00" cType="1" res="-9.9000000000000000e+01" rms="0.0000000000000000e+00" purity="6.6476660966873169e-01" nType="1"/>
              <Node pos="r" depth="4" NCoef="0" IVar="-1" Cut="0.0000000000000000e+00" cType="1" res="-9.9000000000000000e+01" rms="0.0000000000000000e+00" purity="4.0780863165855408e-01" nType="-1"/>
            </Node>
            <Node pos="r" depth="3" NCoef="0" IVar="-1" Cut="2.0944494009017944e-01" cType="1" res="-9.9000000000000000e+01" rms="0.0000000000000000e+00" purity="1.8256962299346924e-01" nType="-1"/>
          </Node>
          <Node pos="r" depth="2" NCoef="0" IVar="-1" Cut="1.3419795036315918e-01" cType="1" res="-9.9000000000000000e+01" rms="0.0000000000000000e+00" purity="7.8623846173286438e-02" nType="-1"/>
        </Node>
      </Node>
    </BinaryTree>
    <BinaryTree type="DecisionTree" boostWeight="5.5815174651190891e-01" itree="3">
      <Node pos="s" depth="0" NCoef="0" IVar="9" Cut="8.9192129671573639e-02" cType="1" res="-9.9000000000000000e+01" rms="0.0000000000000000e+00" purity="5.3741765022277832e-01" nType="0">
        <Node pos="l" depth="1" NCoef="0" IVar="14" Cut="2.6765606403350830e+00" cType="0" res="-9.9000000000000000e+01" rms="0.0000000000000000e+00" purity="8.7120503187179565e-01" nType="0">
          <Node pos="l" depth="2" NCoef="0" IVar="10" Cut="7.5036185979843140e-01" cType="0" res="-9.9000000000000000e+01" rms="0.0000000000000000e+00" purity="9.3599510192871094e-01" nType="0">
            <Node pos="l" depth="3" NCoef="0" IVar="-1" Cut="3.7867594510316849e-02" cType="1" res="-9.9000000000000000e+01" rms="0.0000000000000000e+00" purity="9.6763592958450317e-01" nType="1"/>
            <Node pos="r" depth="3" NCoef="0" IVar="12" Cut="7.7282033860683441e-02" cType="1" res="-9.9000000000000000e+01" rms="0.0000000000000000e+00" purity="7.4427419900894165e-01" nType="0">
              <Node pos="l" depth="4" NCoef="0" IVar="-1" Cut="0.0000000000000000e+00" cType="1" res="-9.9000000000000000e+01" rms="0.0000000000000000e+00" purity="8.0590701103210449e-01" nType="1"/>
              <Node pos="r" depth="4" NCoef="0" IVar="-1" Cut="0.0000000000000000e+00" cType="1" res="-9.9000000000000000e+01" rms="0.0000000000000000e+00" purity="4.5146819949150085e-01" nType="-1"/>
            </Node>
          </Node>
          <Node pos="r" depth="2" NCoef="0" IVar="12" Cut="5.1155444234609604e-02" cType="1" res="-9.9000000000000000e+01" rms="0.0000000000000000e+00" purity="6.0912841558456421e-01" nType="0">
            <Node pos="l" depth="3" NCoef="0" IVar="-1" Cut="1.2610256671905518e+00" cType="0" res="-9.9000000000000000e+01" rms="0.0000000000000000e+00" purity="6.8056315183639526e-01" nType="1"/>
            <Node pos="r" depth="3" NCoef="0" IVar="10" Cut="8.5276502370834351e-01" cType="0" res="-9.9000000000000000e+01" rms="0.0000000000000000e+00" purity="3.6033114790916443e-01" nType="0">
              <Node pos="l" depth="4" NCoef="0" IVar="-1" Cut="0.0000000000000000e+00" cType="1" res="-9.9000000000000000e+01" rms="0.0000000000000000e+00" purity="5.2594834566116333e-01" nType="1"/>
              <Node pos="r" depth="4" NCoef="0" IVar="-1" Cut="0.0000000000000000e+00" cType="1" res="-9.9000000000000000e+01" rms="0.0000000000000000e+00" purity="2.2973692417144775e-01" nType="-1"/>
            </Node>
          </Node>
        </Node>
        <Node pos="r" depth="1" NCoef="0" IVar="10" Cut="7.3975944519042969e-01" cType="0" res="-9.9000000000000000e+01" rms="0.0000000000000000e+00" purity="3.8133183121681213e-01" nType="0">
          <Node pos="l" depth="2" NCoef="0" IVar="10" Cut="9.0724116563796997e-01" cType="0" res="-9.9000000000000000e+01" rms="0.0000000000000000e+00" purity="5.0484156608581543e-01" nType="0">
            <Node pos="l" depth="3" NCoef="0" IVar="0" Cut="3.1587884765625000e+04" cType="1" res="-9.9000000000000000e+01" rms="0.0000000000000000e+00" purity="5.9635168313980103e-01" nType="0">
              <Node pos="l" depth="4" NCoef="0" IVar="-1" Cut="0.0000000000000000e+00" cType="1" res="-9.9000000000000000e+01" rms="0.0000000000000000e+00" purity="6.2150633335113525e-01" nType="1"/>
              <Node pos="r" depth="4" NCoef="0" IVar="-1" Cut="0.0000000000000000e+00" cType="1" res="-9.9000000000000000e+01" rms="0.0000000000000000e+00" purity="1.3019193708896637e-01" nType="-1"/>
            </Node>
            <Node pos="r" depth="3" NCoef="0" IVar="-1" Cut="1.8811927735805511e-01" cType="1" res="-9.9000000000000000e+01" rms="0.0000000000000000e+00" purity="4.1447815299034119e-01" nType="-1"/>
          </Node>
          <Node pos="r" depth="2" NCoef="0" IVar="-1" Cut="1.7821310460567474e-01" cType="1" res="-9.9000000000000000e+01" rms="0.0000000000000000e+00" purity="1.6958020627498627e-01" nType="-1"/>
        </Node>
      </Node>
    </BinaryTree>
    <BinaryTree type="DecisionTree" boostWeight="5.1659798385467526e-01" itree="4">
      <Node pos="s" depth="0" NCoef="0" IVar="8" Cut="2.9702929779887199e-02" cType="1" res="-9.9000000000000000e+01" rms="0.0000000000000000e+00" purity="5.3444766998291016e-01" nType="0">
        <Node pos="l" depth="1" NCoef="0" IVar="14" Cut="3.6828465461730957e+00" cType="0" res="-9.9000000000000000e+01" rms="0.0000000000000000e+00" purity="8.2437592744827271e-01" nType="0">
          <Node pos="l" depth="2" NCoef="0" IVar="-1" Cut="7.4066832661628723e-02" cType="1" res="-9.9000000000000000e+01" rms="0.0000000000000000e+00" purity="9.4419682025909424e-01" nType="1"/>
          <Node pos="r" depth="2" NCoef="0" IVar="10" Cut="5.1509666442871094e-01" cType="0" res="-9.9000000000000000e+01" rms="0.0000000000000000e+00" purity="6.5321981906890869e-01" nType="0">
            <Node pos="l" depth="3" NCoef="0" IVar="13" Cut="1.4716121554374695e-01" cType="1" res="-9.9000000000000000e+01" rms="0.0000000000000000e+00" purity="6.7288285493850708e-01" nType="0">
              <Node pos="l" depth="4" NCoef="0" IVar="-1" Cut="0.0000000000000000e+00" cType="1" res="-9.9000000000000000e+01" rms="0.0000000000000000e+00" purity="6.9555479288101196e-01" nType="1"/>
              <Node pos="r" depth="4" NCoef="0" IVar="-1" Cut="0.0000000000000000e+00" cType="1" res="-9.9000000000000000e+01" rms="0.0000000000000000e+00" purity="3.7934184074401855e-01" nType="-1"/>
            </Node>
            <Node pos="r" depth="3" NCoef="0" IVar="-1" Cut="2.9182279109954834e+00" cType="0" res="-9.9000000000000000e+01" rms="0.0000000000000000e+00" purity="1.4063689112663269e-01" nType="-1"/>
          </Node>
        </Node>
        <Node pos="r" depth="1" NCoef="0" IVar="10" Cut="7.3611921072006226e-01" cType="0" res="-9.9000000000000000e+01" rms="0.0000000000000000e+00" purity="3.8140931725502014e-01" nType="0">
          <Node pos="l" depth="2" NCoef="0" IVar="13" Cut="9.3006297945976257e-02" cType="1" res="-9.9000000000000000e+01" rms="0.0000000000000000e+00" purity="4.8450836539268494e-01" nType="0">
            <Node pos="l" depth="3" NCoef="0" IVar="0" Cut="2.3743013671875000e+04" cType="1" res="-9.9000000000000000e+01" rms="0.0000000000000000e+00" purity="5.3049987554550171e-01" nType="0">
              <Node pos="l" depth="4" NCoef="0" IVar="-1" Cut="0.0000000000000000e+00" cType="1" res="-9.9000000000000000e+01" rms="0.0000000000000000e+00" purity="5.6167131662368774e-01" nType="1"/>
              <Node pos="r" depth="4" NCoef="0" IVar="-1" Cut="0.0000000000000000e+00" cType="1" res="-9.9000000000000000e+01" rms="0.0000000000000000e+00" purity="3.1580728292465210e-01" nType="-1"/>
            </Node>
            <Node pos="r" depth="3" NCoef="0" IVar="-1" Cut="1.5459653735160828e-01" cType="1" res="-9.9000000000000000e+01" rms="0.0000000000000000e+00" purity="2.8265881538391113e-01" nType="-1"/>
          </Node>
          <Node pos="r" depth="2" NCoef="0" IVar="8" Cut="1.3537675142288208e-01" cType="1" res="-9.9000000000000000e+01" rms="0.0000000000000000e+00" purity="1.8730318546295166e-01" nType="0">
            <Node pos="l" depth="3" NCoef="0" IVar="11" Cut="6.0881686210632324e-01" cType="0" res="-9.9000000000000000e+01" rms="0.0000000000000000e+00" purity="3.6969512701034546e-01" nType="0">
              <Node pos="l" depth="4" NCoef="0" IVar="-1" Cut="0.0000000000000000e+00" cType="1" res="-9.9000000000000000e+01" rms="0.0000000000000000e+00" purity="5.5872607231140137e-01" nType="1"/>
              <Node pos="r" depth="4" NCoef="0" IVar="-1" Cut="0.0000000000000000e+00" cType="1" res="-9.9000000000000000e+01" rms="0.0000000000000000e+00" purity="2.3037678003311157e-01" nType="-1"/>
            </Node>
            <Node pos="r" depth="3" NCoef="0" IVar="-1" Cut="8.4901399910449982e-02" cType="1" res="-9.9000000000000000e+01" rms="0.0000000000000000e+00" purity="7.9473502933979034e-02" nType="-1"/>
          </Node>
        </Node>
      </Node>
    </BinaryTree>
    <BinaryTree type="DecisionTree" boostWeight="4.3041399151314808e-01" itree="5">
      <Node pos="s" depth="0" NCoef="0" IVar="9" Cut="5.9545379132032394e-02" cType="1" res="-9.9000000000000000e+01" rms="0.0000000000000000e+00" purity="5.1228255033493042e-01" nType="0">
        <Node pos="l" depth="1" NCoef="0" IVar="14" Cut="2.8919098377227783e+00" cType="0" res="-9.9000000000000000e+01" rms="0.0000000000000000e+00" purity="8.6070322990417480e-01" nType="0">
          <Node pos="l" depth="2" NCoef="0" IVar="10" Cut="7.4072599411010742e-01" cType="0" res="-9.9000000000000000e+01" rms="0.0000000000000000e+00" purity="9.3624746799468994e-01" nType="0">
            <Node pos="l" depth="3" NCoef="0" IVar="-1" Cut="3.2778333872556686e-02" cType="1" res="-9.9000000000000000e+01" rms="0.0000000000000000e+00" purity="9.6930062770843506e-01" nType="1"/>
            <Node pos="r" depth="3" NCoef="0" IVar="8" Cut="1.9287372007966042e-02" cType="1" res="-9.9000000000000000e+01" rms="0.0000000000000000e+00" purity="6.8733853101730347e-01" nType="0">
              <Node pos="l" depth="4" NCoef="0" IVar="-1" Cut="0.0000000000000000e+00" cType="1" res="-9.9000000000000000e+01" rms="0.0000000000000000e+00" purity="8.0278313159942627e-01" nType="1"/>
              <Node pos="r" depth="4" NCoef="0" IVar="-1" Cut="0.0000000000000000e+00" cType="1" res="-9.9000000000000000e+01" rms="0.0000000000000000e+00" purity="4.0723973512649536e-01" nType="-1"/>
            </Node>
          </Node>
          <Node pos="r" depth="2" NCoef="0" IVar="14" Cut="1.7117074728012085e+00" cType="0" res="-9.9000000000000000e+01" rms="0.0000000000000000e+00" purity="5.1250755786895752e-01" nType="0">
            <Node pos="l" depth="3" NCoef="0" IVar="10" Cut="8.4333735704421997e-01" cType="0" res="-9.9000000000000000e+01" rms="0.0000000000000000e+00" purity="6.5018886327743530e-01" nType="0">
              <Node pos="l" depth="4" NCoef="0" IVar="-1" Cut="0.0000000000000000e+00" cType="1" res="-9.9000000000000000e+01" rms="0.0000000000000000e+00" purity="7.9189288616180420e-01" nType="1"/>
              <Node pos="r" depth="4" NCoef="0" IVar="-1" Cut="0.0000000000000000e+00" cType="1" res="-9.9000000000000000e+01" rms="0.0000000000000000e+00" purity="4.6773537993431091e-01" nType="-1"/>
            </Node>
            <Node pos="r" depth="3" NCoef="0" IVar="-1" Cut="5.1345575600862503e-02" cType="1" res="-9.9000000000000000e+01" rms="0.0000000000000000e+00" purity="3.8236060738563538e-01" nType="-1"/>
          </Node>
        </Node>
        <Node pos="r" depth="1" NCoef="0" IVar="10" Cut="6.2861227989196777e-01" cType="0" res="-9.9000000000000000e+01" rms="0.0000000000000000e+00" purity="4.1197904944419861e-01" nType="0">
          <Node pos="l" depth="2" NCoef="0" IVar="8" Cut="1.7822816967964172e-01" cType="1" res="-9.9000000000000000e+01" rms="0.0000000000000000e+00" purity="4.6731969714164734e-01" nType="0">
            <Node pos="l" depth="3" NCoef="0" IVar="12" Cut="4.9396768212318420e-02" cType="1" res="-9.9000000000000000e+01" rms="0.0000000000000000e+00" purity="5.3458970785140991e-01" nType="0">
              <Node pos="l" depth="4" NCoef="0" IVar="-1" Cut="0.0000000000000000e+00" cType="1" res="-9.9000000000000000e+01" rms="0.0000000000000000e+00" purity="5.8828246593475342e-01" nType="1"/>
              <Node pos="r" depth="4" NCoef="0" IVar="-1" Cut="0.0000000000000000e+00" cType="1" res="-9.9000000000000000e+01" rms="0.0000000000000000e+00" purity="4.3729519844055176e-01" nType="-1"/>
            </Node>
            <Node pos="r" depth="3" NCoef="0" IVar="-1" Cut="7.1283064782619476e-02" cType="1" res="-9.9000000000000000e+01" rms="0.0000000000000000e+00" purity="3.4232786297798157e-01" nType="-1"/>
          </Node>
          <Node pos="r" depth="2" NCoef="0" IVar="8" Cut="9.9006243050098419e-02" cType="1" res="-9.9000000000000000e+01" rms="0.0000000000000000e+00" purity="1.5593639016151428e-01" nType="0">
            <Node pos="l" depth="3" NCoef="0" IVar="10" Cut="5.2129828929901123e-01" cType="0" res="-9.9000000000000000e+01" rms="0.0000000000000000e+00" purity="3.6700549721717834e-01" nType="0">
              <Node pos="l" depth="4" NCoef="0" IVar="-1" Cut="0.0000000000000000e+00" cType="1" res="-9.9000000000000000e+01" rms="0.0000000000000000e+00" purity="5.0186568498611450e-01" nType="1"/>
              <Node pos="r" depth="4" NCoef="0" IVar="-1" Cut="0.0000000000000000e+00" cType="1" res="-9.9000000000000000e+01" rms="0.0000000000000000e+00" purity="1.6611997783184052e-01" nType="-1"/>
            </Node>
            <Node pos="r" depth="3" NCoef="0" IVar="-1" Cut="1.9634534418582916e-01" cType="1" res="-9.9000000000000000e+01" rms="0.0000000000000000e+00" purity="5.2006196230649948e-02" nType="-1"/>
          </Node>
        </Node>
      </Node>
    </BinaryTree>
    <BinaryTree type="DecisionTree" boostWeight="3.9485099198420909e-01" itree="6">
      <Node pos="s" depth="0" NCoef="0" IVar="9" Cut="5.9554461389780045e-02" cType="1" res="-9.9000000000000000e+01" rms="0.0000000000000000e+00" purity="5.2293968200683594e-01" nType="0">
        <Node pos="l" depth="1" NCoef="0" IVar="3" Cut="3.0000000000000000e+00" cType="1" res="-9.9000000000000000e+01" rms="0.0000000000000000e+00" purity="8.4575933218002319e-01" nType="0">
          <Node pos="l" depth="2" NCoef="0" IVar="-1" Cut="2.5886392220854759e-02" cType="1" res="-9.9000000000000000e+01" rms="0.0000000000000000e+00" purity="9.0690988302230835e-01" nType="1"/>
          <Node pos="r" depth="2" NCoef="0" IVar="7" Cut="1.5517102479934692e+00" cType="0" res="-9.9000000000000000e+01" rms="0.0000000000000000e+00" purity="4.9350863695144653e-01" nType="0">
            <Node pos="l" depth="3" NCoef="0" IVar="12" Cut="3.6134652793407440e-02" cType="1" res="-9.9000000000000000e+01" rms="0.0000000000000000e+00" purity="5.5204486846923828e-01" nType="0">
              <Node pos="l" depth="4" NCoef="0" IVar="-1" Cut="0.0000000000000000e+00" cType="1" res="-9.9000000000000000e+01" rms="0.0000000000000000e+00" purity="6.7276060581207275e-01" nType="1"/>
              <Node pos="r" depth="4" NCoef="0" IVar="-1" Cut="0.0000000000000000e+00" cType="1" res="-9.9000000000000000e+01" rms="0.0000000000000000e+00" purity="4.2224076390266418e-01" nType="-1"/>
            </Node>
            <Node pos="r" depth="3" NCoef="0" IVar="-1" Cut="8.7776225805282593e-01" cType="0" res="-9.9000000000000000e+01" rms="0.0000000000000000e+00" purity="2.2360320389270782e-01" nType="-1"/>
          </Node>
        </Node>
        <Node pos="r" depth="1" NCoef="0" IVar="10" Cut="6.2861227989196777e-01" cType="0" res="-9.9000000000000000e+01" rms="0.0000000000000000e+00" purity="4.3912455439567566e-01" nType="0">
          <Node pos="l" depth="2" NCoef="0" IVar="8" Cut="2.0790959894657135e-01" cType="1" res="-9.9000000000000000e+01" rms="0.0000000000000000e+00" purity="4.9048700928688049e-01" nType="0">
            <Node pos="l" depth="3" NCoef="0" IVar="0" Cut="1.8503800781250000e+04" cType="1" res="-9.9000000000000000e+01" rms="0.0000000000000000e+00" purity="5.3911650180816650e-01" nType="0">
              <Node pos="l" depth="4" NCoef="0" IVar="-1" Cut="0.0000000000000000e+00" cType="1" res="-9.9000000000000000e+01" rms="0.0000000000000000e+00" purity="5.9058022499084473e-01" nType="1"/>
              <Node pos="r" depth="4" NCoef="0" IVar="-1" Cut="0.0000000000000000e+00" cType="1" res="-9.9000000000000000e+01" rms="0.0000000000000000e+00" purity="4.0292102098464966e-01" nType="-1"/>
            </Node>
            <Node pos="r" depth="3" NCoef="0" IVar="-1" Cut="2.6432101726531982e+00" cType="1" res="-9.9000000000000000e+01" rms="0.0000000000000000e+00" purity="3.6302378773689270e-01" nType="-1"/>
          </Node>
          <Node pos="r" depth="2" NCoef="0" IVar="8" Cut="9.9008522927761078e-02" cType="1" res="-9.9000000000000000e+01" rms="0.0000000000000000e+00" purity="1.8367637693881989e-01" nType="0">
            <Node pos="l" depth="3" NCoef="0" IVar="7" Cut="3.0487246513366699e+00" cType="0" res="-9.9000000000000000e+01" rms="0.0000000000000000e+00" purity="3.7331590056419373e-01" nType="0">
              <Node pos="l" depth="4" NCoef="0" IVar="-1" Cut="0.0000000000000000e+00" cType="1" res="-9.9000000000000000e+01" rms="0.0000000000000000e+00" purity="5.0781130790710449e-01" nType="1"/>
              <Node pos="r" depth="4" NCoef="0" IVar="-1" Cut="0.0000000000000000e+00" cType="1" res="-9.9000000000000000e+01" rms="0.0000000000000000e+00" purity="2.2691372036933899e-01" nType="-1"/>
            </Node>
            <Node pos="r" depth="3" NCoef="0" IVar="-1" Cut="1.9634564220905304e-01" cType="1" res="-9.9000000000000000e+01" rms="0.0000000000000000e+00" purity="7.8883178532123566e-02" nType="-1"/>
          </Node>
        </Node>
      </Node>
    </BinaryTree>
    <BinaryTree type="DecisionTree" boostWeight="3.3591975267486296e-01" itree="7">
      <Node pos="s" depth="0" NCoef="0" IVar="9" Cut="4.4640492647886276e-02" cType="1" res="-9.9000000000000000e+01" rms="0.0000000000000000e+00" purity="5.0744837522506714e-01" nType="0">
        <Node pos="l" depth="1" NCoef="0" IVar="14" Cut="2.3284542560577393e+00" cType="0" res="-9.9000000000000000e+01" rms="0.0000000000000000e+00" purity="8.6564278602600098e-01" nType="0">
          <Node pos="l" depth="2" NCoef="0" IVar="-1" Cut="7.8067731857299805e-01" cType="0" res="-9.9000000000000000e+01" rms="0.0000000000000000e+00" purity="9.1177833080291748e-01" nType="1"/>
          <Node pos="r" depth="2" NCoef="0" IVar="14" Cut="1.1973011493682861e+00" cType="0" res="-9.9000000000000000e+01" rms="0.0000000000000000e+00" purity="4.7759819030761719e-01" nType="0">
            <Node pos="l" depth="3" NCoef="0" IVar="-1" Cut="0.0000000000000000e+00" cType="1" res="-9.9000000000000000e+01" rms="0.0000000000000000e+00" purity="6.0245716571807861e-01" nType="1"/>
            <Node pos="r" depth="3" NCoef="0" IVar="-1" Cut="2.8855936601758003e-02" cType="1" res="-9.9000000000000000e+01" rms="0.0000000000000000e+00" purity="3.3657181262969971e-01" nType="-1"/>
          </Node>
        </Node>
        <Node pos="r" depth="1" NCoef="0" IVar="10" Cut="6.3401663303375244e-01" cType="0" res="-9.9000000000000000e+01" rms="0.0000000000000000e+00" purity="4.3774133920669556e-01" nType="0">
          <Node pos="l" depth="2" NCoef="0" IVar="8" Cut="6.9309763610363007e-02" cType="1" res="-9.9000000000000000e+01" rms="0.0000000000000000e+00" purity="4.8769605159759521e-01" nType="0">
            <Node pos="l" depth="3" NCoef="0" IVar="14" Cut="1.9399526119232178e+00" cType="0" res="-9.9000000000000000e+01" rms="0.0000000000000000e+00" purity="5.6187313795089722e-01" nType="0">
              <Node pos="l" depth="4" NCoef="0" IVar="-1" Cut="0.0000000000000000e+00" cType="1" res="-9.9000000000000000e+01" rms="0.0000000000000000e+00" purity="6.6490042209625244e-01" nType="1"/>
              <Node pos="r" depth="4" NCoef="0" IVar="-1" Cut="0.0000000000000000e+00" cType="1" res="-9.9000000000000000e+01" rms="0.0000000000000000e+00" purity="4.5795428752899170e-01" nType="-1"/>
            </Node>
            <Node pos="r" depth="3" NCoef="0" IVar="-1" Cut="6.6255402565002441e+00" cType="1" res="-9.9000000000000000e+01" rms="0.0000000000000000e+00" purity="4.3913298845291138e-01" nType="-1"/>
          </Node>
          <Node pos="r" depth="2" NCoef="0" IVar="9" Cut="2.0314328372478485e-01" cType="1" res="-9.9000000000000000e+01" rms="0.0000000000000000e+00" purity="1.6935564577579498e-01" nType="0">
            <Node pos="l" depth="3" NCoef="0" IVar="12" Cut="2.9549011960625648e-02" cType="1" res="-9.9000000000000000e+01" rms="0.0000000000000000e+00" purity="3.7769529223442078e-01" nType="0">
              <Node pos="l" depth="4" NCoef="0" IVar="-1" Cut="0.0000000000000000e+00" cType="1" res="-9.9000000000000000e+01" rms="0.0000000000000000e+00" purity="5.4175287485122681e-01" nType="1"/>
              <Node pos="r" depth="4" NCoef="0" IVar="-1" Cut="0.0000000000000000e+00" cType="1" res="-9.9000000000000000e+01" rms="0.0000000000000000e+00" purity="2.5794053077697754e-01" nType="-1"/>
            </Node>
            <Node pos="r" depth="3" NCoef="0" IVar="-1" Cut="5.8595460653305054e-01" cType="0" res="-9.9000000000000000e+01" rms="0.0000000000000000e+00" purity="8.5068464279174805e-02" nType="-1"/>
          </Node>
        </Node>
      </Node>
    </BinaryTree>
    <BinaryTree type="DecisionTree" boostWeight="3.1187202499892375e-01" itree="8">
      <Node pos="s" depth="0" NCoef="0" IVar="9" Cut="4.4640433043241501e-02" cType="1" res="-9.9000000000000000e+01" rms="0.0000000000000000e+00" purity="5.3745722770690918e-01" nType="0">
        <Node pos="l" depth="1" NCoef="0" IVar="3" Cut="2.0000000000000000e+00" cType="1" res="-9.9000000000000000e+01" rms="0.0000000000000000e+00" purity="8.5781073570251465e-01" nType="0">
          <Node pos="l" depth="2" NCoef="0" IVar="-1" Cut="4.3342318534851074e+00" cType="0" res="-9.9000000000000000e+01" rms="0.0000000000000000e+00" purity="9.2080676555633545e-01" nType="1"/>
          <Node pos="r" depth="2" NCoef="0" IVar="10" Cut="7.8971779346466064e-01" cType="0" res="-9.9000000000000000e+01" rms="0.0000000000000000e+00" purity="5.7762145996093750e-01" nType="0">
            <Node pos="l" depth="3" NCoef="0" IVar="-1" Cut="2.0961599349975586e+00" cType="0" res="-9.9000000000000000e+01" rms="0.0000000000000000e+00" purity="6.9884574413299561e-01" nType="1"/>
            <Node pos="r" depth="3" NCoef="0" IVar="0" Cut="1.8391845703125000e+04" cType="1" res="-9.9000000000000000e+01" rms="0.0000000000000000e+00" purity="4.2829513549804688e-01" nType="0">
              <Node pos="l" depth="4" NCoef="0" IVar="-1" Cut="0.0000000000000000e+00" cType="1" res="-9.9000000000000000e+01" rms="0.0000000000000000e+00" purity="5.0097829103469849e-01" nType="1"/>
              <Node pos="r" depth="4" NCoef="0" IVar="-1" Cut="0.0000000000000000e+00" cType="1" res="-9.9000000000000000e+01" rms="0.0000000000000000e+00" purity="2.4668036401271820e-01" nType="-1"/>
            </Node>
          </Node>
        </Node>
        <Node pos="r" depth="1" NCoef="0" IVar="10" Cut="6.3373547792434692e-01" cType="0" res="-9.9000000000000000e+01" rms="0.0000000000000000e+00" purity="4.7928714752197266e-01" nType="0">
          <Node pos="l" depth="2" NCoef="0" IVar="13" Cut="1.4082449674606323e-01" cType="1" res="-9.9000000000000000e+01" rms="0.0000000000000000e+00" purity="5.2979129552841187e-01" nType="0">
            <Node pos="l" depth="3" NCoef="0" IVar="13" Cut="6.4605899155139923e-02" cType="1" res="-9.9000000000000000e+01" rms="0.0000000000000000e+00" purity="5.5169963836669922e-01" nType="0">
              <Node pos="l" depth="4" NCoef="0" IVar="-1" Cut="0.0000000000000000e+00" cType="1" res="-9.9000000000000000e+01" rms="0.0000000000000000e+00" purity="5.7824772596359253e-01" nType="1"/>
              <Node pos="r" depth="4" NCoef="0" IVar="-1" Cut="0.0000000000000000e+00" cType="1" res="-9.9000000000000000e+01" rms="0.0000000000000000e+00" purity="4.6561715006828308e-01" nType="-1"/>
            </Node>
            <Node pos="r" depth="3" NCoef="0" IVar="-1" Cut="2.6731300354003906e-01" cType="1" res="-9.9000000000000000e+01" rms="0.0000000000000000e+00" purity="3.5551086068153381e-01" nType="-1"/>
          </Node>
          <Node pos="r" depth="2" NCoef="0" IVar="-1" Cut="5.9403281658887863e-02" cType="1" res="-9.9000000000000000e+01" rms="0.0000000000000000e+00" purity="1.8575341999530792e-01" nType="-1"/>
        </Node>
      </Node>
    </BinaryTree>
    <BinaryTree type="DecisionTree" boostWeight="2.9222425500276283e-01" itree="9">
      <Node pos="s" depth="0" NCoef="0" IVar="14" Cut="4.3256545066833496e+00" cType="0" res="-9.9000000000000000e+01" rms="0.0000000000000000e+00" purity="5.1506447792053223e-01" nType="0">
        <Node pos="l" depth="1" NCoef="0" IVar="8" Cut="2.9673278331756592e-02" cType="1" res="-9.9000000000000000e+01" rms="0.0000000000000000e+00" purity="8.2589530944824219e-01" nType="0">
          <Node pos="l" depth="2" NCoef="0" IVar="-1" Cut="2.9720019549131393e-02" cType="1" res="-9.9000000000000000e+01" rms="0.0000000000000000e+00" purity="8.9710092544555664e-01" nType="1"/>
          <Node pos="r" depth="2" NCoef="0" IVar="8" Cut="8.7289944291114807e-02" cType="1" res="-9.9000000000000000e+01" rms="0.0000000000000000e+00" purity="4.7207337617874146e-01" nType="0">
            <Node pos="l" depth="3" NCoef="0" IVar="11" Cut="5.6324785947799683e-01" cType="0" res="-9.9000000000000000e+01" rms="0.0000000000000000e+00" purity="5.9345161914825439e-01" nType="0">
              <Node pos="l" depth="4" NCoef="0" IVar="-1" Cut="0.0000000000000000e+00" cType="1" res="-9.9000000000000000e+01" rms="0.0000000000000000e+00" purity="7.3062026500701904e-01" nType="1"/>
              <Node pos="r" depth="4" NCoef="0" IVar="-1" Cut="0.0000000000000000e+00" cType="1" res="-9.9000000000000000e+01" rms="0.0000000000000000e+00" purity="3.0700621008872986e-01" nType="-1"/>
            </Node>
            <Node pos="r" depth="3" NCoef="0" IVar="-1" Cut="1.9945427775382996e-01" cType="1" res="-9.9000000000000000e+01" rms="0.0000000000000000e+00" purity="1.1851125210523605e-01" nType="-1"/>
          </Node>
        </Node>
        <Node pos="r" depth="1" NCoef="0" IVar="10" Cut="6.8159639835357666e-01" cType="0" res="-9.9000000000000000e+01" rms="0.0000000000000000e+00" purity="4.6038252115249634e-01" nType="0">
          <Node pos="l" depth="2" NCoef="0" IVar="5" Cut="1.3079628944396973e+01" cType="1" res="-9.9000000000000000e+01" rms="0.0000000000000000e+00" purity="5.1099860668182373e-01" nType="0">
            <Node pos="l" depth="3" NCoef="0" IVar="5" Cut="1.1697866916656494e+00" cType="0" res="-9.9000000000000000e+01" rms="0.0000000000000000e+00" purity="5.1861780881881714e-01" nType="0">
              <Node pos="l" depth="4" NCoef="0" IVar="-1" Cut="0.0000000000000000e+00" cType="1" res="-9.9000000000000000e+01" rms="0.0000000000000000e+00" purity="5.4944103956222534e-01" nType="1"/>
              <Node pos="r" depth="4" NCoef="0" IVar="-1" Cut="0.0000000000000000e+00" cType="1" res="-9.9000000000000000e+01" rms="0.0000000000000000e+00" purity="4.0175867080688477e-01" nType="-1"/>
            </Node>
            <Node pos="r" depth="3" NCoef="0" IVar="-1" Cut="5.0126256942749023e+00" cType="0" res="-9.9000000000000000e+01" rms="0.0000000000000000e+00" purity="1.6035558283329010e-01" nType="-1"/>
          </Node>
          <Node pos="r" depth="2" NCoef="0" IVar="-1" Cut="8.9107945561408997e-02" cType="1" res="-9.9000000000000000e+01" rms="0.0000000000000000e+00" purity="2.5140169262886047e-01" nType="-1"/>
        </Node>
      </Node>
    </BinaryTree>
    <BinaryTree type="DecisionTree" boostWeight="2.7804480297302520e-01" itree="10">
      <Node pos="s" depth="0" NCoef="0" IVar="14" Cut="4.2719388008117676e+00" cType="0" res="-9.9000000000000000e+01" rms="0.0000000000000000e+00" purity="4.9089252948760986e-01" nType="0">
        <Node pos="l" depth="1" NCoef="0" IVar="8" Cut="3.9572671055793762e-02" cType="1" res="-9.9000000000000000e+01" rms="0.0000000000000000e+00" purity="8.1688219308853149e-01" nType="0">
          <Node pos="l" depth="2" NCoef="0" IVar="10" Cut="7.3066127300262451e-01" cType="0" res="-9.9000000000000000e+01" rms="0.0000000000000000e+00" purity="8.7960660457611084e-01" nType="0">
            <Node pos="l" depth="3" NCoef="0" IVar="-1" Cut="4.4603120535612106e-02" cType="1" res="-9.9000000000000000e+01" rms="0.0000000000000000e+00" purity="9.2493075132369995e-01" nType="1"/>
            <Node pos="r" depth="3" NCoef="0" IVar="8" Cut="9.0071037411689758e-03" cType="1" res="-9.9000000000000000e+01" rms="0.0000000000000000e+00" purity="6.0493135452270508e-01" nType="0">
              <Node pos="l" depth="4" NCoef="0" IVar="-1" Cut="0.0000000000000000e+00" cType="1" res="-9.9000000000000000e+01" rms="0.0000000000000000e+00" purity="7.6577234268188477e-01" nType="1"/>
              <Node pos="r" depth="4" NCoef="0" IVar="-1" Cut="0.0000000000000000e+00" cType="1" res="-9.9000000000000000e+01" rms="0.0000000000000000e+00" purity="4.7400462627410889e-01" nType="-1"/>
            </Node>
          </Node>
          <Node pos="r" depth="2" NCoef="0" IVar="8" Cut="1.2509763240814209e-01" cType="1" res="-9.9000000000000000e+01" rms="0.0000000000000000e+00" purity="4.0474879741668701e-01" nType="0">
            <Node pos="l" depth="3" NCoef="0" IVar="0" Cut="1.5859266601562500e+04" cType="1" res="-9.9000000000000000e+01" rms="0.0000000000000000e+00" purity="5.0691276788711548e-01" nType="0">
              <Node pos="l" depth="4" NCoef="0" IVar="-1" Cut="0.0000000000000000e+00" cType="1" res="-9.9000000000000000e+01" rms="0.0000000000000000e+00" purity="6.4622509479522705e-01" nType="1"/>
              <Node pos="r" depth="4" NCoef="0" IVar="-1" Cut="0.0000000000000000e+00" cType="1" res="-9.9000000000000000e+01" rms="0.0000000000000000e+00" purity="1.7055419087409973e-01" nType="-1"/>
            </Node>
            <Node pos="r" depth="3" NCoef="0" IVar="-1" Cut="0.0000000000000000e+00" cType="1" res="-9.9000000000000000e+01" rms="0.0000000000000000e+00" purity="2.7551835402846336e-02" nType="-1"/>
          </Node>
        </Node>
        <Node pos="r" depth="1" NCoef="0" IVar="10" Cut="6.4815896749496460e-01" cType="0" res="-9.9000000000000000e+01" rms="0.0000000000000000e+00" purity="4.3341982364654541e-01" nType="0">
          <Node pos="l" depth="2" NCoef="0" IVar="12" Cut="9.0047992765903473e-02" cType="1" res="-9.9000000000000000e+01" rms="0.0000000000000000e+00" purity="4.6804773807525635e-01" nType="0">
            <Node pos="l" depth="3" NCoef="0" IVar="14" Cut="2.8560328483581543e+00" cType="0" res="-9.9000000000000000e+01" rms="0.0000000000000000e+00" purity="4.8703515529632568e-01" nType="0">
              <Node pos="l" depth="4" NCoef="0" IVar="-1" Cut="0.0000000000000000e+00" cType="1" res="-9.9000000000000000e+01" rms="0.0000000000000000e+00" purity="6.0803717374801636e-01" nType="1"/>
              <Node pos="r" depth="4" NCoef="0" IVar="-1" Cut="0.0000000000000000e+00" cType="1" res="-9.9000000000000000e+01" rms="0.0000000000000000e+00" purity="4.6654185652732849e-01" nType="-1"/>
            </Node>
            <Node pos="r" depth="3" NCoef="0" IVar="-1" Cut="1.6827948391437531e-01" cType="1" res="-9.9000000000000000e+01" rms="0.0000000000000000e+00" purity="3.3026704192161560e-01" nType="-1"/>
          </Node>
          <Node pos="r" depth="2" NCoef="0" IVar="9" Cut="2.0884500443935394e-01" cType="1" res="-9.9000000000000000e+01" rms="0.0000000000000000e+00" purity="2.3826447129249573e-01" nType="0">
            <Node pos="l" depth="3" NCoef="0" IVar="12" Cut="1.8077857792377472e-02" cType="1" res="-9.9000000000000000e+01" rms="0.0000000000000000e+00" purity="4.5453849434852600e-01" nType="0">
              <Node pos="l" depth="4" NCoef="0" IVar="-1" Cut="0.0000000000000000e+00" cType="1" res="-9.9000000000000000e+01" rms="0.0000000000000000e+00" purity="6.3855320215225220e-01" nType="1"/>
              <Node pos="r" depth="4" NCoef="0" IVar="-1" Cut="0.0000000000000000e+00" cType="1" res="-9.9000000000000000e+01" rms="0.0000000000000000e+00" purity="3.6372905969619751e-01" nType="-1"/>
            </Node>
            <Node pos="r" depth="3" NCoef="0" IVar="-1" Cut="4.9501601606607437e-02" cType="1" res="-9.9000000000000000e+01" rms="0.0000000000000000e+00" purity="1.2324317544698715e-01" nType="-1"/>
          </Node>
        </Node>
      </Node>
    </BinaryTree>
    <BinaryTree type="DecisionTree" boostWeight="2.1863750988861599e-01" itree="11">
      <Node pos="s" depth="0" NCoef="0" IVar="9" Cut="2.9846200719475746e-02" cType="1" res="-9.9000000000000000e+01" rms="0.0000000000000000e+00" purity="5.1822549104690552e-01" nType="0">
        <Node pos="l" depth="1" NCoef="0" IVar="14" Cut="3.8119876384735107e+00" cType="0" res="-9.9000000000000000e+01" rms="0.0000000000000000e+00" purity="8.7449568510055542e-01" nType="0">
          <Node pos="l" depth="2" NCoef="0" IVar="-1" Cut="7.6533597707748413e-01" cType="0" res="-9.9000000000000000e+01" rms="0.0000000000000000e+00" purity="9.4178193807601929e-01" nType="1"/>
          <Node pos="r" depth="2" NCoef="0" IVar="2" Cut="2.2002783417701721e-01" cType="0" res="-9.9000000000000000e+01" rms="0.0000000000000000e+00" purity="6.4281439781188965e-01" nType="0">
            <Node pos="l" depth="3" NCoef="0" IVar="-1" Cut="0.0000000000000000e+00" cType="1" res="-9.9000000000000000e+01" rms="0.0000000000000000e+00" purity="8.3288139104843140e-01" nType="1"/>
            <Node pos="r" depth="3" NCoef="0" IVar="14" Cut="1.7002698183059692e+00" cType="0" res="-9.9000000000000000e+01" rms="0.0000000000000000e+00" purity="5.4249608516693115e-01" nType="0">
              <Node pos="l" depth="4" NCoef="0" IVar="-1" Cut="0.0000000000000000e+00" cType="1" res="-9.9000000000000000e+01" rms="0.0000000000000000e+00" purity="5.9012418985366821e-01" nType="1"/>
              <Node pos="r" depth="4" NCoef="0" IVar="-1" Cut="0.0000000000000000e+00" cType="1" res="-9.9000000000000000e+01" rms="0.0000000000000000e+00" purity="4.5401772856712341e-01" nType="-1"/>
            </Node>
          </Node>
        </Node>
        <Node pos="r" depth="1" NCoef="0" IVar="10" Cut="6.0481983423233032e-01" cType="0" res="-9.9000000000000000e+01" rms="0.0000000000000000e+00" purity="4.7784397006034851e-01" nType="0">
          <Node pos="l" depth="2" NCoef="0" IVar="12" Cut="6.1745714396238327e-02" cType="1" res="-9.9000000000000000e+01" rms="0.0000000000000000e+00" purity="5.0786012411117554e-01" nType="0">
            <Node pos="l" depth="3" NCoef="0" IVar="-1" Cut="3.9606343954801559e-02" cType="1" res="-9.9000000000000000e+01" rms="0.0000000000000000e+00" purity="5.4184269905090332e-01" nType="1"/>
            <Node pos="r" depth="3" NCoef="0" IVar="-1" Cut="5.0547742843627930e-01" cType="0" res="-9.9000000000000000e+01" rms="0.0000000000000000e+00" purity="4.1493982076644897e-01" nType="-1"/>
          </Node>
          <Node pos="r" depth="2" NCoef="0" IVar="-1" Cut="8.9102678000926971e-02" cType="1" res="-9.9000000000000000e+01" rms="0.0000000000000000e+00" purity="2.2960102558135986e-01" nType="-1"/>
        </Node>
      </Node>
    </BinaryTree>
    <BinaryTree type="DecisionTree" boostWeight="1.8707191569156550e-01" itree="12">
      <Node pos="s" depth="0" NCoef="0" IVar="9" Cut="2.9846200719475746e-02" cType="1" res="-9.9000000000000000e+01" rms="0.0000000000000000e+00" purity="5.2192527055740356e-01" nType="0">
        <Node pos="l" depth="1" NCoef="0" IVar="14" Cut="3.9758787155151367e+00" cType="0" res="-9.9000000000000000e+01" rms="0.0000000000000000e+00" purity="8.6611253023147583e-01" nType="0">
          <Node pos="l" depth="2" NCoef="0" IVar="-1" Cut="7.9182493686676025e-01" cType="0" res="-9.9000000000000000e+01" rms="0.0000000000000000e+00" purity="9.5000779628753662e-01" nType="1"/>
          <Node pos="r" depth="2" NCoef="0" IVar="10" Cut="8.6503219604492188e-01" cType="0" res="-9.9000000000000000e+01" rms="0.0000000000000000e+00" purity="6.3041740655899048e-01" nType="0">
            <Node pos="l" depth="3" NCoef="0" IVar="-1" Cut="0.0000000000000000e+00" cType="1" res="-9.9000000000000000e+01" rms="0.0000000000000000e+00" purity="7.6468020677566528e-01" nType="1"/>
            <Node pos="r" depth="3" NCoef="0" IVar="-1" Cut="0.0000000000000000e+00" cType="1" res="-9.9000000000000000e+01" rms="0.0000000000000000e+00" purity="4.6544444561004639e-01" nType="-1"/>
          </Node>
        </Node>
        <Node pos="r" depth="1" NCoef="0" IVar="10" Cut="6.2409693002700806e-01" cType="0" res="-9.9000000000000000e+01" rms="0.0000000000000000e+00" purity="4.8726803064346313e-01" nType="0">
          <Node pos="l" depth="2" NCoef="0" IVar="13" Cut="1.4038884639739990e-01" cType="1" res="-9.9000000000000000e+01" rms="0.0000000000000000e+00" purity="5.1267081499099731e-01" nType="0">
            <Node pos="l" depth="3" NCoef="0" IVar="-1" Cut="3.9270212650299072e+00" cType="0" res="-9.9000000000000000e+01" rms="0.0000000000000000e+00" purity="5.3105032444000244e-01" nType="1"/>
            <Node pos="r" depth="3" NCoef="0" IVar="-1" Cut="3.0693763494491577e-01" cType="1" res="-9.9000000000000000e+01" rms="0.0000000000000000e+00" purity="3.4880450367927551e-01" nType="-1"/>
          </Node>
          <Node pos="r" depth="2" NCoef="0" IVar="9" Cut="2.9185703396797180e-01" cType="1" res="-9.9000000000000000e+01" rms="0.0000000000000000e+00" purity="3.0786570906639099e-01" nType="0">
            <Node pos="l" depth="3" NCoef="0" IVar="8" Cut="2.0224618911743164e-01" cType="1" res="-9.9000000000000000e+01" rms="0.0000000000000000e+00" purity="4.9014294147491455e-01" nType="0">
              <Node pos="l" depth="4" NCoef="0" IVar="-1" Cut="0.0000000000000000e+00" cType="1" res="-9.9000000000000000e+01" rms="0.0000000000000000e+00" purity="5.2019661664962769e-01" nType="1"/>
              <Node pos="r" depth="4" NCoef="0" IVar="-1" Cut="0.0000000000000000e+00" cType="1" res="-9.9000000000000000e+01" rms="0.0000000000000000e+00" purity="0.0000000000000000e+00" nType="-1"/>
            </Node>
            <Node pos="r" depth="3" NCoef="0" IVar="-1" Cut="5.7113456726074219e-01" cType="0" res="-9.9000000000000000e+01" rms="0.0000000000000000e+00" purity="1.1263109743595123e-01" nType="-1"/>
          </Node>
        </Node>
      </Node>
    </BinaryTree>
    <BinaryTree type="DecisionTree" boostWeight="2.1514365480326098e-01" itree="13">
      <Node pos="s" depth="0" NCoef="0" IVar="14" Cut="4.2469258308410645e+00" cType="0" res="-9.9000000000000000e+01" rms="0.0000000000000000e+00" purity="4.7995290160179138e-01" nType="0">
        <Node pos="l" depth="1" NCoef="0" IVar="8" Cut="2.9672479256987572e-02" cType="1" res="-9.9000000000000000e+01" rms="0.0000000000000000e+00" purity="7.8944343328475952e-01" nType="0">
          <Node pos="l" depth="2" NCoef="0" IVar="-1" Cut="4.4451329112052917e-01" cType="0" res="-9.9000000000000000e+01" rms="0.0000000000000000e+00" purity="8.6588656902313232e-01" nType="1"/>
          <Node pos="r" depth="2" NCoef="0" IVar="10" Cut="8.3079373836517334e-01" cType="0" res="-9.9000000000000000e+01" rms="0.0000000000000000e+00" purity="4.9078235030174255e-01" nType="0">
            <Node pos="l" depth="3" NCoef="0" IVar="11" Cut="4.9701136350631714e-01" cType="0" res="-9.9000000000000000e+01" rms="0.0000000000000000e+00" purity="6.7348790168762207e-01" nType="0">
              <Node pos="l" depth="4" NCoef="0" IVar="-1" Cut="0.0000000000000000e+00" cType="1" res="-9.9000000000000000e+01" rms="0.0000000000000000e+00" purity="7.4560487270355225e-01" nType="1"/>
              <Node pos="r" depth="4" NCoef="0" IVar="-1" Cut="0.0000000000000000e+00" cType="1" res="-9.9000000000000000e+01" rms="0.0000000000000000e+00" purity="3.6298641562461853e-01" nType="-1"/>
            </Node>
            <Node pos="r" depth="3" NCoef="0" IVar="-1" Cut="8.7269999086856842e-02" cType="1" res="-9.9000000000000000e+01" rms="0.0000000000000000e+00" purity="3.3444231748580933e-01" nType="-1"/>
          </Node>
        </Node>
        <Node pos="r" depth="1" NCoef="0" IVar="-1" Cut="5.7974547147750854e-01" cType="0" res="-9.9000000000000000e+01" rms="0.0000000000000000e+00" purity="4.3019002676010132e-01" nType="-1"/>
      </Node>
    </BinaryTree>
    <BinaryTree type="DecisionTree" boostWeight="1.7737188048179464e-01" itree="14">
      <Node pos="s" depth="0" NCoef="0" IVar="9" Cut="2.9833035543560982e-02" cType="1" res="-9.9000000000000000e+01" rms="0.0000000000000000e+00" purity="5.1524472236633301e-01" nType="0">
        <Node pos="l" depth="1" NCoef="0" IVar="3" Cut="2.0000000000000000e+00" cType="1" res="-9.9000000000000000e+01" rms="0.0000000000000000e+00" purity="8.6113053560256958e-01" nType="0">
          <Node pos="l" depth="2" NCoef="0" IVar="-1" Cut="3.6912972927093506e+00" cType="0" res="-9.9000000000000000e+01" rms="0.0000000000000000e+00" purity="9.1608005762100220e-01" nType="1"/>
          <Node pos="r" depth="2" NCoef="0" IVar="1" Cut="3.0900502204895020e-01" cType="0" res="-9.9000000000000000e+01" rms="0.0000000000000000e+00" purity="5.6811237335205078e-01" nType="0">
            <Node pos="l" depth="3" NCoef="0" IVar="-1" Cut="0.0000000000000000e+00" cType="1" res="-9.9000000000000000e+01" rms="0.0000000000000000e+00" purity="6.4456224441528320e-01" nType="1"/>
            <Node pos="r" depth="3" NCoef="0" IVar="-1" Cut="0.0000000000000000e+00" cType="1" res="-9.9000000000000000e+01" rms="0.0000000000000000e+00" purity="4.0095496177673340e-01" nType="-1"/>
          </Node>
        </Node>
        <Node pos="r" depth="1" NCoef="0" IVar="10" Cut="5.7546186447143555e-01" cType="0" res="-9.9000000000000000e+01" rms="0.0000000000000000e+00" purity="4.8187243938446045e-01" nType="0">
          <Node pos="l" depth="2" NCoef="0" IVar="8" Cut="4.5542907714843750e-01" cType="1" res="-9.9000000000000000e+01" rms="0.0000000000000000e+00" purity="5.0038063526153564e-01" nType="0">
            <Node pos="l" depth="3" NCoef="0" IVar="0" Cut="3.5168558593750000e+04" cType="1" res="-9.9000000000000000e+01" rms="0.0000000000000000e+00" purity="5.1295965909957886e-01" nType="0">
              <Node pos="l" depth="4" NCoef="0" IVar="-1" Cut="0.0000000000000000e+00" cType="1" res="-9.9000000000000000e+01" rms="0.0000000000000000e+00" purity="5.2088135480880737e-01" nType="1"/>
              <Node pos="r" depth="4" NCoef="0" IVar="-1" Cut="0.0000000000000000e+00" cType="1" res="-9.9000000000000000e+01" rms="0.0000000000000000e+00" purity="2.6596245169639587e-01" nType="-1"/>
            </Node>
            <Node pos="r" depth="3" NCoef="0" IVar="7" Cut="1.3058007955551147e+00" cType="1" res="-9.9000000000000000e+01" rms="0.0000000000000000e+00" purity="3.5143536329269409e-01" nType="0">
              <Node pos="l" depth="4" NCoef="0" IVar="-1" Cut="0.0000000000000000e+00" cType="1" res="-9.9000000000000000e+01" rms="0.0000000000000000e+00" purity="5.5262988805770874e-01" nType="1"/>
              <Node pos="r" depth="4" NCoef="0" IVar="-1" Cut="0.0000000000000000e+00" cType="1" res="-9.9000000000000000e+01" rms="0.0000000000000000e+00" purity="1.5756045281887054e-01" nType="-1"/>
            </Node>
          </Node>
          <Node pos="r" depth="2" NCoef="0" IVar="9" Cut="2.3361830413341522e-01" cType="1" res="-9.9000000000000000e+01" rms="0.0000000000000000e+00" purity="2.8655096888542175e-01" nType="0">
            <Node pos="l" depth="3" NCoef="0" IVar="13" Cut="7.7977582812309265e-02" cType="1" res="-9.9000000000000000e+01" rms="0.0000000000000000e+00" purity="4.9942460656166077e-01" nType="0">
              <Node pos="l" depth="4" NCoef="0" IVar="-1" Cut="0.0000000000000000e+00" cType="1" res="-9.9000000000000000e+01" rms="0.0000000000000000e+00" purity="5.7134103775024414e-01" nType="1"/>
              <Node pos="r" depth="4" NCoef="0" IVar="-1" Cut="0.0000000000000000e+00" cType="1" res="-9.9000000000000000e+01" rms="0.0000000000000000e+00" purity="1.1197041720151901e-01" nType="-1"/>
            </Node>
            <Node pos="r" depth="3" NCoef="0" IVar="-1" Cut="6.3085835427045822e-03" cType="1" res="-9.9000000000000000e+01" rms="0.0000000000000000e+00" purity="1.2085057795047760e-01" nType="-1"/>
          </Node>
        </Node>
      </Node>
    </BinaryTree>
    <BinaryTree type="DecisionTree" boostWeight="1.7980318870815121e-01" itree="15">
      <Node pos="s" depth="0" NCoef="0" IVar="9" Cut="2.9833035543560982e-02" cType="1" res="-9.9000000000000000e+01" rms="0.0000000000000000e+00" purity="4.8997858166694641e-01" nType="0">
        <Node pos="l" depth="1" NCoef="0" IVar="14" Cut="4.7468476295471191e+00" cType="0" res="-9.9000000000000000e+01" rms="0.0000000000000000e+00" purity="8.2463788986206055e-01" nType="0">
          <Node pos="l" depth="2" NCoef="0" IVar="-1" Cut="7.8349792957305908e-01" cType="0" res="-9.9000000000000000e+01" rms="0.0000000000000000e+00" purity="9.4199353456497192e-01" nType="1"/>
          <Node pos="r" depth="2" NCoef="0" IVar="10" Cut="8.0800318717956543e-01" cType="0" res="-9.9000000000000000e+01" rms="0.0000000000000000e+00" purity="6.5468853712081909e-01" nType="0">
            <Node pos="l" depth="3" NCoef="0" IVar="-1" Cut="2.6557946205139160e+00" cType="0" res="-9.9000000000000000e+01" rms="0.0000000000000000e+00" purity="7.6941925287246704e-01" nType="1"/>
            <Node pos="r" depth="3" NCoef="0" IVar="-1" Cut="0.0000000000000000e+00" cType="1" res="-9.9000000000000000e+01" rms="0.0000000000000000e+00" purity="4.3534904718399048e-01" nType="-1"/>
          </Node>
        </Node>
        <Node pos="r" depth="1" NCoef="0" IVar="10" Cut="7.2019076347351074e-01" cType="0" res="-9.9000000000000000e+01" rms="0.0000000000000000e+00" purity="4.5704239606857300e-01" nType="0">
          <Node pos="l" depth="2" NCoef="0" IVar="11" Cut="1.0015082359313965e+00" cType="1" res="-9.9000000000000000e+01" rms="0.0000000000000000e+00" purity="4.9097308516502380e-01" nType="0">
            <Node pos="l" depth="3" NCoef="0" IVar="14" Cut="3.9524807929992676e+00" cType="0" res="-9.9000000000000000e+01" rms="0.0000000000000000e+00" purity="4.9741414189338684e-01" nType="0">
              <Node pos="l" depth="4" NCoef="0" IVar="-1" Cut="0.0000000000000000e+00" cType="1" res="-9.9000000000000000e+01" rms="0.0000000000000000e+00" purity="6.4538651704788208e-01" nType="1"/>
              <Node pos="r" depth="4" NCoef="0" IVar="-1" Cut="0.0000000000000000e+00" cType="1" res="-9.9000000000000000e+01" rms="0.0000000000000000e+00" purity="4.8187211155891418e-01" nType="-1"/>
            </Node>
            <Node pos="r" depth="3" NCoef="0" IVar="-1" Cut="1.0093673828125000e+04" cType="1" res="-9.9000000000000000e+01" rms="0.0000000000000000e+00" purity="1.0805362462997437e-01" nType="-1"/>
          </Node>
          <Node pos="r" depth="2" NCoef="0" IVar="-1" Cut="1.5840983390808105e-01" cType="1" res="-9.9000000000000000e+01" rms="0.0000000000000000e+00" purity="3.4160655736923218e-01" nType="-1"/>
        </Node>
      </Node>
    </BinaryTree>
    <BinaryTree type="DecisionTree" boostWeight="1.4603635782684377e-01" itree="16">
      <Node pos="s" depth="0" NCoef="0" IVar="9" Cut="2.9864754527807236e-02" cType="1" res="-9.9000000000000000e+01" rms="0.0000000000000000e+00" purity="5.2053523063659668e-01" nType="0">
        <Node pos="l" depth="1" NCoef="0" IVar="2" Cut="4.6066725254058838e-01" cType="0" res="-9.9000000000000000e+01" rms="0.0000000000000000e+00" purity="8.3445352315902710e-01" nType="0">
          <Node pos="l" depth="2" NCoef="0" IVar="-1" Cut="1.5349824912846088e-02" cType="1" res="-9.9000000000000000e+01" rms="0.0000000000000000e+00" purity="9.6383428573608398e-01" nType="1"/>
          <Node pos="r" depth="2" NCoef="0" IVar="10" Cut="7.8057509660720825e-01" cType="0" res="-9.9000000000000000e+01" rms="0.0000000000000000e+00" purity="6.7978340387344360e-01" nType="0">
            <Node pos="l" depth="3" NCoef="0" IVar="-1" Cut="3.1805927753448486e+00" cType="0" res="-9.9000000000000000e+01" rms="0.0000000000000000e+00" purity="7.7989733219146729e-01" nType="1"/>
            <Node pos="r" depth="3" NCoef="0" IVar="12" Cut="3.9512742310762405e-02" cType="1" res="-9.9000000000000000e+01" rms="0.0000000000000000e+00" purity="4.7379758954048157e-01" nType="0">
              <Node pos="l" depth="4" NCoef="0" IVar="-1" Cut="0.0000000000000000e+00" cType="1" res="-9.9000000000000000e+01" rms="0.0000000000000000e+00" purity="6.4250969886779785e-01" nType="1"/>
              <Node pos="r" depth="4" NCoef="0" IVar="-1" Cut="0.0000000000000000e+00" cType="1" res="-9.9000000000000000e+01" rms="0.0000000000000000e+00" purity="3.0719527602195740e-01" nType="-1"/>
            </Node>
          </Node>
        </Node>
        <Node pos="r" depth="1" NCoef="0" IVar="10" Cut="6.4300203323364258e-01" cType="0" res="-9.9000000000000000e+01" rms="0.0000000000000000e+00" purity="4.9229481816291809e-01" nType="0">
          <Node pos="l" depth="2" NCoef="0" IVar="11" Cut="1.0015077590942383e+00" cType="1" res="-9.9000000000000000e+01" rms="0.0000000000000000e+00" purity="5.1688039302825928e-01" nType="0">
            <Node pos="l" depth="3" NCoef="0" IVar="-1" Cut="2.9698615893721581e-02" cType="1" res="-9.9000000000000000e+01" rms="0.0000000000000000e+00" purity="5.2254855632781982e-01" nType="1"/>
            <Node pos="r" depth="3" NCoef="0" IVar="-1" Cut="9.8019687500000000e+03" cType="1" res="-9.9000000000000000e+01" rms="0.0000000000000000e+00" purity="1.6151389479637146e-01" nType="-1"/>
          </Node>
          <Node pos="r" depth="2" NCoef="0" IVar="-1" Cut="1.5840648114681244e-01" cType="1" res="-9.9000000000000000e+01" rms="0.0000000000000000e+00" purity="3.2729196548461914e-01" nType="-1"/>
        </Node>
      </Node>
    </BinaryTree>
    <BinaryTree type="DecisionTree" boostWeight="2.0877710750947173e-01" itree="17">
      <Node pos="s" depth="0" NCoef="0" IVar="9" Cut="2.9863929376006126e-02" cType="1" res="-9.9000000000000000e+01" rms="0.0000000000000000e+00" purity="4.9448493123054504e-01" nType="0">
        <Node pos="l" depth="1" NCoef="0" IVar="2" Cut="4.4451329112052917e-01" cType="0" res="-9.9000000000000000e+01" rms="0.0000000000000000e+00" purity="8.2977855205535889e-01" nType="0">
          <Node pos="l" depth="2" NCoef="0" IVar="-1" Cut="4.4610280990600586e+00" cType="0" res="-9.9000000000000000e+01" rms="0.0000000000000000e+00" purity="9.4981515407562256e-01" nType="1"/>
          <Node pos="r" depth="2" NCoef="0" IVar="12" Cut="4.1658796370029449e-02" cType="1" res="-9.9000000000000000e+01" rms="0.0000000000000000e+00" purity="6.8898963928222656e-01" nType="0">
            <Node pos="l" depth="3" NCoef="0" IVar="-1" Cut="1.9237145781517029e-01" cType="0" res="-9.9000000000000000e+01" rms="0.0000000000000000e+00" purity="7.8828161954879761e-01" nType="1"/>
            <Node pos="r" depth="3" NCoef="0" IVar="14" Cut="3.7863109111785889e+00" cType="0" res="-9.9000000000000000e+01" rms="0.0000000000000000e+00" purity="5.2782374620437622e-01" nType="0">
              <Node pos="l" depth="4" NCoef="0" IVar="-1" Cut="0.0000000000000000e+00" cType="1" res="-9.9000000000000000e+01" rms="0.0000000000000000e+00" purity="6.6859155893325806e-01" nType="1"/>
              <Node pos="r" depth="4" NCoef="0" IVar="-1" Cut="0.0000000000000000e+00" cType="1" res="-9.9000000000000000e+01" rms="0.0000000000000000e+00" purity="3.6184829473495483e-01" nType="-1"/>
            </Node>
          </Node>
        </Node>
        <Node pos="r" depth="1" NCoef="0" IVar="10" Cut="5.5042535066604614e-01" cType="0" res="-9.9000000000000000e+01" rms="0.0000000000000000e+00" purity="4.6304079890251160e-01" nType="0">
          <Node pos="l" depth="2" NCoef="0" IVar="11" Cut="6.3501775264739990e-01" cType="0" res="-9.9000000000000000e+01" rms="0.0000000000000000e+00" purity="4.7726717591285706e-01" nType="0">
            <Node pos="l" depth="3" NCoef="0" IVar="0" Cut="1.0389977539062500e+04" cType="0" res="-9.9000000000000000e+01" rms="0.0000000000000000e+00" purity="5.2816098928451538e-01" nType="0">
              <Node pos="l" depth="4" NCoef="0" IVar="-1" Cut="0.0000000000000000e+00" cType="1" res="-9.9000000000000000e+01" rms="0.0000000000000000e+00" purity="5.5377423763275146e-01" nType="1"/>
              <Node pos="r" depth="4" NCoef="0" IVar="-1" Cut="0.0000000000000000e+00" cType="1" res="-9.9000000000000000e+01" rms="0.0000000000000000e+00" purity="3.5107940435409546e-01" nType="-1"/>
            </Node>
            <Node pos="r" depth="3" NCoef="0" IVar="8" Cut="5.9396240860223770e-02" cType="1" res="-9.9000000000000000e+01" rms="0.0000000000000000e+00" purity="4.4876122474670410e-01" nType="0">
              <Node pos="l" depth="4" NCoef="0" IVar="-1" Cut="0.0000000000000000e+00" cType="1" res="-9.9000000000000000e+01" rms="0.0000000000000000e+00" purity="5.1462143659591675e-01" nType="1"/>
              <Node pos="r" depth="4" NCoef="0" IVar="-1" Cut="0.0000000000000000e+00" cType="1" res="-9.9000000000000000e+01" rms="0.0000000000000000e+00" purity="3.9892962574958801e-01" nType="-1"/>
            </Node>
          </Node>
          <Node pos="r" depth="2" NCoef="0" IVar="8" Cut="1.2870948016643524e-01" cType="1" res="-9.9000000000000000e+01" rms="0.0000000000000000e+00" purity="2.5697022676467896e-01" nType="0">
            <Node pos="l" depth="3" NCoef="0" IVar="11" Cut="7.9519450664520264e-01" cType="0" res="-9.9000000000000000e+01" rms="0.0000000000000000e+00" purity="4.3021675944328308e-01" nType="0">
              <Node pos="l" depth="4" NCoef="0" IVar="-1" Cut="0.0000000000000000e+00" cType="1" res="-9.9000000000000000e+01" rms="0.0000000000000000e+00" purity="6.9163912534713745e-01" nType="1"/>
              <Node pos="r" depth="4" NCoef="0" IVar="-1" Cut="0.0000000000000000e+00" cType="1" res="-9.9000000000000000e+01" rms="0.0000000000000000e+00" purity="3.3661958575248718e-01" nType="-1"/>
            </Node>
            <Node pos="r" depth="3" NCoef="0" IVar="-1" Cut="1.5908606350421906e-02" cType="1" res="-9.9000000000000000e+01" rms="0.0000000000000000e+00" purity="6.0365796089172363e-02" nType="-1"/>
          </Node>
        </Node>
      </Node>
    </BinaryTree>
    <BinaryTree type="DecisionTree" boostWeight="1.9253085469095102e-01" itree="18">
      <Node pos="s" depth="0" NCoef="0" IVar="14" Cut="5.1196150779724121e+00" cType="0" res="-9.9000000000000000e+01" rms="0.0000000000000000e+00" purity="4.9318170547485352e-01" nType="0">
        <Node pos="l" depth="1" NCoef="0" IVar="8" Cut="1.9767036661505699e-02" cType="1" res="-9.9000000000000000e+01" rms="0.0000000000000000e+00" purity="8.2031077146530151e-01" nType="0">
          <Node pos="l" depth="2" NCoef="0" IVar="-1" Cut="9.6647717058658600e-02" cType="1" res="-9.9000000000000000e+01" rms="0.0000000000000000e+00" purity="9.0417140722274780e-01" nType="1"/>
          <Node pos="r" depth="2" NCoef="0" IVar="13" Cut="1.1295688152313232e-01" cType="1" res="-9.9000000000000000e+01" rms="0.0000000000000000e+00" purity="5.0868916511535645e-01" nType="0">
            <Node pos="l" depth="3" NCoef="0" IVar="-1" Cut="0.0000000000000000e+00" cType="1" res="-9.9000000000000000e+01" rms="0.0000000000000000e+00" purity="6.7418861389160156e-01" nType="1"/>
            <Node pos="r" depth="3" NCoef="0" IVar="-1" Cut="5.6954532861709595e-01" cType="0" res="-9.9000000000000000e+01" rms="0.0000000000000000e+00" purity="3.2929137349128723e-01" nType="-1"/>
          </Node>
        </Node>
        <Node pos="r" depth="1" NCoef="0" IVar="13" Cut="1.4002402126789093e-01" cType="1" res="-9.9000000000000000e+01" rms="0.0000000000000000e+00" purity="4.6835476160049438e-01" nType="0">
          <Node pos="l" depth="2" NCoef="0" IVar="7" Cut="-5.1155489683151245e-01" cType="0" res="-9.9000000000000000e+01" rms="0.0000000000000000e+00" purity="4.8866224288940430e-01" nType="0">
            <Node pos="l" depth="3" NCoef="0" IVar="10" Cut="8.7469899654388428e-01" cType="0" res="-9.9000000000000000e+01" rms="0.0000000000000000e+00" purity="4.9867972731590271e-01" nType="0">
              <Node pos="l" depth="4" NCoef="0" IVar="-1" Cut="0.0000000000000000e+00" cType="1" res="-9.9000000000000000e+01" rms="0.0000000000000000e+00" purity="5.5430948734283447e-01" nType="1"/>
              <Node pos="r" depth="4" NCoef="0" IVar="-1" Cut="0.0000000000000000e+00" cType="1" res="-9.9000000000000000e+01" rms="0.0000000000000000e+00" purity="4.5464184880256653e-01" nType="-1"/>
            </Node>
            <Node pos="r" depth="3" NCoef="0" IVar="-1" Cut="7.1191942691802979e-01" cType="0" res="-9.9000000000000000e+01" rms="0.0000000000000000e+00" purity="2.7338311076164246e-01" nType="-1"/>
          </Node>
          <Node pos="r" depth="2" NCoef="0" IVar="8" Cut="3.1684312224388123e-01" cType="1" res="-9.9000000000000000e+01" rms="0.0000000000000000e+00" purity="2.7287471294403076e-01" nType="0">
            <Node pos="l" depth="3" NCoef="0" IVar="9" Cut="5.0798535346984863e-01" cType="0" res="-9.9000000000000000e+01" rms="0.0000000000000000e+00" purity="3.4163811802864075e-01" nType="0">
              <Node pos="l" depth="4" NCoef="0" IVar="-1" Cut="0.0000000000000000e+00" cType="1" res="-9.9000000000000000e+01" rms="0.0000000000000000e+00" purity="5.4104989767074585e-01" nType="1"/>
              <Node pos="r" depth="4" NCoef="0" IVar="-1" Cut="0.0000000000000000e+00" cType="1" res="-9.9000000000000000e+01" rms="0.0000000000000000e+00" purity="2.2924074530601501e-01" nType="-1"/>
            </Node>
            <Node pos="r" depth="3" NCoef="0" IVar="-1" Cut="2.6584756374359131e-01" cType="1" res="-9.9000000000000000e+01" rms="0.0000000000000000e+00" purity="2.7315540239214897e-02" nType="-1"/>
          </Node>
        </Node>
      </Node>
    </BinaryTree>
    <BinaryTree type="DecisionTree" boostWeight="1.5930415939067419e-01" itree="19">
      <Node pos="s" depth="0" NCoef="0" IVar="9" Cut="2.9790582135319710e-02" cType="1" res="-9.9000000000000000e+01" rms="0.0000000000000000e+00" purity="4.9156937003135681e-01" nType="0">
        <Node pos="l" depth="1" NCoef="0" IVar="3" Cut="2.0000000000000000e+00" cType="1" res="-9.9000000000000000e+01" rms="0.0000000000000000e+00" purity="7.9992425441741943e-01" nType="0">
          <Node pos="l" depth="2" NCoef="0" IVar="-1" Cut="4.3342318534851074e+00" cType="0" res="-9.9000000000000000e+01" rms="0.0000000000000000e+00" purity="8.7173217535018921e-01" nType="1"/>
          <Node pos="r" depth="2" NCoef="0" IVar="10" Cut="8.1714588403701782e-01" cType="0" res="-9.9000000000000000e+01" rms="0.0000000000000000e+00" purity="5.1116436719894409e-01" nType="0">
            <Node pos="l" depth="3" NCoef="0" IVar="-1" Cut="0.0000000000000000e+00" cType="1" res="-9.9000000000000000e+01" rms="0.0000000000000000e+00" purity="6.0176968574523926e-01" nType="1"/>
            <Node pos="r" depth="3" NCoef="0" IVar="-1" Cut="0.0000000000000000e+00" cType="1" res="-9.9000000000000000e+01" rms="0.0000000000000000e+00" purity="4.2248353362083435e-01" nType="-1"/>
          </Node>
        </Node>
        <Node pos="r" depth="1" NCoef="0" IVar="13" Cut="1.3191227614879608e-01" cType="1" res="-9.9000000000000000e+01" rms="0.0000000000000000e+00" purity="4.6462580561637878e-01" nType="0">
          <Node pos="l" depth="2" NCoef="0" IVar="0" Cut="2.5772353515625000e+04" cType="1" res="-9.9000000000000000e+01" rms="0.0000000000000000e+00" purity="4.8069235682487488e-01" nType="0">
            <Node pos="l" depth="3" NCoef="0" IVar="13" Cut="5.9050004929304123e-02" cType="1" res="-9.9000000000000000e+01" rms="0.0000000000000000e+00" purity="4.9285396933555603e-01" nType="0">
              <Node pos="l" depth="4" NCoef="0" IVar="-1" Cut="0.0000000000000000e+00" cType="1" res="-9.9000000000000000e+01" rms="0.0000000000000000e+00" purity="5.1870650053024292e-01" nType="1"/>
              <Node pos="r" depth="4" NCoef="0" IVar="-1" Cut="0.0000000000000000e+00" cType="1" res="-9.9000000000000000e+01" rms="0.0000000000000000e+00" purity="4.2666459083557129e-01" nType="-1"/>
            </Node>
            <Node pos="r" depth="3" NCoef="0" IVar="-1" Cut="4.9487207084894180e-02" cType="1" res="-9.9000000000000000e+01" rms="0.0000000000000000e+00" purity="3.5185337066650391e-01" nType="-1"/>
          </Node>
          <Node pos="r" depth="2" NCoef="0" IVar="8" Cut="2.6733461022377014e-01" cType="1" res="-9.9000000000000000e+01" rms="0.0000000000000000e+00" purity="3.4564515948295593e-01" nType="0">
            <Node pos="l" depth="3" NCoef="0" IVar="10" Cut="7.1911382675170898e-01" cType="0" res="-9.9000000000000000e+01" rms="0.0000000000000000e+00" purity="4.3861582875251770e-01" nType="0">
              <Node pos="l" depth="4" NCoef="0" IVar="-1" Cut="0.0000000000000000e+00" cType="1" res="-9.9000000000000000e+01" rms="0.0000000000000000e+00" purity="5.0912600755691528e-01" nType="1"/>
              <Node pos="r" depth="4" NCoef="0" IVar="-1" Cut="0.0000000000000000e+00" cType="1" res="-9.9000000000000000e+01" rms="0.0000000000000000e+00" purity="2.0550312101840973e-01" nType="-1"/>
            </Node>
            <Node pos="r" depth="3" NCoef="0" IVar="-1" Cut="2.9859611988067627e+00" cType="1" res="-9.9000000000000000e+01" rms="0.0000000000000000e+00" purity="3.5157747566699982e-02" nType="-1"/>
          </Node>
        </Node>
      </Node>
    </BinaryTree>
    <BinaryTree type="DecisionTree" boostWeight="1.6498260790887051e-01" itree="20">
      <Node pos="s" depth="0" NCoef="0" IVar="9" Cut="2.9791392385959625e-02" cType="1" res="-9.9000000000000000e+01" rms="0.0000000000000000e+00" purity="4.8586967587471008e-01" nType="0">
        <Node pos="l" depth="1" NCoef="0" IVar="2" Cut="4.6211820840835571e-01" cType="0" res="-9.9000000000000000e+01" rms="0.0000000000000000e+00" purity="7.9220795631408691e-01" nType="0">
          <Node pos="l" depth="2" NCoef="0" IVar="-1" Cut="1.8025957047939301e-02" cType="1" res="-9.9000000000000000e+01" rms="0.0000000000000000e+00" purity="9.2284518480300903e-01" nType="1"/>
          <Node pos="r" depth="2" NCoef="0" IVar="12" Cut="6.2499221414327621e-02" cType="1" res="-9.9000000000000000e+01" rms="0.0000000000000000e+00" purity="6.4718592166900635e-01" nType="0">
            <Node pos="l" depth="3" NCoef="0" IVar="-1" Cut="8.0598378181457520e-01" cType="0" res="-9.9000000000000000e+01" rms="0.0000000000000000e+00" purity="7.1736842393875122e-01" nType="1"/>
            <Node pos="r" depth="3" NCoef="0" IVar="-1" Cut="0.0000000000000000e+00" cType="1" res="-9.9000000000000000e+01" rms="0.0000000000000000e+00" purity="4.0966856479644775e-01" nType="-1"/>
          </Node>
        </Node>
        <Node pos="r" depth="1" NCoef="0" IVar="13" Cut="1.4029936492443085e-01" cType="1" res="-9.9000000000000000e+01" rms="0.0000000000000000e+00" purity="4.6004727482795715e-01" nType="0">
          <Node pos="l" depth="2" NCoef="0" IVar="3" Cut="1.0000000000000000e+00" cType="1" res="-9.9000000000000000e+01" rms="0.0000000000000000e+00" purity="4.7626984119415283e-01" nType="0">
            <Node pos="l" depth="3" NCoef="0" IVar="-1" Cut="1.9685450941324234e-02" cType="1" res="-9.9000000000000000e+01" rms="0.0000000000000000e+00" purity="6.1335378885269165e-01" nType="1"/>
            <Node pos="r" depth="3" NCoef="0" IVar="-1" Cut="4.7082892060279846e-01" cType="0" res="-9.9000000000000000e+01" rms="0.0000000000000000e+00" purity="4.6392250061035156e-01" nType="-1"/>
          </Node>
          <Node pos="r" depth="2" NCoef="0" IVar="8" Cut="3.1683439016342163e-01" cType="1" res="-9.9000000000000000e+01" rms="0.0000000000000000e+00" purity="3.2375788688659668e-01" nType="0">
            <Node pos="l" depth="3" NCoef="0" IVar="9" Cut="7.5749361515045166e-01" cType="0" res="-9.9000000000000000e+01" rms="0.0000000000000000e+00" purity="3.9421215653419495e-01" nType="0">
              <Node pos="l" depth="4" NCoef="0" IVar="-1" Cut="0.0000000000000000e+00" cType="1" res="-9.9000000000000000e+01" rms="0.0000000000000000e+00" purity="6.6228145360946655e-01" nType="1"/>
              <Node pos="r" depth="4" NCoef="0" IVar="-1" Cut="0.0000000000000000e+00" cType="1" res="-9.9000000000000000e+01" rms="0.0000000000000000e+00" purity="3.2661199569702148e-01" nType="-1"/>
            </Node>
            <Node pos="r" depth="3" NCoef="0" IVar="-1" Cut="4.1388192772865295e-01" cType="1" res="-9.9000000000000000e+01" rms="0.0000000000000000e+00" purity="1.1788089759647846e-02" nType="-1"/>
          </Node>
        </Node>
      </Node>
    </BinaryTree>
    <BinaryTree type="DecisionTree" boostWeight="1.4909414398176174e-01" itree="21">
      <Node pos="s" depth="0" NCoef="0" IVar="9" Cut="2.9832860454916954e-02" cType="1" res="-9.9000000000000000e+01" rms="0.0000000000000000e+00" purity="5.0626140832901001e-01" nType="0">
        <Node pos="l" depth="1" NCoef="0" IVar="2" Cut="4.6211820840835571e-01" cType="0" res="-9.9000000000000000e+01" rms="0.0000000000000000e+00" purity="7.8241521120071411e-01" nType="0">
          <Node pos="l" depth="2" NCoef="0" IVar="-1" Cut="1.1889379471540451e-02" cType="1" res="-9.9000000000000000e+01" rms="0.0000000000000000e+00" purity="9.2868560552597046e-01" nType="1"/>
          <Node pos="r" depth="2" NCoef="0" IVar="14" Cut="5.0419559478759766e+00" cType="0" res="-9.9000000000000000e+01" rms="0.0000000000000000e+00" purity="6.2787961959838867e-01" nType="0">
            <Node pos="l" depth="3" NCoef="0" IVar="-1" Cut="2.5568418204784393e-02" cType="1" res="-9.9000000000000000e+01" rms="0.0000000000000000e+00" purity="8.4512978792190552e-01" nType="1"/>
            <Node pos="r" depth="3" NCoef="0" IVar="12" Cut="5.1349166780710220e-02" cType="1" res="-9.9000000000000000e+01" rms="0.0000000000000000e+00" purity="5.5481374263763428e-01" nType="0">
              <Node pos="l" depth="4" NCoef="0" IVar="-1" Cut="0.0000000000000000e+00" cType="1" res="-9.9000000000000000e+01" rms="0.0000000000000000e+00" purity="6.4183056354522705e-01" nType="1"/>
              <Node pos="r" depth="4" NCoef="0" IVar="-1" Cut="0.0000000000000000e+00" cType="1" res="-9.9000000000000000e+01" rms="0.0000000000000000e+00" purity="3.5130515694618225e-01" nType="-1"/>
            </Node>
          </Node>
        </Node>
        <Node pos="r" depth="1" NCoef="0" IVar="10" Cut="7.0679914951324463e-01" cType="0" res="-9.9000000000000000e+01" rms="0.0000000000000000e+00" purity="4.8428952693939209e-01" nType="0">
          <Node pos="l" depth="2" NCoef="0" IVar="0" Cut="3.6418546875000000e+04" cType="1" res="-9.9000000000000000e+01" rms="0.0000000000000000e+00" purity="5.0296062231063843e-01" nType="0">
            <Node pos="l" depth="3" NCoef="0" IVar="7" Cut="-6.9972509145736694e-01" cType="0" res="-9.9000000000000000e+01" rms="0.0000000000000000e+00" purity="5.0974911451339722e-01" nType="0">
              <Node pos="l" depth="4" NCoef="0" IVar="-1" Cut="0.0000000000000000e+00" cType="1" res="-9.9000000000000000e+01" rms="0.0000000000000000e+00" purity="5.1650911569595337e-01" nType="1"/>
              <Node pos="r" depth="4" NCoef="0" IVar="-1" Cut="0.0000000000000000e+00" cType="1" res="-9.9000000000000000e+01" rms="0.0000000000000000e+00" purity="3.3106899261474609e-01" nType="-1"/>
            </Node>
            <Node pos="r" depth="3" NCoef="0" IVar="-1" Cut="4.9462750554084778e-02" cType="1" res="-9.9000000000000000e+01" rms="0.0000000000000000e+00" purity="2.3614288866519928e-01" nType="-1"/>
          </Node>
          <Node pos="r" depth="2" NCoef="0" IVar="8" Cut="1.7821653187274933e-01" cType="1" res="-9.9000000000000000e+01" rms="0.0000000000000000e+00" purity="4.1003328561782837e-01" nType="0">
            <Node pos="l" depth="3" NCoef="0" IVar="0" Cut="1.6764189453125000e+04" cType="1" res="-9.9000000000000000e+01" rms="0.0000000000000000e+00" purity="4.9860432744026184e-01" nType="0">
              <Node pos="l" depth="4" NCoef="0" IVar="-1" Cut="0.0000000000000000e+00" cType="1" res="-9.9000000000000000e+01" rms="0.0000000000000000e+00" purity="5.7031506299972534e-01" nType="1"/>
              <Node pos="r" depth="4" NCoef="0" IVar="-1" Cut="0.0000000000000000e+00" cType="1" res="-9.9000000000000000e+01" rms="0.0000000000000000e+00" purity="2.9420909285545349e-01" nType="-1"/>
            </Node>
            <Node pos="r" depth="3" NCoef="0" IVar="-1" Cut="4.4331517219543457e+00" cType="1" res="-9.9000000000000000e+01" rms="0.0000000000000000e+00" purity="2.1707737445831299e-01" nType="-1"/>
          </Node>
        </Node>
      </Node>
    </BinaryTree>
    <BinaryTree type="DecisionTree" boostWeight="1.3870306122405210e-01" itree="22">
      <Node pos="s" depth="0" NCoef="0" IVar="9" Cut="2.9791131615638733e-02" cType="1" res="-9.9000000000000000e+01" rms="0.0000000000000000e+00" purity="4.7858089208602905e-01" nType="0">
        <Node pos="l" depth="1" NCoef="0" IVar="14" Cut="3.7492132186889648e+00" cType="0" res="-9.9000000000000000e+01" rms="0.0000000000000000e+00" purity="7.8218185901641846e-01" nType="0">
          <Node pos="l" depth="2" NCoef="0" IVar="-1" Cut="1.6509260982275009e-02" cType="1" res="-9.9000000000000000e+01" rms="0.0000000000000000e+00" purity="8.7568300962448120e-01" nType="1"/>
          <Node pos="r" depth="2" NCoef="0" IVar="14" Cut="2.0682511329650879e+00" cType="0" res="-9.9000000000000000e+01" rms="0.0000000000000000e+00" purity="5.6290274858474731e-01" nType="0">
            <Node pos="l" depth="3" NCoef="0" IVar="-1" Cut="0.0000000000000000e+00" cType="1" res="-9.9000000000000000e+01" rms="0.0000000000000000e+00" purity="6.3856774568557739e-01" nType="1"/>
            <Node pos="r" depth="3" NCoef="0" IVar="-1" Cut="0.0000000000000000e+00" cType="1" res="-9.9000000000000000e+01" rms="0.0000000000000000e+00" purity="4.6186554431915283e-01" nType="-1"/>
          </Node>
        </Node>
        <Node pos="r" depth="1" NCoef="0" IVar="13" Cut="1.4026495814323425e-01" cType="1" res="-9.9000000000000000e+01" rms="0.0000000000000000e+00" purity="4.5342433452606201e-01" nType="0">
          <Node pos="l" depth="2" NCoef="0" IVar="10" Cut="4.9918061494827271e-01" cType="0" res="-9.9000000000000000e+01" rms="0.0000000000000000e+00" purity="4.7099012136459351e-01" nType="0">
            <Node pos="l" depth="3" NCoef="0" IVar="-1" Cut="2.2641867399215698e-02" cType="0" res="-9.9000000000000000e+01" rms="0.0000000000000000e+00" purity="4.7880193591117859e-01" nType="-1"/>
            <Node pos="r" depth="3" NCoef="0" IVar="8" Cut="5.9405878186225891e-02" cType="1" res="-9.9000000000000000e+01" rms="0.0000000000000000e+00" purity="2.5162747502326965e-01" nType="0">
              <Node pos="l" depth="4" NCoef="0" IVar="-1" Cut="0.0000000000000000e+00" cType="1" res="-9.9000000000000000e+01" rms="0.0000000000000000e+00" purity="5.3319841623306274e-01" nType="1"/>
              <Node pos="r" depth="4" NCoef="0" IVar="-1" Cut="0.0000000000000000e+00" cType="1" res="-9.9000000000000000e+01" rms="0.0000000000000000e+00" purity="7.8642651438713074e-02" nType="-1"/>
            </Node>
          </Node>
          <Node pos="r" depth="2" NCoef="0" IVar="8" Cut="1.4847680926322937e-01" cType="1" res="-9.9000000000000000e+01" rms="0.0000000000000000e+00" purity="2.9869681596755981e-01" nType="0">
            <Node pos="l" depth="3" NCoef="0" IVar="9" Cut="1.1358734369277954e+00" cType="0" res="-9.9000000000000000e+01" rms="0.0000000000000000e+00" purity="4.1857558488845825e-01" nType="0">
              <Node pos="l" depth="4" NCoef="0" IVar="-1" Cut="0.0000000000000000e+00" cType="1" res="-9.9000000000000000e+01" rms="0.0000000000000000e+00" purity="7.7174681425094604e-01" nType="1"/>
              <Node pos="r" depth="4" NCoef="0" IVar="-1" Cut="0.0000000000000000e+00" cType="1" res="-9.9000000000000000e+01" rms="0.0000000000000000e+00" purity="3.8603788614273071e-01" nType="-1"/>
            </Node>
            <Node pos="r" depth="3" NCoef="0" IVar="-1" Cut="5.9430998563766479e-01" cType="0" res="-9.9000000000000000e+01" rms="0.0000000000000000e+00" purity="6.8551205098628998e-02" nType="-1"/>
          </Node>
        </Node>
      </Node>
    </BinaryTree>
    <BinaryTree type="DecisionTree" boostWeight="1.4305633597794692e-01" itree="23">
      <Node pos="s" depth="0" NCoef="0" IVar="9" Cut="2.9790733009576797e-02" cType="1" res="-9.9000000000000000e+01" rms="0.0000000000000000e+00" purity="5.0438714027404785e-01" nType="0">
        <Node pos="l" depth="1" NCoef="0" IVar="14" Cut="4.8587584495544434e+00" cType="0" res="-9.9000000000000000e+01" rms="0.0000000000000000e+00" purity="7.8020584583282471e-01" nType="0">
          <Node pos="l" depth="2" NCoef="0" IVar="-1" Cut="1.2060379609465599e-02" cType="1" res="-9.9000000000000000e+01" rms="0.0000000000000000e+00" purity="9.2677843570709229e-01" nType="1"/>
          <Node pos="r" depth="2" NCoef="0" IVar="2" Cut="2.6551494002342224e-01" cType="0" res="-9.9000000000000000e+01" rms="0.0000000000000000e+00" purity="6.2876141071319580e-01" nType="0">
            <Node pos="l" depth="3" NCoef="0" IVar="-1" Cut="9.0142311528325081e-03" cType="1" res="-9.9000000000000000e+01" rms="0.0000000000000000e+00" purity="7.7364349365234375e-01" nType="1"/>
            <Node pos="r" depth="3" NCoef="0" IVar="12" Cut="4.1658796370029449e-02" cType="1" res="-9.9000000000000000e+01" rms="0.0000000000000000e+00" purity="5.3421485424041748e-01" nType="0">
              <Node pos="l" depth="4" NCoef="0" IVar="-1" Cut="0.0000000000000000e+00" cType="1" res="-9.9000000000000000e+01" rms="0.0000000000000000e+00" purity="6.2016153335571289e-01" nType="1"/>
              <Node pos="r" depth="4" NCoef="0" IVar="-1" Cut="0.0000000000000000e+00" cType="1" res="-9.9000000000000000e+01" rms="0.0000000000000000e+00" purity="4.0190514922142029e-01" nType="-1"/>
            </Node>
          </Node>
        </Node>
        <Node pos="r" depth="1" NCoef="0" IVar="10" Cut="4.7223848104476929e-01" cType="0" res="-9.9000000000000000e+01" rms="0.0000000000000000e+00" purity="4.8292303085327148e-01" nType="0">
          <Node pos="l" depth="2" NCoef="0" IVar="12" Cut="4.5420672744512558e-02" cType="1" res="-9.9000000000000000e+01" rms="0.0000000000000000e+00" purity="4.9125111103057861e-01" nType="0">
            <Node pos="l" depth="3" NCoef="0" IVar="8" Cut="4.0593910217285156e-01" cType="1" res="-9.9000000000000000e+01" rms="0.0000000000000000e+00" purity="5.2081477642059326e-01" nType="0">
              <Node pos="l" depth="4" NCoef="0" IVar="-1" Cut="0.0000000000000000e+00" cType="1" res="-9.9000000000000000e+01" rms="0.0000000000000000e+00" purity="5.3209280967712402e-01" nType="1"/>
              <Node pos="r" depth="4" NCoef="0" IVar="-1" Cut="0.0000000000000000e+00" cType="1" res="-9.9000000000000000e+01" rms="0.0000000000000000e+00" purity="3.9085575938224792e-01" nType="-1"/>
            </Node>
            <Node pos="r" depth="3" NCoef="0" IVar="-1" Cut="7.1783089637756348e-01" cType="0" res="-9.9000000000000000e+01" rms="0.0000000000000000e+00" purity="4.4748583436012268e-01" nType="-1"/>
          </Node>
          <Node pos="r" depth="2" NCoef="0" IVar="14" Cut="-2.4526314735412598e+00" cType="1" res="-9.9000000000000000e+01" rms="0.0000000000000000e+00" purity="2.0751944184303284e-01" nType="0">
            <Node pos="l" depth="3" NCoef="0" IVar="-1" Cut="0.0000000000000000e+00" cType="1" res="-9.9000000000000000e+01" rms="0.0000000000000000e+00" purity="7.8700762987136841e-01" nType="1"/>
            <Node pos="r" depth="3" NCoef="0" IVar="-1" Cut="8.9107170701026917e-02" cType="1" res="-9.9000000000000000e+01" rms="0.0000000000000000e+00" purity="1.4306643605232239e-01" nType="-1"/>
          </Node>
        </Node>
      </Node>
    </BinaryTree>
    <BinaryTree type="DecisionTree" boostWeight="1.4680305346965525e-01" itree="24">
      <Node pos="s" depth="0" NCoef="0" IVar="9" Cut="2.9791392385959625e-02" cType="1" res="-9.9000000000000000e+01" rms="0.0000000000000000e+00" purity="5.0736981630325317e-01" nType="0">
        <Node pos="l" depth="1" NCoef="0" IVar="14" Cut="3.7271316051483154e+00" cType="0" res="-9.9000000000000000e+01" rms="0.0000000000000000e+00" purity="7.5118708610534668e-01" nType="0">
          <Node pos="l" depth="2" NCoef="0" IVar="-1" Cut="7.8349792957305908e-01" cType="0" res="-9.9000000000000000e+01" rms="0.0000000000000000e+00" purity="8.4566384553909302e-01" nType="1"/>
          <Node pos="r" depth="2" NCoef="0" IVar="12" Cut="4.5069240033626556e-02" cType="1" res="-9.9000000000000000e+01" rms="0.0000000000000000e+00" purity="5.1624882221221924e-01" nType="0">
            <Node pos="l" depth="3" NCoef="0" IVar="8" Cut="1.0786618106067181e-02" cType="1" res="-9.9000000000000000e+01" rms="0.0000000000000000e+00" purity="5.5926918983459473e-01" nType="0">
              <Node pos="l" depth="4" NCoef="0" IVar="-1" Cut="0.0000000000000000e+00" cType="1" res="-9.9000000000000000e+01" rms="0.0000000000000000e+00" purity="6.3377040624618530e-01" nType="1"/>
              <Node pos="r" depth="4" NCoef="0" IVar="-1" Cut="0.0000000000000000e+00" cType="1" res="-9.9000000000000000e+01" rms="0.0000000000000000e+00" purity="4.9982464313507080e-01" nType="-1"/>
            </Node>
            <Node pos="r" depth="3" NCoef="0" IVar="-1" Cut="0.0000000000000000e+00" cType="1" res="-9.9000000000000000e+01" rms="0.0000000000000000e+00" purity="4.0797725319862366e-01" nType="-1"/>
          </Node>
        </Node>
        <Node pos="r" depth="1" NCoef="0" IVar="13" Cut="1.4018639922142029e-01" cType="1" res="-9.9000000000000000e+01" rms="0.0000000000000000e+00" purity="4.8875781893730164e-01" nType="0">
          <Node pos="l" depth="2" NCoef="0" IVar="13" Cut="1.4260019175708294e-02" cType="0" res="-9.9000000000000000e+01" rms="0.0000000000000000e+00" purity="5.0660562515258789e-01" nType="0">
            <Node pos="l" depth="3" NCoef="0" IVar="10" Cut="3.7397578358650208e-01" cType="0" res="-9.9000000000000000e+01" rms="0.0000000000000000e+00" purity="5.2115118503570557e-01" nType="0">
              <Node pos="l" depth="4" NCoef="0" IVar="-1" Cut="0.0000000000000000e+00" cType="1" res="-9.9000000000000000e+01" rms="0.0000000000000000e+00" purity="5.2496337890625000e-01" nType="1"/>
              <Node pos="r" depth="4" NCoef="0" IVar="-1" Cut="0.0000000000000000e+00" cType="1" res="-9.9000000000000000e+01" rms="0.0000000000000000e+00" purity="1.0813114792108536e-01" nType="-1"/>
            </Node>
            <Node pos="r" depth="3" NCoef="0" IVar="8" Cut="3.3557337522506714e-01" cType="0" res="-9.9000000000000000e+01" rms="0.0000000000000000e+00" purity="3.5531052947044373e-01" nType="0">
              <Node pos="l" depth="4" NCoef="0" IVar="-1" Cut="0.0000000000000000e+00" cType="1" res="-9.9000000000000000e+01" rms="0.0000000000000000e+00" purity="6.9766765832901001e-01" nType="1"/>
              <Node pos="r" depth="4" NCoef="0" IVar="-1" Cut="0.0000000000000000e+00" cType="1" res="-9.9000000000000000e+01" rms="0.0000000000000000e+00" purity="3.2458418607711792e-01" nType="-1"/>
            </Node>
          </Node>
          <Node pos="r" depth="2" NCoef="0" IVar="8" Cut="1.8812862038612366e-01" cType="1" res="-9.9000000000000000e+01" rms="0.0000000000000000e+00" purity="3.2741907238960266e-01" nType="0">
            <Node pos="l" depth="3" NCoef="0" IVar="9" Cut="5.2434253692626953e-01" cType="0" res="-9.9000000000000000e+01" rms="0.0000000000000000e+00" purity="4.2252421379089355e-01" nType="0">
              <Node pos="l" depth="4" NCoef="0" IVar="-1" Cut="0.0000000000000000e+00" cType="1" res="-9.9000000000000000e+01" rms="0.0000000000000000e+00" purity="5.7532024383544922e-01" nType="1"/>
              <Node pos="r" depth="4" NCoef="0" IVar="-1" Cut="0.0000000000000000e+00" cType="1" res="-9.9000000000000000e+01" rms="0.0000000000000000e+00" purity="3.4224036335945129e-01" nType="-1"/>
            </Node>
            <Node pos="r" depth="3" NCoef="0" IVar="-1" Cut="8.3146828413009644e-01" cType="0" res="-9.9000000000000000e+01" rms="0.0000000000000000e+00" purity="9.4626784324645996e-02" nType="-1"/>
          </Node>
        </Node>
      </Node>
    </BinaryTree>
    <BinaryTree type="DecisionTree" boostWeight="1.5985297650968536e-01" itree="25">
      <Node pos="s" depth="0" NCoef="0" IVar="9" Cut="2.9791392385959625e-02" cType="1" res="-9.9000000000000000e+01" rms="0.0000000000000000e+00" purity="4.8023471236228943e-01" nType="0">
        <Node pos="l" depth="1" NCoef="0" IVar="14" Cut="5.3488330841064453e+00" cType="0" res="-9.9000000000000000e+01" rms="0.0000000000000000e+00" purity="7.4081861972808838e-01" nType="0">
          <Node pos="l" depth="2" NCoef="0" IVar="-1" Cut="1.8028063699603081e-02" cType="1" res="-9.9000000000000000e+01" rms="0.0000000000000000e+00" purity="8.9850389957427979e-01" nType="1"/>
          <Node pos="r" depth="2" NCoef="0" IVar="10" Cut="8.1366825103759766e-01" cType="0" res="-9.9000000000000000e+01" rms="0.0000000000000000e+00" purity="6.2803143262863159e-01" nType="0">
            <Node pos="l" depth="3" NCoef="0" IVar="-1" Cut="2.9565927982330322e+00" cType="0" res="-9.9000000000000000e+01" rms="0.0000000000000000e+00" purity="7.2036647796630859e-01" nType="1"/>
            <Node pos="r" depth="3" NCoef="0" IVar="5" Cut="5.2606701850891113e+00" cType="1" res="-9.9000000000000000e+01" rms="0.0000000000000000e+00" purity="4.5023393630981445e-01" nType="0">
              <Node pos="l" depth="4" NCoef="0" IVar="-1" Cut="0.0000000000000000e+00" cType="1" res="-9.9000000000000000e+01" rms="0.0000000000000000e+00" purity="6.4962446689605713e-01" nType="1"/>
              <Node pos="r" depth="4" NCoef="0" IVar="-1" Cut="0.0000000000000000e+00" cType="1" res="-9.9000000000000000e+01" rms="0.0000000000000000e+00" purity="3.3446374535560608e-01" nType="-1"/>
            </Node>
          </Node>
        </Node>
